{"learner":{"attributes":{"scikit_learn":"{\"_estimator_type\": \"regressor\"}"},"feature_names":["MES","DIA_NUM","FRANJA_NUM","MUN_ENC","MUN_RIESGO_RANK","ES_FIN_SEMANA","ES_HORA_PICO","ES_NOCHE","MES_SIN","MES_COS","CAUSA_ENC","TIPO_ENC"],"feature_types":["int","int","int","int","float","int","int","int","float","float","int","int"],"gradient_booster":{"model":{"cats":{"enc":[],"feature_segments":[],"sorted_idx":[]},"gbtree_model_param":{"num_parallel_tree":"1","num_trees":"7"},"iteration_indptr":[0,1,2,3,4,5,6,7],"tree_info":[0,0,0,0,0,0,0],"trees":[{"base_weights":[-1.1644399E-2,9.739107E0,-1.158055E1,-1.0039664E1,2.1976397E1,-9.062817E0,-1.4670043E1,-1.2425744E1,-4.3135257E0,3.2210945E1,1.1719724E1,-1.5084044E1,-6.001041E0,-6.599297E-1,-1.3991738E1,-1.1416435E1,-1.3506382E1,-1.0336242E1,1.189167E0,3.553058E1,1.1992891E1,1.3755656E1,-5.9107655E-1,-6.3344795E-1,-1.3402301E1,-5.2816367E0,-1.034468E1,-1.3705759E1,-6.518222E-1,-1.1852365E1,-9.562687E0,-5.509133E-1,-1.2419805E1,-9.661647E0,-6.001682E-1,4.6362877E0,-2.4959962E0,4.1917404E1,2.2666058E1,1.3666828E1,8.64111E0,1.7260822E1,6.646412E0,-1.6284801E-1,-2.9379287E-1,-5.9733856E-1,-4.816838E-1,-4.9942307E0,-6.022866E-1,-3.9628726E-1,-5.291215E-1,-1.3393888E1,-5.7125556E-1,-4.207117E-1,-4.9100175E-1,-4.3115208E-1,-3.2765964E-1,-5.0596565E-1,-3.5004213E-1,-3.1382078E-1,-4.6277073E-1,2.1987583E-1,-3.3318484E-1,-1.4613089E-1,-5.094222E-2,1.3465964E0,2.0093768E0,9.132822E-1,-1.7146133E-1,3.5974032E-1,7.346162E-1,3.9745453E-1,2.640351E-1,7.014567E-1,-3.5382536E-1,2.7717447E-1,-4.3542537E-1,2.0409431E-2,-5.6412973E-2,-1.7047325E-1,-2.5863346E-1,-5.588465E-1,-5.1192075E-1],"categories":[],"categories_nodes":[],"categories_segments":[],"categories_sizes":[],"default_left":[0,0,0,0,0,0,0,0,0,0,0,0,0,0,0,0,0,0,0,0,0,0,0,0,0,0,0,0,0,0,0,0,0,0,0,0,0,0,0,0,0,0,0,0,0,0,0,0,0,0,0,0,0,0,0,0,0,0,0,0,0,0,0,0,0,0,0,0,0,0,0,0,0,0,0,0,0,0,0,0,0,0,0],"id":0,"left_children":[1,3,5,7,9,11,13,15,17,19,21,23,25,-1,27,29,31,33,35,37,39,41,43,-1,45,47,49,51,-1,53,55,-1,57,59,-1,61,63,65,67,69,71,73,75,77,-1,-1,-1,79,-1,-1,-1,81,-1,-1,-1,-1,-1,-1,-1,-1,-1,-1,-1,-1,-1,-1,-1,-1,-1,-1,-1,-1,-1,-1,-1,-1,-1,-1,-1,-1,-1,-1,-1],"loss_changes":[1.6269942E6,1.8946462E6,5.1110375E4,4.0805375E4,5.070255E5,6.694128E4,3.32225E3,2.0704688E3,2.9265965E4,1.6174675E5,6.0604938E4,1.230375E3,7.462172E3,0E0,1.0921562E3,7.190469E2,3.4953125E1,1.1086172E3,5.892696E3,1.692665E5,1.7490078E3,5.1521312E4,9.941749E2,0E0,5.3803125E2,5.71459E3,2.3305469E2,5.96875E1,0E0,3.0470312E2,2.2929688E2,0E0,1.33671875E1,1.1533945E3,0E0,2.741016E3,3.1037512E2,9.2623E4,3.2460312E3,4.7243516E3,2.1393945E2,1.0223219E4,3.5234316E3,2.7443246E2,0E0,0E0,0E0,2.1326016E3,0E0,0E0,0E0,1.7126562E2,0E0,0E0,0E0,0E0,0E0,0E0,0E0,0E0,0E0,0E0,0E0,0E0,0E0,0E0,0E0,0E0,0E0,0E0,0E0,0E0,0E0,0E0,0E0,0E0,0E0,0E0,0E0,0E0,0E0,0E0,0E0],"parents":[2147483647,0,0,1,1,2,2,3,3,4,4,5,5,6,6,7,7,8,8,9,9,10,10,11,11,12,12,14,14,15,15,16,16,17,17,18,18,19,19,20,20,21,21,22,22,24,24,25,25,26,26,27,27,29,29,30,30,32,32,33,33,35,35,36,36,37,37,38,38,39,39,40,40,41,41,42,42,43,43,47,47,51,51],"right_children":[2,4,6,8,10,12,14,16,18,20,22,24,26,-1,28,30,32,34,36,38,40,42,44,-1,46,48,50,52,-1,54,56,-1,58,60,-1,62,64,66,68,70,72,74,76,78,-1,-1,-1,80,-1,-1,-1,82,-1,-1,-1,-1,-1,-1,-1,-1,-1,-1,-1,-1,-1,-1,-1,-1,-1,-1,-1,-1,-1,-1,-1,-1,-1,-1,-1,-1,-1,-1,-1],"split_conditions":[3E0,1E0,4E0,5E0,2E0,1E0,1E0,2E0,0E0,6E0,6E0,5E0,6E0,-6.599297E-1,1E0,4E0,4E0,1E0,2E0,3E0,3E0,3E0,1E0,-6.3344795E-1,0E0,1E0,1E0,3E0,-6.518222E-1,1E0,7E0,-5.509133E-1,1.2E1,2E0,-6.001682E-1,1E0,6E0,2E0,1E0,2E0,5E-1,1E0,1E0,3E0,-2.9379287E-1,-5.9733856E-1,-4.816838E-1,3E0,-6.022866E-1,-3.9628726E-1,-5.291215E-1,2E0,-5.7125556E-1,-4.207117E-1,-4.9100175E-1,-4.3115208E-1,-3.2765964E-1,-5.0596565E-1,-3.5004213E-1,-3.1382078E-1,-4.6277073E-1,2.1987583E-1,-3.3318484E-1,-1.4613089E-1,-5.094222E-2,1.3465964E0,2.0093768E0,9.132822E-1,-1.7146133E-1,3.5974032E-1,7.346162E-1,3.9745453E-1,2.640351E-1,7.014567E-1,-3.5382536E-1,2.7717447E-1,-4.3542537E-1,2.0409431E-2,-5.6412973E-2,-1.7047325E-1,-2.5863346E-1,-5.588465E-1,-5.1192075E-1],"split_indices":[4,2,4,1,4,2,2,4,2,1,1,1,1,0,11,1,1,11,4,2,2,2,11,0,2,11,11,2,0,1,0,0,0,4,0,11,1,2,11,2,9,11,11,2,0,0,0,2,0,0,0,2,0,0,0,0,0,0,0,0,0,0,0,0,0,0,0,0,0,0,0,0,0,0,0,0,0,0,0,0,0,0,0],"split_type":[0,0,0,0,0,0,0,0,0,0,0,0,0,0,0,0,0,0,0,0,0,0,0,0,0,0,0,0,0,0,0,0,0,0,0,0,0,0,0,0,0,0,0,0,0,0,0,0,0,0,0,0,0,0,0,0,0,0,0,0,0,0,0,0,0,0,0,0,0,0,0,0,0,0,0,0,0,0,0,0,0,0,0],"sum_hessian":[1.442E4,7.825E3,6.595E3,2.991E3,4.834E3,3.637E3,2.958E3,2.11E3,8.81E2,2.418E3,2.416E3,1.224E3,2.413E3,7.91E2,2.167E3,1.1E3,1.01E3,4.2E2,4.61E2,2.076E3,3.42E2,2.073E3,3.43E2,8.37E2,3.87E2,2.073E3,3.4E2,1.937E3,2.3E2,8.84E2,2.16E2,7.97E2,2.13E2,3.71E2,4.9E1,2.38E2,2.23E2,1.385E3,6.91E2,2.25E2,1.17E2,1.387E3,6.86E2,3.24E2,1.9E1,1.75E2,2.12E2,2.016E3,5.7E1,3.01E2,3.9E1,1.28E3,6.57E2,2.22E2,6.62E2,1.09E2,1.07E2,1.97E2,1.6E1,1.94E2,1.77E2,2.24E2,1.4E1,1.13E2,1.1E2,6.99E2,6.86E2,6.87E2,4E0,1.15E2,1.1E2,6.8E1,4.9E1,1.373E3,1.4E1,6.76E2,1E1,2.11E2,1.13E2,1.35E3,6.66E2,6.33E2,6.47E2],"tree_param":{"num_deleted":"0","num_feature":"12","num_nodes":"83","size_leaf_vector":"1"}},{"base_weights":[-3.2791167E-2,9.199224E0,-1.1150412E1,-9.684159E0,2.1091116E1,-8.76117E0,-1.4068334E1,-1.1905342E1,-4.3913903E0,3.1284086E1,1.0910268E1,-1.4484132E1,-5.736458E0,-6.328693E-1,-1.3421016E1,-1.0919251E1,-1.2936597E1,-1.0173187E1,1.0225716E0,3.437508E1,1.23347225E1,1.2801198E1,-4.0895233E-1,-6.081258E-1,-1.2885501E1,-5.002425E0,-1.0041733E1,-1.31432085E1,-6.2427557E-1,-1.1311985E1,-9.218922E0,-5.295748E-1,-4.680359E-1,-9.587352E0,-5.7181096E-1,4.460404E0,-2.222907E0,4.020632E1,2.2642586E1,1.4483648E1,7.922758E0,1.5720425E1,6.87779E0,1.8466271E-2,-3.0584696E-1,-5.730324E-1,-4.6903914E-1,-4.7311316E0,-5.803299E-1,-3.867963E-1,-5.0139576E-1,-1.2859237E1,-5.4644936E-1,-4.001048E-1,-4.6999052E-1,-4.0064186E-1,-3.3209336E-1,-3.2736668E-1,-4.4743675E-1,2.111285E-1,-3.2607594E-1,-6.304585E-2,-1.5593322E-1,1.3082905E0,1.9077607E0,9.162907E-1,-2.4849746E-1,4.07809E-1,7.279956E-1,2.4437493E-1,3.4907135E-1,6.382429E-1,-3.3416054E-1,2.8847438E-1,-4.841429E-1,2.125848E-2,-4.0571485E-2,-1.5702932E-1,-2.548029E-1,-5.3680974E-1,-4.918787E-1],"categories":[],"categories_nodes":[],"categories_segments":[],"categories_sizes":[],"default_left":[0,0,0,0,0,0,0,0,0,0,0,0,0,0,0,0,0,0,0,0,0,0,0,0,0,0,0,0,0,0,0,0,0,0,0,0,0,0,0,0,0,0,0,0,0,0,0,0,0,0,0,0,0,0,0,0,0,0,0,0,0,0,0,0,0,0,0,0,0,0,0,0,0,0,0,0,0,0,0,0,0],"id":1,"left_children":[1,3,5,7,9,11,13,15,17,19,21,23,25,-1,27,29,31,33,35,37,39,41,43,-1,45,47,49,51,-1,53,55,-1,-1,57,-1,59,61,63,65,67,69,71,73,75,-1,-1,-1,77,-1,-1,-1,79,-1,-1,-1,-1,-1,-1,-1,-1,-1,-1,-1,-1,-1,-1,-1,-1,-1,-1,-1,-1,-1,-1,-1,-1,-1,-1,-1,-1,-1],"loss_changes":[1.4865069E6,1.7771314E6,4.5621E4,3.5877094E4,5.0335625E5,6.2477094E4,3.0345E3,1.9768438E3,2.8391715E4,1.4142875E5,5.2051906E4,1.1409688E3,7.4088594E3,0E0,1.00771875E3,5.841094E2,1.5717188E2,8.5214453E2,5.2533887E3,1.4124225E5,3.0739922E3,3.5864094E4,1.0817097E3,0E0,4.105703E2,5.1221523E3,1.3550781E2,1.95625E1,0E0,3.359375E2,3.253125E1,0E0,0E0,7.3314844E2,0E0,2.4212495E3,2.5328235E2,7.573375E4,5.526125E3,3.3618164E3,8.768555E1,8.1114688E3,4.5092188E3,1.764125E2,0E0,0E0,0E0,2.5656797E3,0E0,0E0,0E0,1.5320312E2,0E0,0E0,0E0,0E0,0E0,0E0,0E0,0E0,0E0,0E0,0E0,0E0,0E0,0E0,0E0,0E0,0E0,0E0,0E0,0E0,0E0,0E0,0E0,0E0,0E0,0E0,0E0,0E0,0E0],"parents":[2147483647,0,0,1,1,2,2,3,3,4,4,5,5,6,6,7,7,8,8,9,9,10,10,11,11,12,12,14,14,15,15,16,16,17,17,18,18,19,19,20,20,21,21,22,22,24,24,25,25,26,26,27,27,29,29,30,30,33,33,35,35,36,36,37,37,38,38,39,39,40,40,41,41,42,42,43,43,47,47,51,51],"right_children":[2,4,6,8,10,12,14,16,18,20,22,24,26,-1,28,30,32,34,36,38,40,42,44,-1,46,48,50,52,-1,54,56,-1,-1,58,-1,60,62,64,66,68,70,72,74,76,-1,-1,-1,78,-1,-1,-1,80,-1,-1,-1,-1,-1,-1,-1,-1,-1,-1,-1,-1,-1,-1,-1,-1,-1,-1,-1,-1,-1,-1,-1,-1,-1,-1,-1,-1,-1],"split_conditions":[2E0,1E0,3E0,5E0,1E0,1E0,1E0,1E0,0E0,6E0,6E0,5E0,6E0,-6.328693E-1,1E0,4E0,4E0,1E0,1E0,3E0,3E0,3E0,1E0,-6.081258E-1,0E0,1E0,1E0,3E0,-6.2427557E-1,1E0,0E0,-5.295748E-1,-4.680359E-1,1E0,-5.7181096E-1,1E0,1E0,2E0,1E0,2E0,5E0,1E0,1E0,3E0,-3.0584696E-1,-5.730324E-1,-4.6903914E-1,3E0,-5.803299E-1,-3.867963E-1,-5.0139576E-1,2E0,-5.4644936E-1,-4.001048E-1,-4.6999052E-1,-4.0064186E-1,-3.3209336E-1,-3.2736668E-1,-4.4743675E-1,2.111285E-1,-3.2607594E-1,-6.304585E-2,-1.5593322E-1,1.3082905E0,1.9077607E0,9.162907E-1,-2.4849746E-1,4.07809E-1,7.279956E-1,2.4437493E-1,3.4907135E-1,6.382429E-1,-3.3416054E-1,2.8847438E-1,-4.841429E-1,2.125848E-2,-4.0571485E-2,-1.5702932E-1,-2.548029E-1,-5.3680974E-1,-4.918787E-1],"split_indices":[3,2,3,1,3,2,2,3,2,1,1,1,1,0,11,1,1,11,3,2,2,2,11,0,2,11,11,2,0,1,2,0,0,3,0,11,11,2,11,2,0,11,11,2,0,0,0,2,0,0,0,2,0,0,0,0,0,0,0,0,0,0,0,0,0,0,0,0,0,0,0,0,0,0,0,0,0,0,0,0,0],"split_type":[0,0,0,0,0,0,0,0,0,0,0,0,0,0,0,0,0,0,0,0,0,0,0,0,0,0,0,0,0,0,0,0,0,0,0,0,0,0,0,0,0,0,0,0,0,0,0,0,0,0,0,0,0,0,0,0,0,0,0,0,0,0,0,0,0,0,0,0,0,0,0,0,0,0,0,0,0,0,0,0,0],"sum_hessian":[1.448E4,7.911E3,6.569E3,3.057E3,4.854E3,3.615E3,2.954E3,2.152E3,9.05E2,2.424E3,2.43E3,1.248E3,2.367E3,7.87E2,2.167E3,1.109E3,1.043E3,4.37E2,4.68E2,2.083E3,3.41E2,2.082E3,3.48E2,8.52E2,3.96E2,2.025E3,3.42E2,1.932E3,2.35E2,8.94E2,2.15E2,8.26E2,2.17E2,3.87E2,5E1,2.27E2,2.41E2,1.389E3,6.94E2,2.27E2,1.14E2,1.393E3,6.89E2,3.3E2,1.8E1,1.69E2,2.27E2,1.971E3,5.4E1,3.04E2,3.8E1,1.273E3,6.59E2,2.33E2,6.61E2,1.07E2,1.08E2,2.11E2,1.76E2,2.14E2,1.3E1,1.76E2,6.5E1,6.98E2,6.91E2,6.88E2,6E0,1.08E2,1.19E2,3.9E1,7.5E1,1.38E3,1.3E1,6.78E2,1.1E1,2.21E2,1.09E2,1.325E3,6.46E2,6.2E2,6.53E2],"tree_param":{"num_deleted":"0","num_feature":"12","num_nodes":"81","size_leaf_vector":"1"}},{"base_weights":[-1.2652951E-1,8.748498E0,-1.05899315E1,-9.370061E0,2.0181387E1,-1.4424127E1,-8.891424E0,-1.1424454E1,-4.272791E0,3.010633E1,1.0214663E1,-5.980096E-1,-1.3383459E1,-5.4641438E0,-1.281064E1,-1.049837E1,-1.2404539E1,-9.545158E0,8.2370585E-1,3.3221413E1,1.2090436E1,1.20495615E1,-5.7792896E-1,-1.2362987E1,-5.844244E-1,-4.750089E0,-3.8887557E-1,-1.2529669E1,-5.3315896E-1,-1.0914213E1,-8.803032E0,-5.0664896E-1,-4.5095867E-1,-7.783404E0,-4.5357594E-1,4.1330895E0,-2.7061741E0,3.909905E1,2.1509127E1,1.3770961E1,8.465099E0,1.5158295E1,5.6590157E0,-1.9341673E0,1.3772945E-1,-5.517873E-1,-1.1195188E1,-4.251017E0,-7.285584E0,-5.2299225E-1,-4.7802883E-1,-3.9453262E-1,-4.496594E-1,-3.6803135E-1,-1.9043194E-1,-3.6862367E-1,-2.4480361E-1,1.00148894E-1,2.3059265E-1,-1.4564016E-1,-6.8629034E-2,1.2324461E0,1.881515E0,8.949198E-1,6.8188405E-1,3.669926E-1,7.2053456E-1,1.834518E-1,3.4748912E-1,6.5081906E-1,3.981223E-1,2.5488776E-1,8.297795E-2,-1.10564746E-1,-3.1170215E-2,5.4254524E-2,-4.4142324E-2,-4.8362017E-1,-4.0833232E-1,-2.0496596E-1,-1.442677E-1,-2.9686457E-1,-2.2972374E-1],"categories":[],"categories_nodes":[],"categories_segments":[],"categories_sizes":[],"default_left":[0,0,0,0,0,0,0,0,0,0,0,0,0,0,0,0,0,0,0,0,0,0,0,0,0,0,0,0,0,0,0,0,0,0,0,0,0,0,0,0,0,0,0,0,0,0,0,0,0,0,0,0,0,0,0,0,0,0,0,0,0,0,0,0,0,0,0,0,0,0,0,0,0,0,0,0,0,0,0,0,0,0,0],"id":2,"left_children":[1,3,5,7,9,11,13,15,17,19,21,-1,23,25,27,29,31,33,35,37,39,41,43,45,-1,47,-1,49,-1,51,53,-1,-1,55,-1,57,59,61,63,65,67,69,71,73,75,-1,77,79,81,-1,-1,-1,-1,-1,-1,-1,-1,-1,-1,-1,-1,-1,-1,-1,-1,-1,-1,-1,-1,-1,-1,-1,-1,-1,-1,-1,-1,-1,-1,-1,-1,-1,-1],"loss_changes":[1.3386195E6,1.6159311E6,4.2889312E4,3.1535094E4,4.7261775E5,8.090625E2,6.1527938E4,1.755375E3,2.3376219E4,1.33833E5,4.731125E4,0E0,5.9866406E2,7.380172E3,5.98125E1,6.413281E2,9.125E1,1.2179883E3,5.1976943E3,1.392735E5,1.9899023E3,4.042775E4,3.387447E2,4.183164E2,0E0,2.6121953E3,0E0,2.1015625E2,0E0,1.3854688E2,2.9937305E2,0E0,0E0,4.3990332E2,0E0,5.88104E2,1.8989343E2,8.7140375E4,2.0682812E3,4.440172E3,3.994922E1,7.7014375E3,1.6938379E3,1.1209372E2,3.4941678E2,0E0,1.034375E1,9.617031E2,7.482422E0,0E0,0E0,0E0,0E0,0E0,0E0,0E0,0E0,0E0,0E0,0E0,0E0,0E0,0E0,0E0,0E0,0E0,0E0,0E0,0E0,0E0,0E0,0E0,0E0,0E0,0E0,0E0,0E0,0E0,0E0,0E0,0E0,0E0,0E0],"parents":[2147483647,0,0,1,1,2,2,3,3,4,4,5,5,6,6,7,7,8,8,9,9,10,10,12,12,13,13,14,14,15,15,16,16,17,17,18,18,19,19,20,20,21,21,22,22,23,23,25,25,27,27,29,29,30,30,33,33,35,35,36,36,37,37,38,38,39,39,40,40,41,41,42,42,43,43,44,44,46,46,47,47,48,48],"right_children":[2,4,6,8,10,12,14,16,18,20,22,-1,24,26,28,30,32,34,36,38,40,42,44,46,-1,48,-1,50,-1,52,54,-1,-1,56,-1,58,60,62,64,66,68,70,72,74,76,-1,78,80,82,-1,-1,-1,-1,-1,-1,-1,-1,-1,-1,-1,-1,-1,-1,-1,-1,-1,-1,-1,-1,-1,-1,-1,-1,-1,-1,-1,-1,-1,-1,-1,-1,-1,-1],"split_conditions":[2E0,1E0,1E0,5E0,1E0,5E0,3E0,1E0,0E0,6E0,6E0,-5.980096E-1,3E0,6E0,3E0,4E0,4E0,1E0,1E0,3E0,3E0,3E0,2E0,0E0,-5.844244E-1,1E0,-3.8887557E-1,2E0,-5.3315896E-1,1E0,1.2E1,-5.0664896E-1,-4.5095867E-1,7E0,-4.5357594E-1,6E0,6E0,2E0,5E0,2E0,2E0,5E0,5E0,5E-1,3E0,-5.517873E-1,6E0,-1.8369701E-16,1.2E1,-5.2299225E-1,-4.7802883E-1,-3.9453262E-1,-4.496594E-1,-3.6803135E-1,-1.9043194E-1,-3.6862367E-1,-2.4480361E-1,1.00148894E-1,2.3059265E-1,-1.4564016E-1,-6.8629034E-2,1.2324461E0,1.881515E0,8.949198E-1,6.8188405E-1,3.669926E-1,7.2053456E-1,1.834518E-1,3.4748912E-1,6.5081906E-1,3.981223E-1,2.5488776E-1,8.297795E-2,-1.10564746E-1,-3.1170215E-2,5.4254524E-2,-4.4142324E-2,-4.8362017E-1,-4.0833232E-1,-2.0496596E-1,-1.442677E-1,-2.9686457E-1,-2.2972374E-1],"split_indices":[3,2,2,1,3,1,3,3,2,1,1,0,3,1,2,1,1,3,3,2,2,2,2,2,0,7,0,2,0,1,0,0,0,0,0,1,1,2,1,2,0,1,1,9,2,0,1,9,0,0,0,0,0,0,0,0,0,0,0,0,0,0,0,0,0,0,0,0,0,0,0,0,0,0,0,0,0,0,0,0,0,0,0],"split_type":[0,0,0,0,0,0,0,0,0,0,0,0,0,0,0,0,0,0,0,0,0,0,0,0,0,0,0,0,0,0,0,0,0,0,0,0,0,0,0,0,0,0,0,0,0,0,0,0,0,0,0,0,0,0,0,0,0,0,0,0,0,0,0,0,0,0,0,0,0,0,0,0,0,0,0,0,0,0,0,0,0,0,0],"sum_hessian":[1.4412E4,7.798E3,6.614E3,3.017E3,4.781E3,2.027E3,4.587E3,2.149E3,8.68E2,2.394E3,2.387E3,1.333E3,6.94E2,2.449E3,2.138E3,1.114E3,1.035E3,4.26E2,4.42E2,2.04E3,3.54E2,2.04E3,3.47E2,3.88E2,3.06E2,2.1E3,3.49E2,1.411E3,7.27E2,8.88E2,2.26E2,8.28E2,2.07E2,2.19E2,2.07E2,2.28E2,2.14E2,1.356E3,6.84E2,2.39E2,1.15E2,1.371E3,6.69E2,1.19E2,2.28E2,1.67E2,2.21E2,1.758E3,3.42E2,7.1E2,7.01E2,2.22E2,6.66E2,2.04E2,2.2E1,1.14E2,1.05E2,1.16E2,1.12E2,1.08E2,1.06E2,6.67E2,6.89E2,5.68E2,1.16E2,1.17E2,1.22E2,8E0,1.07E2,1.127E3,2.44E2,5.57E2,1.12E2,6.8E1,5.1E1,1.15E2,1.13E2,1.07E2,1.14E2,7.42E2,1.016E3,3.09E2,3.3E1],"tree_param":{"num_deleted":"0","num_feature":"12","num_nodes":"83","size_leaf_vector":"1"}},{"base_weights":[-9.4053246E-2,8.262429E0,-1.0144343E1,-8.870068E0,1.9004534E1,-1.3873527E1,-8.494719E0,-1.1370901E1,-5.6484466E0,2.8207167E1,9.778754E0,-1.3416255E1,-5.838437E-1,-5.124002E0,-1.2292311E1,-1.05090475E1,-4.9215594E-1,-9.426947E0,-2.3748596E0,3.2906555E1,1.874155E1,1.2257394E1,4.7771015E0,-5.6211126E-1,-1.261548E1,-4.808368E0,-5.1552904E-1,-1.202959E1,-5.808671E-1,-1.0216813E1,-1.1955631E1,-8.121226E0,-4.3214834E-1,5.3761184E-1,-5.1122994E0,2.6207947E1,3.9610336E1,1.8973106E1,-2.5686046E-1,1.2665181E1,-3.3053172E-1,5.102636E0,-1.1269926E1,-5.4124254E-1,-4.7223383E-1,-4.420947E0,-6.782583E0,-1.17521105E1,-5.018831E-1,-4.3107617E-1,-3.858414E-1,-5.7214123E-1,-4.3041742E-1,-3.064233E-1,-5.508278E-1,5.5768993E-2,-3.1416452E-1,-1.7710866E-1,-2.6023495E-1,1.2442452E0,7.970886E-1,1.7118559E0,1.4020774E0,8.1416655E-1,7.177534E-1,5.905606E-1,3.9068604E-1,2.202331E-1,1.5425125E-1,-4.9089023E-1,-1.7980738E-1,-1.977666E-1,-1.6148083E-1,-3.071881E-1,-2.567566E-1,-4.8976102E-1,-4.5001647E-1],"categories":[],"categories_nodes":[],"categories_segments":[],"categories_sizes":[],"default_left":[0,0,0,0,0,0,0,0,0,0,0,0,0,0,0,0,0,0,0,0,0,0,0,0,0,0,0,0,0,0,0,0,0,0,0,0,0,0,0,0,0,0,0,0,0,0,0,0,0,0,0,0,0,0,0,0,0,0,0,0,0,0,0,0,0,0,0,0,0,0,0,0,0,0,0,0,0],"id":3,"left_children":[1,3,5,7,9,11,13,15,17,19,21,23,-1,25,27,29,-1,31,33,35,37,39,41,-1,43,45,-1,47,-1,49,51,53,-1,55,57,59,61,63,-1,65,-1,67,69,-1,-1,71,73,75,-1,-1,-1,-1,-1,-1,-1,-1,-1,-1,-1,-1,-1,-1,-1,-1,-1,-1,-1,-1,-1,-1,-1,-1,-1,-1,-1,-1,-1],"loss_changes":[1.2147601E6,1.453702E6,4.0217562E4,2.4431547E4,4.117385E5,3.6946875E2,5.8230594E4,1.1819375E3,1.6460227E4,1.07142875E5,2.9993328E4,3.7015625E2,0E0,5.82816E3,9.909375E2,1.9634375E2,0E0,9.793008E2,5.716802E3,7.12545E4,4.9000625E3,1.3726047E4,4.298992E3,0E0,1.8053125E2,1.7323633E3,0E0,5.39375E1,0E0,8.5859375E1,1.6776172E2,6.8256445E2,0E0,2.5212812E3,3.0875293E2,2.4155812E4,9.473625E3,5.9096875E2,0E0,9.456656E3,0E0,3.6542773E2,2.8456299E1,0E0,0E0,3.608203E2,4.883789E1,1.07234375E2,0E0,0E0,0E0,0E0,0E0,0E0,0E0,0E0,0E0,0E0,0E0,0E0,0E0,0E0,0E0,0E0,0E0,0E0,0E0,0E0,0E0,0E0,0E0,0E0,0E0,0E0,0E0,0E0,0E0],"parents":[2147483647,0,0,1,1,2,2,3,3,4,4,5,5,6,6,7,7,8,8,9,9,10,10,11,11,13,13,14,14,15,15,17,17,18,18,19,19,20,20,21,21,22,22,24,24,25,25,27,27,29,29,30,30,31,31,33,33,34,34,35,35,36,36,37,37,39,39,41,41,42,42,45,45,46,46,47,47],"right_children":[2,4,6,8,10,12,14,16,18,20,22,24,-1,26,28,30,-1,32,34,36,38,40,42,-1,44,46,-1,48,-1,50,52,54,-1,56,58,60,62,64,-1,66,-1,68,70,-1,-1,72,74,76,-1,-1,-1,-1,-1,-1,-1,-1,-1,-1,-1,-1,-1,-1,-1,-1,-1,-1,-1,-1,-1,-1,-1,-1,-1,-1,-1,-1,-1],"split_conditions":[2E0,1E0,1E0,1E0,1E0,3E0,3E0,1E0,0E0,3E0,3E0,1E0,-5.838437E-1,1E0,1E0,1E0,-4.9215594E-1,1E0,1E0,2E0,1E0,1E0,1E0,-5.6211126E-1,0E0,1E0,-5.1552904E-1,3E0,-5.808671E-1,7E0,0E0,1E0,-4.3214834E-1,1E0,1E0,1E0,1E0,-1.8369701E-16,-2.5686046E-1,1E0,-3.3053172E-1,8.660254E-1,8.660254E-1,-5.4124254E-1,-4.7223383E-1,-1.8369701E-16,-5E-1,2E0,-5.018831E-1,-4.3107617E-1,-3.858414E-1,-5.7214123E-1,-4.3041742E-1,-3.064233E-1,-5.508278E-1,5.5768993E-2,-3.1416452E-1,-1.7710866E-1,-2.6023495E-1,1.2442452E0,7.970886E-1,1.7118559E0,1.4020774E0,8.1416655E-1,7.177534E-1,5.905606E-1,3.9068604E-1,2.202331E-1,1.5425125E-1,-4.9089023E-1,-1.7980738E-1,-1.977666E-1,-1.6148083E-1,-3.071881E-1,-2.567566E-1,-4.8976102E-1,-4.5001647E-1],"split_indices":[3,2,2,5,3,3,3,3,2,2,2,5,0,11,11,11,0,3,3,2,11,11,11,0,2,7,0,2,0,0,2,11,0,11,11,5,5,9,0,5,0,9,9,0,0,9,8,2,0,0,0,0,0,0,0,0,0,0,0,0,0,0,0,0,0,0,0,0,0,0,0,0,0,0,0,0,0],"split_type":[0,0,0,0,0,0,0,0,0,0,0,0,0,0,0,0,0,0,0,0,0,0,0,0,0,0,0,0,0,0,0,0,0,0,0,0,0,0,0,0,0,0,0,0,0,0,0,0,0,0,0,0,0,0,0,0,0,0,0,0,0,0,0,0,0,0,0,0,0,0,0,0,0,0,0,0,0],"sum_hessian":[1.4461E4,7.896E3,6.565E3,3.043E3,4.853E3,2.01E3,4.555E3,1.711E3,1.332E3,2.428E3,2.425E3,1.249E3,7.61E2,2.415E3,2.14E3,8.99E2,8.12E2,6.17E2,7.15E2,1.62E3,8.08E2,1.62E3,8.05E2,6.82E2,5.67E2,2.323E3,9.2E1,1.923E3,2.17E2,7.58E2,1.41E2,3.22E2,2.95E2,3.47E2,3.68E2,8.14E2,8.06E2,8.01E2,7E0,1.589E3,3.1E1,7.9E2,1.5E1,2.55E2,3.12E2,1.946E3,3.77E2,1.275E3,6.48E2,3.69E2,3.89E2,4.2E1,9.9E1,3.01E2,2.1E1,3.16E2,3.1E1,2.51E2,1.17E2,4.54E2,3.6E2,4.67E2,3.39E2,3.3E2,4.71E2,9.18E2,6.71E2,5.93E2,1.97E2,1.2E1,3E0,8.16E2,1.13E3,1E2,2.77E2,6.26E2,6.49E2],"tree_param":{"num_deleted":"0","num_feature":"12","num_nodes":"77","size_leaf_vector":"1"}},{"base_weights":[-1.1614571E-1,8.085549E0,-9.825081E0,-8.458594E0,1.847763E1,-1.332655E1,-8.258856E0,-1.0577471E1,-3.3356535E0,2.7204994E1,9.767755E0,-5.520774E-1,-1.237943E1,-5.0154886E0,-1.1861094E1,-9.6538515E0,-1.1502633E1,-8.8071995E0,1.6400415E0,3.0095913E1,9.854172E0,1.1618174E1,-1.0533433E0,-1.1490328E1,-5.3989154E-1,-4.3982487E0,-8.789055E0,-1.159462E1,-5.5591565E-1,-9.981478E0,-8.259175E0,-4.7164175E-1,-1.0347057E1,-8.329869E0,-5.107476E-1,5.1006265E0,-1.7573041E0,3.55185E1,1.905255E1,1.1331317E1,6.738099E0,1.4562297E1,5.6327143E0,-6.1138654E-1,-7.4923954E0,-5.059341E-1,-4.205287E-1,-4.1426373E0,-5.1711655E-1,-3.3743343E-1,-4.57044E-1,-1.1310279E1,-4.847449E-1,-3.560442E-1,-4.1335657E-1,-3.698103E-1,-2.8306767E-1,-4.2269439E-1,-2.8185385E-1,-2.8236073E-1,-3.920234E-1,2.2757083E-1,-1.9958904E-1,-1.0594115E-1,-3.5519358E-2,1.1173785E0,1.7201278E0,8.0454445E-1,5.398002E-1,2.9871428E-1,6.072344E-1,1.483343E-1,2.9434192E-1,5.9228927E-1,-3.3434147E-1,2.3796394E-1,-4.2531586E-1,-3.6862348E-3,-6.649417E-2,-1.6554444E-1,-3.3330742E-1,-1.3620095E-1,-2.250696E-1,-4.7104907E-1,-4.3335402E-1],"categories":[],"categories_nodes":[],"categories_segments":[],"categories_sizes":[],"default_left":[0,0,0,0,0,0,0,0,0,0,0,0,0,0,0,0,0,0,0,0,0,0,0,0,0,0,0,0,0,0,0,0,0,0,0,0,0,0,0,0,0,0,0,0,0,0,0,0,0,0,0,0,0,0,0,0,0,0,0,0,0,0,0,0,0,0,0,0,0,0,0,0,0,0,0,0,0,0,0,0,0,0,0,0,0],"id":4,"left_children":[1,3,5,7,9,11,13,15,17,19,21,-1,23,25,27,29,31,33,35,37,39,41,43,45,-1,47,49,51,-1,53,55,-1,57,59,-1,61,63,65,67,69,71,73,75,77,79,-1,-1,81,-1,-1,-1,83,-1,-1,-1,-1,-1,-1,-1,-1,-1,-1,-1,-1,-1,-1,-1,-1,-1,-1,-1,-1,-1,-1,-1,-1,-1,-1,-1,-1,-1,-1,-1,-1,-1],"loss_changes":[1.1477828E6,1.343595E6,3.6031562E4,3.2679281E4,3.6443E5,6.5978125E2,5.323872E4,1.6545781E3,2.4102314E4,1.19761125E5,4.816553E4,0E0,4.573672E2,5.5419023E3,9.301875E2,3.673203E2,1.6832812E2,6.364336E2,5.474647E3,1.21953125E5,1.4702617E3,3.6062594E4,9.958623E2,2.4916016E2,0E0,4.4309062E3,1.6785938E2,7.9390625E1,0E0,1.9023438E2,1.4999219E2,0E0,4.9945312E1,6.0656055E2,0E0,1.4117012E3,1.7875128E2,7.6273875E4,3.5981094E3,3.2718145E3,1.7375146E2,7.9082188E3,3.5914844E3,1.8058026E2,1.1056152E1,0E0,0E0,2.1727852E3,0E0,0E0,0E0,8.8859375E1,0E0,0E0,0E0,0E0,0E0,0E0,0E0,0E0,0E0,0E0,0E0,0E0,0E0,0E0,0E0,0E0,0E0,0E0,0E0,0E0,0E0,0E0,0E0,0E0,0E0,0E0,0E0,0E0,0E0,0E0,0E0,0E0,0E0],"parents":[2147483647,0,0,1,1,2,2,3,3,4,4,5,5,6,6,7,7,8,8,9,9,10,10,12,12,13,13,14,14,15,15,16,16,17,17,18,18,19,19,20,20,21,21,22,22,23,23,25,25,26,26,27,27,29,29,30,30,32,32,33,33,35,35,36,36,37,37,38,38,39,39,40,40,41,41,42,42,43,43,44,44,47,47,51,51],"right_children":[2,4,6,8,10,12,14,16,18,20,22,-1,24,26,28,30,32,34,36,38,40,42,44,46,-1,48,50,52,-1,54,56,-1,58,60,-1,62,64,66,68,70,72,74,76,78,80,-1,-1,82,-1,-1,-1,84,-1,-1,-1,-1,-1,-1,-1,-1,-1,-1,-1,-1,-1,-1,-1,-1,-1,-1,-1,-1,-1,-1,-1,-1,-1,-1,-1,-1,-1,-1,-1,-1,-1],"split_conditions":[2E0,1E0,1E0,5E0,1E0,5E0,3E0,1E0,0E0,6E0,6E0,-5.520774E-1,3E0,6E0,1E0,4E0,4E0,1E0,1E0,3E0,3E0,3E0,1E0,0E0,-5.3989154E-1,1E0,1E0,3E0,-5.5591565E-1,1E0,7E0,-4.7164175E-1,1.2E1,1E0,-5.107476E-1,1E0,6E0,2E0,5E0,2E0,3E0,1E0,1E0,3E0,3E0,-5.059341E-1,-4.205287E-1,3E0,-5.1711655E-1,-3.3743343E-1,-4.57044E-1,2E0,-4.847449E-1,-3.560442E-1,-4.1335657E-1,-3.698103E-1,-2.8306767E-1,-4.2269439E-1,-2.8185385E-1,-2.8236073E-1,-3.920234E-1,2.2757083E-1,-1.9958904E-1,-1.0594115E-1,-3.5519358E-2,1.1173785E0,1.7201278E0,8.0454445E-1,5.398002E-1,2.9871428E-1,6.072344E-1,1.483343E-1,2.9434192E-1,5.9228927E-1,-3.3434147E-1,2.3796394E-1,-4.2531586E-1,-3.6862348E-3,-6.649417E-2,-1.6554444E-1,-3.3330742E-1,-1.3620095E-1,-2.250696E-1,-4.7104907E-1,-4.3335402E-1],"split_indices":[3,2,2,1,3,1,3,3,2,1,1,0,3,1,11,1,1,11,3,2,2,2,11,2,0,11,11,2,0,1,0,0,0,3,0,11,1,2,1,2,0,11,11,2,0,0,0,2,0,0,0,2,0,0,0,0,0,0,0,0,0,0,0,0,0,0,0,0,0,0,0,0,0,0,0,0,0,0,0,0,0,0,0,0,0],"split_type":[0,0,0,0,0,0,0,0,0,0,0,0,0,0,0,0,0,0,0,0,0,0,0,0,0,0,0,0,0,0,0,0,0,0,0,0,0,0,0,0,0,0,0,0,0,0,0,0,0,0,0,0,0,0,0,0,0,0,0,0,0,0,0,0,0,0,0,0,0,0,0,0,0,0,0,0,0,0,0,0,0,0,0,0,0],"sum_hessian":[1.4411E4,7.812E3,6.599E3,3.014E3,4.798E3,2.036E3,4.563E3,2.131E3,8.83E2,2.395E3,2.403E3,1.342E3,6.94E2,2.403E3,2.16E3,1.075E3,1.056E3,4.2E2,4.63E2,2.052E3,3.43E2,2.052E3,3.51E2,3.96E2,2.98E2,2.068E3,3.35E2,1.919E3,2.41E2,8.63E2,2.12E2,8.34E2,2.22E2,3.79E2,4.1E1,2.29E2,2.34E2,1.374E3,6.78E2,2.3E2,1.13E2,1.374E3,6.78E2,3.3E2,2.1E1,1.73E2,2.23E2,2.01E3,5.8E1,3.01E2,3.4E1,1.266E3,6.53E2,2.22E2,6.41E2,1.1E2,1.02E2,2.05E2,1.7E1,2.08E2,1.71E2,2.17E2,1.2E1,1.14E2,1.2E2,6.86E2,6.88E2,5.66E2,1.12E2,1.17E2,1.13E2,2.1E1,9.2E1,1.36E3,1.4E1,6.66E2,1.2E1,2.22E2,1.08E2,6E0,1.5E1,1.346E3,6.64E2,6.22E2,6.44E2],"tree_param":{"num_deleted":"0","num_feature":"12","num_nodes":"85","size_leaf_vector":"1"}},{"base_weights":[-6.270057E-2,7.697695E0,-9.434751E0,-8.243458E0,1.7758177E1,-7.4079685E0,-1.1920926E1,-1.0212904E1,-3.5310864E0,2.6233034E1,9.261913E0,-1.2313297E1,-4.8525224E0,-5.3871304E-1,-1.1356928E1,-9.428484E0,-1.1022845E1,-8.279254E0,1.0542499E0,2.8973637E1,1.0006846E1,1.0947459E1,-7.732593E-1,-5.167067E-1,-1.0926071E1,-4.224287E0,-8.649547E0,-1.11139765E1,-5.340279E-1,-9.780546E0,-7.896377E0,-4.5213658E-1,-9.918396E0,-6.707141E0,-3.985139E-1,3.865092E0,-1.8120141E0,3.388085E1,1.8752134E1,7.3974686E0,1.1261647E1,1.3897072E1,5.226148E0,-3.681049E-1,-7.6403923E0,-4.9051592E-1,-3.921015E-1,-3.9757156E0,-5.0359696E-1,-8.348992E0,-4.2394808E-1,-1.0876258E1,-4.6252486E-1,-3.7784788E-1,-4.5091093E-1,-2.7245638E-1,-3.5265133E-1,-4.0705934E-1,-2.3843828E-1,-2.4786703E-1,-5.012831E-1,1.7498226E-1,-2.2815768E-1,-4.9973197E-2,-1.304612E-1,1.0913099E0,1.624216E0,7.581216E-1,-2.566213E-1,3.0926654E-1,-1.483676E-1,5.9027386E-1,3.1083357E-1,5.660693E-1,-3.3383086E-1,2.1974346E-1,-4.1536978E-1,-5.220407E-2,1.6539339E-3,-1.3032892E-1,-3.5243914E-1,-1.3546856E-1,-2.046265E-1,-3.4105122E-1,-2.3762032E-1,-4.5379496E-1,-4.1644785E-1],"categories":[],"categories_nodes":[],"categories_segments":[],"categories_sizes":[],"default_left":[0,0,0,0,0,0,0,0,0,0,0,0,0,0,0,0,0,0,0,0,0,0,0,0,0,0,0,0,0,0,0,0,0,0,0,0,0,0,0,0,0,0,0,0,0,0,0,0,0,0,0,0,0,0,0,0,0,0,0,0,0,0,0,0,0,0,0,0,0,0,0,0,0,0,0,0,0,0,0,0,0,0,0,0,0,0,0],"id":5,"left_children":[1,3,5,7,9,11,13,15,17,19,21,23,25,-1,27,29,31,33,35,37,39,41,43,-1,45,47,49,51,-1,53,55,-1,57,59,-1,61,63,65,67,69,71,73,75,77,79,-1,-1,81,-1,83,-1,85,-1,-1,-1,-1,-1,-1,-1,-1,-1,-1,-1,-1,-1,-1,-1,-1,-1,-1,-1,-1,-1,-1,-1,-1,-1,-1,-1,-1,-1,-1,-1,-1,-1,-1,-1],"loss_changes":[1.056124E6,1.2741642E6,3.3010188E4,2.8478922E4,3.5033225E5,4.5381312E4,2.3444062E3,1.2201875E3,1.9793268E4,1.07957625E5,4.119214E4,8.279844E2,5.63975E3,0E0,8.2853125E2,4.828047E2,1.5845312E2,1.0807266E3,3.7448496E3,1.03601125E5,1.0348281E3,3.5067406E4,9.733413E2,0E0,3.9909766E2,4.1901016E3,6.403711E1,1.7953125E1,0E0,2.8702344E2,1.2422461E2,0E0,1.3954102E2,5.828203E2,0E0,1.1805688E3,1.8166278E2,6.0740125E4,3.6188125E3,4.8677783E2,2.712418E3,7.963125E3,3.055711E3,1.2809355E2,5.636377E1,0E0,0E0,1.312752E3,0E0,5.11875E1,0E0,1.04515625E2,0E0,0E0,0E0,0E0,0E0,0E0,0E0,0E0,0E0,0E0,0E0,0E0,0E0,0E0,0E0,0E0,0E0,0E0,0E0,0E0,0E0,0E0,0E0,0E0,0E0,0E0,0E0,0E0,0E0,0E0,0E0,0E0,0E0,0E0,0E0],"parents":[2147483647,0,0,1,1,2,2,3,3,4,4,5,5,6,6,7,7,8,8,9,9,10,10,11,11,12,12,14,14,15,15,16,16,17,17,18,18,19,19,20,20,21,21,22,22,24,24,25,25,26,26,27,27,29,29,30,30,32,32,33,33,35,35,36,36,37,37,38,38,39,39,40,40,41,41,42,42,43,43,44,44,47,47,49,49,51,51],"right_children":[2,4,6,8,10,12,14,16,18,20,22,24,26,-1,28,30,32,34,36,38,40,42,44,-1,46,48,50,52,-1,54,56,-1,58,60,-1,62,64,66,68,70,72,74,76,78,80,-1,-1,82,-1,84,-1,86,-1,-1,-1,-1,-1,-1,-1,-1,-1,-1,-1,-1,-1,-1,-1,-1,-1,-1,-1,-1,-1,-1,-1,-1,-1,-1,-1,-1,-1,-1,-1,-1,-1,-1,-1],"split_conditions":[3E0,1E0,4E0,5E0,2E0,1E0,1E0,2E0,0E0,6E0,6E0,5E0,6E0,-5.3871304E-1,1E0,4E0,4E0,2E0,2E0,3E0,2E0,3E0,1E0,-5.167067E-1,0E0,1E0,1E0,3E0,-5.340279E-1,1E0,1.2246469E-16,-4.5213658E-1,1E0,1E0,-3.985139E-1,1E0,1E0,2E0,1E0,1E0,3E0,1E0,1E0,2E0,-5E-1,-4.9051592E-1,-3.921015E-1,3E0,-5.0359696E-1,1E0,-4.2394808E-1,2E0,-4.6252486E-1,-3.7784788E-1,-4.5091093E-1,-2.7245638E-1,-3.5265133E-1,-4.0705934E-1,-2.3843828E-1,-2.4786703E-1,-5.012831E-1,1.7498226E-1,-2.2815768E-1,-4.9973197E-2,-1.304612E-1,1.0913099E0,1.624216E0,7.581216E-1,-2.566213E-1,3.0926654E-1,-1.483676E-1,5.9027386E-1,3.1083357E-1,5.660693E-1,-3.3383086E-1,2.1974346E-1,-4.1536978E-1,-5.220407E-2,1.6539339E-3,-1.3032892E-1,-3.5243914E-1,-1.3546856E-1,-2.046265E-1,-3.4105122E-1,-2.3762032E-1,-4.5379496E-1,-4.1644785E-1],"split_indices":[4,2,4,1,4,2,2,4,2,1,1,1,1,0,11,1,1,4,4,2,2,2,11,0,2,11,11,2,0,11,8,0,9,11,0,11,11,2,11,11,2,11,11,2,9,0,0,2,0,8,0,2,0,0,0,0,0,0,0,0,0,0,0,0,0,0,0,0,0,0,0,0,0,0,0,0,0,0,0,0,0,0,0,0,0,0,0],"split_type":[0,0,0,0,0,0,0,0,0,0,0,0,0,0,0,0,0,0,0,0,0,0,0,0,0,0,0,0,0,0,0,0,0,0,0,0,0,0,0,0,0,0,0,0,0,0,0,0,0,0,0,0,0,0,0,0,0,0,0,0,0,0,0,0,0,0,0,0,0,0,0,0,0,0,0,0,0,0,0,0,0,0,0,0,0,0,0],"sum_hessian":[1.4518E4,7.942E3,6.576E3,3.073E3,4.869E3,3.626E3,2.95E3,2.166E3,9.07E2,2.436E3,2.433E3,1.24E3,2.386E3,7.79E2,2.171E3,1.11E3,1.056E3,4.45E2,4.62E2,2.083E3,3.53E2,2.083E3,3.5E2,8.55E2,3.85E2,2.05E3,3.36E2,1.944E3,2.27E2,8.96E2,2.14E2,8.31E2,2.25E2,2.34E2,2.11E2,2.33E2,2.29E2,1.405E3,6.78E2,1.18E2,2.35E2,1.373E3,7.1E2,3.32E2,1.8E1,1.69E2,2.16E2,1.993E3,5.7E1,2.98E2,3.8E1,1.296E3,6.48E2,7.41E2,1.55E2,1.04E2,1.1E2,2.09E2,1.6E1,2.18E2,1.6E1,2.22E2,1.1E1,1.67E2,6.2E1,7.13E2,6.92E2,6.73E2,5E0,1.15E2,3E0,1.15E2,1.2E2,1.358E3,1.5E1,6.99E2,1.1E1,1E2,2.32E2,5E0,1.3E1,1.318E3,6.75E2,2.74E2,2.4E1,6.28E2,6.68E2],"tree_param":{"num_deleted":"0","num_feature":"12","num_nodes":"87","size_leaf_vector":"1"}},{"base_weights":[-1.0408107E-1,7.411873E0,-9.028581E0,3.557536E0,2.0013334E1,-7.120308E0,-1.1412942E1,8.030258E0,-1.0893984E0,2.9443188E1,1.1063365E1,-8.332934E0,-3.9719446E0,-1.1129286E1,-5.189665E-1,9.449167E0,-1.04772415E1,2.3527905E-1,-9.609322E0,3.213316E1,2.5350712E1,1.3805778E1,7.1546755E0,-7.660905E0,-1.2043452E1,-3.6913593E0,-4.2438433E-1,-4.5858935E-1,-4.1552067E-1,8.6445875E0,1.5682649E1,-9.696821E0,-5.038699E-1,-4.381142E-1,4.266469E0,-4.494311E-1,-7.4619064E0,1.6440552E0,1.248622E0,2.5735811E1,-2.5781947E-1,1.3938075E1,-2.7524987E-1,7.878401E0,-8.034162E0,-7.9200673E0,-2.5226927E-1,-5.0609493E-1,-4.4603544E-1,-3.1967106E0,-4.356719E0,1.6665228E-1,3.617006E-1,7.2424406E-1,5.127426E-1,-3.997438E-1,-2.4421293E-1,-2.4504984E-2,6.695226E-2,2.2368833E-1,1.0588782E-1,-2.8309268E-1,-4.1992873E-1,7.2788876E-1,1.0508871E0,6.311542E-1,5.003719E-1,2.994686E-1,4.7091556E-1,-1.8219219E-1,-3.6614704E-1,-3.2254326E-1,-2.8795615E-1,-1.54458E-1,-9.229463E-2,-1.802294E-1,-1.05241135E-1],"categories":[],"categories_nodes":[],"categories_segments":[],"categories_sizes":[],"default_left":[0,0,0,0,0,0,0,0,0,0,0,0,0,0,0,0,0,0,0,0,0,0,0,0,0,0,0,0,0,0,0,0,0,0,0,0,0,0,0,0,0,0,0,0,0,0,0,0,0,0,0,0,0,0,0,0,0,0,0,0,0,0,0,0,0,0,0,0,0,0,0,0,0,0,0,0,0],"id":6,"left_children":[1,3,5,7,9,11,13,15,17,19,21,23,25,27,-1,29,31,33,35,37,39,41,43,45,47,49,-1,-1,-1,51,53,55,-1,57,59,-1,61,-1,-1,63,-1,65,-1,67,69,71,-1,-1,-1,73,75,-1,-1,-1,-1,-1,-1,-1,-1,-1,-1,-1,-1,-1,-1,-1,-1,-1,-1,-1,-1,-1,-1,-1,-1,-1,-1],"loss_changes":[9.637496E5,3.787159E5,2.9763938E4,1.24190125E5,1.5366025E5,1.3894203E4,1.0742188E3,8.009844E4,3.308921E4,8.5564375E3,9.921516E3,6.4324375E3,1.8374258E3,4.368125E2,0E0,1.39813125E4,1.7543164E2,6.8939463E3,1.2511641E3,2.4375E3,4.6517656E3,1.6508438E3,4.3875254E3,7.089219E2,5.3984375E0,3.0110254E2,0E0,0E0,0E0,4.413047E3,1.8818281E3,8.4075195E1,0E0,8.036388E2,7.577207E2,0E0,9.144238E1,0E0,0E0,7.1809375E2,0E0,1.1424766E3,0E0,4.365703E2,8.835815E0,1.0575781E2,0E0,0E0,0E0,3.2182324E2,8.81958E1,0E0,0E0,0E0,0E0,0E0,0E0,0E0,0E0,0E0,0E0,0E0,0E0,0E0,0E0,0E0,0E0,0E0,0E0,0E0,0E0,0E0,0E0,0E0,0E0,0E0,0E0],"parents":[2147483647,0,0,1,1,2,2,3,3,4,4,5,5,6,6,7,7,8,8,9,9,10,10,11,11,12,12,13,13,15,15,16,16,17,17,18,18,19,19,20,20,21,21,22,22,23,23,24,24,25,25,29,29,30,30,31,31,33,33,34,34,36,36,39,39,41,41,43,43,44,44,45,45,49,49,50,50],"right_children":[2,4,6,8,10,12,14,16,18,20,22,24,26,28,-1,30,32,34,36,38,40,42,44,46,48,50,-1,-1,-1,52,54,56,-1,58,60,-1,62,-1,-1,64,-1,66,-1,68,70,72,-1,-1,-1,74,76,-1,-1,-1,-1,-1,-1,-1,-1,-1,-1,-1,-1,-1,-1,-1,-1,-1,-1,-1,-1,-1,-1,-1,-1,-1,-1],"split_conditions":[2E0,1E0,3E0,1E0,1E0,1E0,1E0,1E0,1E0,1E0,1E0,1E0,1E0,1E0,-5.189665E-1,1E0,2E0,1E0,1E0,-8.660254E-1,1E0,1E0,1E0,1E0,1E0,1E0,-4.2438433E-1,-4.5858935E-1,-4.1552067E-1,-8.660254E-1,1E0,1.2E1,-5.038699E-1,1E0,1E0,-4.494311E-1,2E0,1.6440552E0,1.248622E0,2E0,-2.5781947E-1,6E0,-2.7524987E-1,1E0,3E0,1.1E1,-2.5226927E-1,-5.0609493E-1,-4.4603544E-1,8E0,1E0,1.6665228E-1,3.617006E-1,7.2424406E-1,5.127426E-1,-3.997438E-1,-2.4421293E-1,-2.4504984E-2,6.695226E-2,2.2368833E-1,1.0588782E-1,-2.8309268E-1,-4.1992873E-1,7.2788876E-1,1.0508871E0,6.311542E-1,5.003719E-1,2.994686E-1,4.7091556E-1,-1.8219219E-1,-3.6614704E-1,-3.2254326E-1,-2.8795615E-1,-1.54458E-1,-9.229463E-2,-1.802294E-1,-1.05241135E-1],"split_indices":[3,6,3,3,3,6,11,11,11,5,5,11,11,6,0,7,11,7,5,8,11,11,11,7,5,5,0,0,0,8,5,0,0,8,5,0,11,0,0,0,0,0,0,8,0,0,0,0,0,0,8,0,0,0,0,0,0,0,0,0,0,0,0,0,0,0,0,0,0,0,0,0,0,0,0,0,0],"split_type":[0,0,0,0,0,0,0,0,0,0,0,0,0,0,0,0,0,0,0,0,0,0,0,0,0,0,0,0,0,0,0,0,0,0,0,0,0,0,0,0,0,0,0,0,0,0,0,0,0,0,0,0,0,0,0,0,0,0,0,0,0,0,0,0,0,0,0,0,0,0,0,0,0,0,0,0,0],"sum_hessian":[1.4365E4,7.798E3,6.567E3,5.973E3,1.825E3,3.651E3,2.916E3,3.043E3,2.93E3,8.87E2,9.38E2,2.634E3,1.017E3,2.478E3,4.38E2,2.827E3,2.16E2,2.537E3,3.93E2,5.29E2,3.58E2,5.49E2,3.89E2,2.234E3,4E2,9.78E2,3.9E1,1.691E3,7.87E2,2.507E3,3.2E2,1.64E2,5.2E1,2.175E3,3.62E2,2.2E2,1.73E2,4.3E1,4.86E2,3.54E2,4E0,5.46E2,3E0,3.72E2,1.7E1,1.869E3,3.65E2,2.26E2,1.74E2,5.66E2,4.12E2,2.06E2,2.301E3,1.69E2,1.51E2,1.49E2,1.5E1,2.01E3,1.65E2,1.97E2,1.65E2,1.58E2,1.5E1,2.7E1,3.27E2,2.32E2,3.14E2,3.42E2,3E1,6E0,1.1E1,1.546E3,3.23E2,3.21E2,2.45E2,3.77E2,3.5E1],"tree_param":{"num_deleted":"0","num_feature":"12","num_nodes":"77","size_leaf_vector":"1"}}]},"name":"gbtree"},"learner_model_param":{"base_score":"[1.8362268E1]","boost_from_average":"1","num_class":"0","num_feature":"12","num_target":"1"},"objective":{"name":"reg:squarederror","reg_loss_param":{"scale_pos_weight":"1"}}},"version":[3,2,0]}