{"learner":{"attributes":{"scikit_learn":"{\"_estimator_type\": \"classifier\"}"},"feature_names":["MES","DIA_NUM","TIPO_DIA","FRANJA_NUM","MUN_ENC","MUN_RIESGO_RANK","ES_FIN_SEMANA","ES_HORA_PICO","ES_NOCHE","MES_SIN","MES_COS","CAUSA_ENC","TIPO_ENC"],"feature_types":["int","int","int","int","int","float","int","int","int","float","float","int","int"],"gradient_booster":{"model":{"cats":{"enc":[],"feature_segments":[],"sorted_idx":[]},"gbtree_model_param":{"num_parallel_tree":"1","num_trees":"118"},"iteration_indptr":[0,1,2,3,4,5,6,7,8,9,10,11,12,13,14,15,16,17,18,19,20,21,22,23,24,25,26,27,28,29,30,31,32,33,34,35,36,37,38,39,40,41,42,43,44,45,46,47,48,49,50,51,52,53,54,55,56,57,58,59,60,61,62,63,64,65,66,67,68,69,70,71,72,73,74,75,76,77,78,79,80,81,82,83,84,85,86,87,88,89,90,91,92,93,94,95,96,97,98,99,100,101,102,103,104,105,106,107,108,109,110,111,112,113,114,115,116,117,118],"tree_info":[0,0,0,0,0,0,0,0,0,0,0,0,0,0,0,0,0,0,0,0,0,0,0,0,0,0,0,0,0,0,0,0,0,0,0,0,0,0,0,0,0,0,0,0,0,0,0,0,0,0,0,0,0,0,0,0,0,0,0,0,0,0,0,0,0,0,0,0,0,0,0,0,0,0,0,0,0,0,0,0,0,0,0,0,0,0,0,0,0,0,0,0,0,0,0,0,0,0,0,0,0,0,0,0,0,0,0,0,0,0,0,0,0,0,0,0,0,0],"trees":[{"base_weights":[-6.196217E-3,7.772271E-2,-8.354504E-1,1.0420277E-1,-1.4221396E-1,-5.8340186E-1,-6.954148E-2,2.9908633E-2,2.102659E-1,5.651162E-2,-2.7699465E-1,-1.3718363E0,-2.8752297E-1,1.1321919E-1,-7.813999E-2,2.8096926E-1,1.0472395E-1,1.657714E-1,-5.2298054E-2,-2.4199755E-1,-4.8311213E-1,-5.1796573E-1,-1.4645392E0,-2.0751283E-1,-6.5015025E-2,-6.374907E-3,5.447646E-3,-7.9566045E-3,-8.6127175E-4,1.0155991E-2,1.4373203E-2,3.0918897E-3,1.4596679E-2,3.8360127E-3,1.6919766E-2,5.846967E-3,-1.7085996E-2,-1.2952715E-2,-3.040747E-3,2.2511615E-3,-2.6108397E-2,-5.143018E-2,2.7179366E-3,-5.023918E-2,-6.714625E-2,1.3198982E-3,-2.415058E-2],"categories":[],"categories_nodes":[],"categories_segments":[],"categories_sizes":[],"default_left":[0,0,0,0,0,0,0,0,0,0,0,0,0,0,0,0,0,0,0,0,0,0,0,0,0,0,0,0,0,0,0,0,0,0,0,0,0,0,0,0,0,0,0,0,0,0,0],"id":0,"left_children":[1,3,5,7,9,11,-1,13,15,17,19,21,23,25,27,29,31,33,35,37,39,41,43,45,-1,-1,-1,-1,-1,-1,-1,-1,-1,-1,-1,-1,-1,-1,-1,-1,-1,-1,-1,-1,-1,-1,-1],"loss_changes":[3.4043097E2,2.5889877E1,1.00693085E2,3.1227528E1,1.2831106E1,8.18535E1,0E0,2.1025888E1,1.2122627E1,2.3271403E0,1.844862E0,6.369156E0,2.7145586E1,8.289755E0,6.934393E0,1.9043579E0,4.6297536E0,1.6650965E0,7.413502E0,3.2963839E0,3.7136288E0,5.493183E0,5.2249146E-1,2.3532394E1,0E0,0E0,0E0,0E0,0E0,0E0,0E0,0E0,0E0,0E0,0E0,0E0,0E0,0E0,0E0,0E0,0E0,0E0,0E0,0E0,0E0,0E0,0E0],"parents":[2147483647,0,0,1,1,2,2,3,3,4,4,5,5,7,7,8,8,9,9,10,10,11,11,12,12,13,13,14,14,15,15,16,16,17,17,18,18,19,19,20,20,21,21,22,22,23,23],"right_children":[2,4,6,8,10,12,-1,14,16,18,20,22,24,26,28,30,32,34,36,38,40,42,44,46,-1,-1,-1,-1,-1,-1,-1,-1,-1,-1,-1,-1,-1,-1,-1,-1,-1,-1,-1,-1,-1,-1,-1],"split_conditions":[1E0,1E0,1E0,2E0,-1.8369701E-16,0E0,-6.954148E-2,1E0,1E0,2E0,1.2E1,-8.660254E-1,2E0,2E0,5E0,1E1,1.2E1,8E0,-5E-1,1E1,1E0,2E0,5E-1,1E0,-6.5015025E-2,-6.374907E-3,5.447646E-3,-7.9566045E-3,-8.6127175E-4,1.0155991E-2,1.4373203E-2,3.0918897E-3,1.4596679E-2,3.8360127E-3,1.6919766E-2,5.846967E-3,-1.7085996E-2,-1.2952715E-2,-3.040747E-3,2.2511615E-3,-2.6108397E-2,-5.143018E-2,2.7179366E-3,-5.023918E-2,-6.714625E-2,1.3198982E-3,-2.415058E-2],"split_indices":[12,8,3,3,10,3,0,2,7,4,0,10,12,0,0,0,0,0,10,0,4,4,10,2,0,0,0,0,0,0,0,0,0,0,0,0,0,0,0,0,0,0,0,0,0,0,0],"split_type":[0,0,0,0,0,0,0,0,0,0,0,0,0,0,0,0,0,0,0,0,0,0,0,0,0,0,0,0,0,0,0,0,0,0,0,0,0,0,0,0,0,0,0,0,0,0,0],"sum_hessian":[4.8885E3,4.4404355E3,4.4806442E2,3.9641716E3,4.7626382E2,3.522711E2,9.579334E1,2.332628E3,1.6315436E3,1.9267575E2,2.8358807E2,9.4590416E1,2.5768066E2,1.3173107E3,1.0153173E3,9.752496E2,6.56294E2,9.59765E1,9.669925E1,2.4542123E2,3.8166847E1,1.0284257E1,8.430616E1,2.4480988E2,1.2870791E1,1.01523315E2,1.2157874E3,3.2253214E2,6.927852E2,7.300536E2,2.45196E2,5.956454E2,6.0648655E1,7.7247025E1,1.8729477E1,6.373517E1,3.2964077E1,1.6322887E2,8.2192375E1,9.299147E0,2.88677E1,3.7127283E0,6.571529E0,4.8042706E1,3.6263454E1,1.5312035E2,9.168954E1],"tree_param":{"num_deleted":"0","num_feature":"13","num_nodes":"47","size_leaf_vector":"1"}},{"base_weights":[-2.5211594E-3,7.005116E-2,-4.6217623E-1,-2.0624262E-1,2.045889E-1,2.650209E-1,-1.0337753E0,4.2751098E-1,-3.691603E-1,-3.0002551E-2,3.1253016E-1,-2.2676717E-1,6.051632E-1,-1.4899198E0,1.1960022E-1,1.577171E-1,6.064239E-1,-2.1871862E-1,-5.8701724E-1,5.5549208E-2,-3.3940423E-1,3.907067E-1,3.1820137E-2,-6.1537355E-1,-3.3917155E-2,4.188959E-1,7.2060275E-1,-1.5757556E0,-1.2214584E0,-2.3421305E-1,2.7539816E-1,-2.4427436E-3,1.1846108E-2,1.5413276E-2,3.1089967E-2,-1.3323427E-2,-4.0957332E-4,-4.8639365E-2,-5.099489E-3,5.4923305E-3,-3.036225E-3,-1.6714986E-2,-4.286906E-3,1.958492E-2,2.4494666E-3,-1.97015E-3,1.0251552E-2,-2.9983815E-2,-9.7272685E-3,-1.1490102E-2,1.1759017E-2,5.553103E-3,1.9331194E-2,3.0884814E-2,1.9305412E-2,-4.371913E-2,-6.517722E-2,-5.7374157E-2,-3.161794E-2,1.4304123E-2,-1.6103698E-2,4.145078E-3,2.3768691E-2],"categories":[],"categories_nodes":[],"categories_segments":[],"categories_sizes":[],"default_left":[0,0,0,0,0,0,0,0,0,0,0,0,0,0,0,0,0,0,0,0,0,0,0,0,0,0,0,0,0,0,0,0,0,0,0,0,0,0,0,0,0,0,0,0,0,0,0,0,0,0,0,0,0,0,0,0,0,0,0,0,0,0,0],"id":1,"left_children":[1,3,5,7,9,11,13,15,17,19,21,23,25,27,29,31,33,35,37,39,41,43,45,47,49,51,53,55,57,59,61,-1,-1,-1,-1,-1,-1,-1,-1,-1,-1,-1,-1,-1,-1,-1,-1,-1,-1,-1,-1,-1,-1,-1,-1,-1,-1,-1,-1,-1,-1,-1,-1],"loss_changes":[1.6397177E2,1.5784586E2,2.7905627E2,1.4381853E2,7.23358E1,4.9762383E1,1.9795575E2,1.3576065E1,3.60533E1,2.3893717E1,4.288327E1,9.087513E0,3.2645721E0,3.1790771E0,6.041768E0,3.545722E0,5.940941E0,1.5652767E1,1.3011426E2,7.6178236E0,3.4696083E0,4.9777267E1,7.815297E0,1.691494E0,7.0444536E0,1.1468897E0,6.7926025E-1,2.3428345E0,4.8003006E0,3.5736713E0,4.0150466E0,0E0,0E0,0E0,0E0,0E0,0E0,0E0,0E0,0E0,0E0,0E0,0E0,0E0,0E0,0E0,0E0,0E0,0E0,0E0,0E0,0E0,0E0,0E0,0E0,0E0,0E0,0E0,0E0,0E0,0E0,0E0,0E0],"parents":[2147483647,0,0,1,1,2,2,3,3,4,4,5,5,6,6,7,7,8,8,9,9,10,10,11,11,12,12,13,13,14,14,15,15,16,16,17,17,18,18,19,19,20,20,21,21,22,22,23,23,24,24,25,25,26,26,27,27,28,28,29,29,30,30],"right_children":[2,4,6,8,10,12,14,16,18,20,22,24,26,28,30,32,34,36,38,40,42,44,46,48,50,52,54,56,58,60,62,-1,-1,-1,-1,-1,-1,-1,-1,-1,-1,-1,-1,-1,-1,-1,-1,-1,-1,-1,-1,-1,-1,-1,-1,-1,-1,-1,-1,-1,-1,-1,-1],"split_conditions":[6E0,1E0,1E0,1E0,2E0,0E0,4E0,6E0,4E0,4E0,4E0,5E0,-1.8369701E-16,1E1,2E0,8.660254E-1,0E0,3E0,5E0,1E0,8.660254E-1,5E0,5E0,1E0,3E0,-8.660254E-1,4E0,-8.660254E-1,3E0,3E0,1E0,-2.4427436E-3,1.1846108E-2,1.5413276E-2,3.1089967E-2,-1.3323427E-2,-4.0957332E-4,-4.8639365E-2,-5.099489E-3,5.4923305E-3,-3.036225E-3,-1.6714986E-2,-4.286906E-3,1.958492E-2,2.4494666E-3,-1.97015E-3,1.0251552E-2,-2.9983815E-2,-9.7272685E-3,-1.1490102E-2,1.1759017E-2,5.553103E-3,1.9331194E-2,3.0884814E-2,1.9305412E-2,-4.371913E-2,-6.517722E-2,-5.7374157E-2,-3.161794E-2,1.4304123E-2,-1.6103698E-2,4.145078E-3,2.3768691E-2],"split_indices":[1,3,3,1,1,3,5,0,1,5,5,0,10,0,3,9,3,1,1,7,10,1,1,9,5,10,5,10,5,0,7,0,0,0,0,0,0,0,0,0,0,0,0,0,0,0,0,0,0,0,0,0,0,0,0,0,0,0,0,0,0,0,0],"split_type":[0,0,0,0,0,0,0,0,0,0,0,0,0,0,0,0,0,0,0,0,0,0,0,0,0,0,0,0,0,0,0,0,0,0,0,0,0,0,0,0,0,0,0,0,0,0,0,0,0,0,0,0,0,0,0,0,0,0,0,0,0,0,0],"sum_hessian":[4.9119375E3,4.2431704E3,6.687674E2,1.3891558E3,2.8540146E3,2.9463953E2,3.7412784E2,2.8351862E2,1.1056372E3,8.995719E2,1.9544426E3,1.2061037E2,1.7402914E2,2.6781595E2,1.06311905E2,1.1428417E2,1.6923444E2,6.559232E2,4.4971396E2,7.055511E2,1.940208E2,1.5281057E3,4.263369E2,3.882652E1,8.178385E1,6.9409584E1,1.0461957E2,1.9725609E2,7.055985E1,3.217267E1,7.413924E1,4.4473972E1,6.98102E1,7.602053E1,9.32139E1,4.2283118E2,2.3309206E2,1.8876709E2,2.6094687E2,4.351936E2,2.703575E2,1.4396202E2,5.0058773E1,1.1745819E3,3.535239E2,3.139075E2,1.12429405E2,2.731918E1,1.1507338E1,4.6328255E1,3.5455597E1,1.4003915E1,5.540567E1,8.306067E1,2.1558895E1,2.303596E1,1.7422014E2,4.481555E1,2.5744299E1,6.686937E0,2.5485731E1,4.9574306E1,2.4564926E1],"tree_param":{"num_deleted":"0","num_feature":"13","num_nodes":"63","size_leaf_vector":"1"}},{"base_weights":[-6.1246958E-3,6.6711746E-2,-4.7136012E-1,-2.2640088E-1,2.0841965E-1,2.5912124E-1,-1.0159748E0,3.28045E-1,-3.6228207E-1,-2.4975453E-2,3.150633E-1,-9.558434E-2,5.0614583E-1,-1.4208331E0,2.599493E-2,-3.0387864E-1,4.3968365E-1,-1.9923727E-1,-6.021369E-1,3.445667E-2,-2.326529E-1,3.7831715E-1,8.23504E-2,1.2796058E-1,-3.3880278E-1,-4.245374E-2,5.3598636E-1,-1.5592135E0,-1.1353581E0,-3.5194433E-1,1.9099416E-1,-3.456414E-2,5.8516804E-3,2.2940928E-2,8.662053E-3,-1.3486425E-2,2.0415448E-3,-4.700407E-2,-6.5235966E-3,3.8556694E-3,-3.702401E-3,6.7530703E-3,-1.0925821E-2,1.8877385E-2,3.3554435E-3,-7.135523E-3,6.6498863E-3,-2.1945927E-3,3.1880487E-2,-3.916063E-3,-2.6194567E-2,1.5349473E-2,-1.8676255E-2,3.1220939E-3,2.3042705E-2,-6.649597E-2,-5.292402E-2,-5.052809E-2,-2.9390544E-2,-2.6510032E-3,-2.8856913E-2,-6.272057E-4,2.2535719E-2],"categories":[],"categories_nodes":[],"categories_segments":[],"categories_sizes":[],"default_left":[0,0,0,0,0,0,0,0,0,0,0,0,0,0,0,0,0,0,0,0,0,0,0,0,0,0,0,0,0,0,0,0,0,0,0,0,0,0,0,0,0,0,0,0,0,0,0,0,0,0,0,0,0,0,0,0,0,0,0,0,0,0,0],"id":2,"left_children":[1,3,5,7,9,11,13,15,17,19,21,23,25,27,29,31,33,35,37,39,41,43,45,47,49,51,53,55,57,59,61,-1,-1,-1,-1,-1,-1,-1,-1,-1,-1,-1,-1,-1,-1,-1,-1,-1,-1,-1,-1,-1,-1,-1,-1,-1,-1,-1,-1,-1,-1,-1,-1],"loss_changes":[1.6562508E2,1.7558498E2,2.636521E2,1.0397558E2,7.094711E1,2.495572E1,1.6016852E2,1.9388905E1,4.3084E1,1.1066982E1,2.8722443E1,6.473077E0,2.8022766E0,8.005737E0,6.8026633E0,1.072768E1,6.695362E0,2.2877008E1,1.1215321E2,5.4957438E0,3.3174677E0,4.228882E1,9.234055E0,7.7224965E0,4.196354E0,2.0726447E0,2.8207512E0,9.351196E-1,3.3659058E0,3.3862677E0,5.8872666E0,0E0,0E0,0E0,0E0,0E0,0E0,0E0,0E0,0E0,0E0,0E0,0E0,0E0,0E0,0E0,0E0,0E0,0E0,0E0,0E0,0E0,0E0,0E0,0E0,0E0,0E0,0E0,0E0,0E0,0E0,0E0,0E0],"parents":[2147483647,0,0,1,1,2,2,3,3,4,4,5,5,6,6,7,7,8,8,9,9,10,10,11,11,12,12,13,13,14,14,15,15,16,16,17,17,18,18,19,19,20,20,21,21,22,22,23,23,24,24,25,25,26,26,27,27,28,28,29,29,30,30],"right_children":[2,4,6,8,10,12,14,16,18,20,22,24,26,28,30,32,34,36,38,40,42,44,46,48,50,52,54,56,58,60,62,-1,-1,-1,-1,-1,-1,-1,-1,-1,-1,-1,-1,-1,-1,-1,-1,-1,-1,-1,-1,-1,-1,-1,-1,-1,-1,-1,-1,-1,-1,-1,-1],"split_conditions":[6E0,1E0,1E0,1E0,2E0,0E0,3E0,3E0,4E0,3E0,3E0,6.123234E-17,-8.660254E-1,3E0,2E0,0E0,2E0,3E0,5E0,3E0,2E0,5E0,3E0,3E0,2E0,2E0,-8.660254E-1,2E0,1E1,1E0,1E0,-3.456414E-2,5.8516804E-3,2.2940928E-2,8.662053E-3,-1.3486425E-2,2.0415448E-3,-4.700407E-2,-6.5235966E-3,3.8556694E-3,-3.702401E-3,6.7530703E-3,-1.0925821E-2,1.8877385E-2,3.3554435E-3,-7.135523E-3,6.6498863E-3,-2.1945927E-3,3.1880487E-2,-3.916063E-3,-2.6194567E-2,1.5349473E-2,-1.8676255E-2,3.1220939E-3,2.3042705E-2,-6.649597E-2,-5.292402E-2,-5.052809E-2,-2.9390544E-2,-2.6510032E-3,-2.8856913E-2,-6.272057E-4,2.2535719E-2],"split_indices":[1,3,3,1,1,3,4,0,1,4,4,10,9,3,3,3,4,1,1,3,0,1,1,4,4,4,10,4,0,7,7,0,0,0,0,0,0,0,0,0,0,0,0,0,0,0,0,0,0,0,0,0,0,0,0,0,0,0,0,0,0,0,0],"split_type":[0,0,0,0,0,0,0,0,0,0,0,0,0,0,0,0,0,0,0,0,0,0,0,0,0,0,0,0,0,0,0,0,0,0,0,0,0,0,0,0,0,0,0,0,0,0,0,0,0,0,0,0,0,0,0,0,0,0,0,0,0,0,0],"sum_hessian":[4.884212E3,4.224075E3,6.6013635E2,1.376218E3,2.8478574E3,2.8225183E2,3.7788452E2,2.703992E2,1.1058188E3,8.9336395E2,1.9544934E3,1.16165535E2,1.6608629E2,2.7178485E2,1.0609967E2,4.0142754E1,2.3025645E2,6.600766E2,4.457422E2,6.953752E2,1.9798871E2,1.5358732E3,4.1862024E2,6.0794163E1,5.5371372E1,8.448895E0,1.576374E2,1.7842679E2,9.335807E1,3.163516E1,7.446451E1,1.7320137E1,2.2822617E1,1.4231392E2,8.7942535E1,4.2535098E2,2.3472562E2,1.9223856E2,2.5350365E2,4.6795117E2,2.2742406E2,1.759065E1,1.8039806E2,1.1645258E3,3.7134744E2,1.0135105E2,3.172692E2,4.8769615E1,1.202455E1,3.2626423E1,2.2744951E1,4.228835E0,4.220061E0,1.3143184E1,1.4449422E2,1.177118E2,6.0714993E1,6.822894E1,2.5129124E1,1.8915033E1,1.2720126E1,4.872541E1,2.5739101E1],"tree_param":{"num_deleted":"0","num_feature":"13","num_nodes":"63","size_leaf_vector":"1"}},{"base_weights":[-9.379996E-3,6.7806855E-2,-7.9950887E-1,1.3892156E-1,-3.97548E-1,-5.5840975E-1,-6.679162E-2,-1.02868676E-1,2.314209E-1,2.982674E-1,-8.976267E-1,-1.278239E0,-2.8777573E-1,4.2834574E-1,-2.3158322E-1,1.10405155E-1,4.5468402E-1,-7.7226445E-2,5.787725E-1,-1.3034382E0,2.0648657E-1,-9.2205703E-1,-6.2050436E-2,4.4105676E-1,-4.4835228E-1,-4.070068E-3,2.0647582E-2,-1.7775377E-2,-2.0027088E-3,3.453606E-4,8.209554E-3,2.7806878E-2,7.373535E-3,-4.0269125E-2,-5.5494375E-4,-3.9781835E-3,2.5323212E-2,-5.915187E-2,-3.878569E-2,1.3408126E-2,-1.1731813E-2,-4.5765467E-2,-1.1847939E-2,2.6382599E-2,-8.735283E-3,-1.5226673E-2,-6.076516E-2],"categories":[],"categories_nodes":[],"categories_segments":[],"categories_sizes":[],"default_left":[0,0,0,0,0,0,0,0,0,0,0,0,0,0,0,0,0,0,0,0,0,0,0,0,0,0,0,0,0,0,0,0,0,0,0,0,0,0,0,0,0,0,0,0,0,0,0],"id":3,"left_children":[1,3,5,7,9,11,-1,13,15,17,19,21,23,25,27,29,31,33,35,37,39,41,-1,43,45,-1,-1,-1,-1,-1,-1,-1,-1,-1,-1,-1,-1,-1,-1,-1,-1,-1,-1,-1,-1,-1,-1],"loss_changes":[2.9882486E2,1.4777568E2,8.998547E1,8.6659615E1,2.0640784E2,6.6337906E1,0E0,7.347229E1,7.5596725E1,2.6278284E1,1.549656E2,6.8176727E0,2.9768028E1,9.861446E0,3.3330036E1,1.7543259E1,6.375302E1,6.261577E0,5.372059E0,1.2500305E1,6.192769E0,5.580246E0,0E0,6.889983E0,1.4051239E1,0E0,0E0,0E0,0E0,0E0,0E0,0E0,0E0,0E0,0E0,0E0,0E0,0E0,0E0,0E0,0E0,0E0,0E0,0E0,0E0,0E0,0E0],"parents":[2147483647,0,0,1,1,2,2,3,3,4,4,5,5,7,7,8,8,9,9,10,10,11,11,12,12,13,13,14,14,15,15,16,16,17,17,18,18,19,19,20,20,21,21,23,23,24,24],"right_children":[2,4,6,8,10,12,-1,14,16,18,20,22,24,26,28,30,32,34,36,38,40,42,-1,44,46,-1,-1,-1,-1,-1,-1,-1,-1,-1,-1,-1,-1,-1,-1,-1,-1,-1,-1,-1,-1,-1,-1],"split_conditions":[1E0,6E0,1E0,1E0,1E0,0E0,-6.679162E-2,1E0,4E0,0E0,3E0,-1.8369701E-16,1E0,3E0,7E0,2E0,5E0,2E0,-8.660254E-1,3E0,1E0,3E0,-6.2050436E-2,8.660254E-1,2E0,-4.070068E-3,2.0647582E-2,-1.7775377E-2,-2.0027088E-3,3.453606E-4,8.209554E-3,2.7806878E-2,7.373535E-3,-4.0269125E-2,-5.5494375E-4,-3.9781835E-3,2.5323212E-2,-5.915187E-2,-3.878569E-2,1.3408126E-2,-1.1731813E-2,-4.5765467E-2,-1.1847939E-2,2.6382599E-2,-8.735283E-3,-1.5226673E-2,-6.076516E-2],"split_indices":[12,1,3,3,3,3,0,1,1,3,4,10,1,0,0,1,1,0,10,3,8,4,0,9,12,0,0,0,0,0,0,0,0,0,0,0,0,0,0,0,0,0,0,0,0,0,0],"split_type":[0,0,0,0,0,0,0,0,0,0,0,0,0,0,0,0,0,0,0,0,0,0,0,0,0,0,0,0,0,0,0,0,0,0,0,0,0,0,0,0,0,0,0,0,0,0,0],"sum_hessian":[4.896335E3,4.4617764E3,4.345582E2,3.871327E3,5.904497E2,3.422599E2,9.229831E1,1.0710165E3,2.8003103E3,2.4711555E2,3.4333414E2,9.1942604E1,2.5031729E2,2.0813747E2,8.6287897E2,1.8175863E3,9.827242E2,1.0605519E2,1.4106038E2,2.5089381E2,9.244032E1,4.2823914E1,4.9118694E1,4.466378E1,2.056535E2,2.9473251E1,1.7866422E2,3.9608157E2,4.6679736E2,8.77769E2,9.3981726E2,5.187363E2,4.6398782E2,5.2916474E0,1.0076354E2,1.02970705E1,1.307633E2,1.6101175E2,8.988207E1,7.3980865E1,1.845945E1,3.0632298E1,1.2191615E1,3.3604355E1,1.1059427E1,1.95383E2,1.0270505E1],"tree_param":{"num_deleted":"0","num_feature":"13","num_nodes":"47","size_leaf_vector":"1"}},{"base_weights":[-6.051686E-3,7.099015E-2,-7.669896E-1,1.4289078E-1,-4.0295452E-1,-5.3578764E-1,-1.5764347E0,-9.446446E-2,2.3401311E-1,2.951442E-1,-8.9262784E-1,-1.2734958E0,-2.827525E-1,-8.6256564E-1,-6.482025E-2,4.5376414E-1,-2.3272915E-1,7.6625854E-2,3.8209957E-1,-9.6262075E-2,6.0118586E-1,-1.3407145E0,2.742155E-1,-8.977712E-1,-6.201739E-2,3.028809E-1,-4.287703E-1,-6.1093275E-3,-4.9706463E-2,-6.793059E-3,2.2139676E-2,-1.4607765E-3,-1.8381512E-2,5.733312E-3,-7.6427343E-3,1.9231511E-2,6.645622E-3,9.609353E-3,-2.0988978E-2,5.136224E-3,2.5498297E-2,-5.8669627E-2,-4.354669E-2,3.2510927E-3,1.7793E-2,3.5889674E-4,-4.516089E-2,7.2718565E-3,4.3056734E-2,-2.5689067E-2,3.045576E-4],"categories":[],"categories_nodes":[],"categories_segments":[],"categories_sizes":[],"default_left":[0,0,0,0,0,0,0,0,0,0,0,0,0,0,0,0,0,0,0,0,0,0,0,0,0,0,0,0,0,0,0,0,0,0,0,0,0,0,0,0,0,0,0,0,0,0,0,0,0,0,0],"id":4,"left_children":[1,3,5,7,9,11,13,15,17,19,21,23,25,27,-1,29,31,33,35,37,39,41,43,45,-1,47,49,-1,-1,-1,-1,-1,-1,-1,-1,-1,-1,-1,-1,-1,-1,-1,-1,-1,-1,-1,-1,-1,-1,-1,-1],"loss_changes":[2.8624753E2,1.5114879E2,8.263953E1,8.3321976E1,2.0015521E2,6.499487E1,8.911743E-1,8.118582E1,6.479596E1,2.9095787E1,1.803689E2,7.080948E0,2.275123E1,2.080419E0,0E0,1.3578144E1,3.799215E1,2.4166546E1,3.039563E1,1.5686992E1,2.1722603E0,5.3771057E0,3.0996432E0,8.779263E0,0E0,4.6488333E0,1.9764805E1,0E0,0E0,0E0,0E0,0E0,0E0,0E0,0E0,0E0,0E0,0E0,0E0,0E0,0E0,0E0,0E0,0E0,0E0,0E0,0E0,0E0,0E0,0E0,0E0],"parents":[2147483647,0,0,1,1,2,2,3,3,4,4,5,5,6,6,7,7,8,8,9,9,10,10,11,11,12,12,13,13,15,15,16,16,17,17,18,18,19,19,20,20,21,21,22,22,23,23,25,25,26,26],"right_children":[2,4,6,8,10,12,14,16,18,20,22,24,26,28,-1,30,32,34,36,38,40,42,44,46,-1,48,50,-1,-1,-1,-1,-1,-1,-1,-1,-1,-1,-1,-1,-1,-1,-1,-1,-1,-1,-1,-1,-1,-1,-1,-1],"split_conditions":[1E0,6E0,1E0,1E0,1E0,0E0,-8.660254E-1,1E0,3E0,0E0,3E0,-1.8369701E-16,1E0,3E0,-6.482025E-2,3E0,0E0,3E0,5E0,6.123234E-17,-8.660254E-1,3E0,6.123234E-17,1E0,-6.201739E-2,1.2E1,5E0,-6.1093275E-3,-4.9706463E-2,-6.793059E-3,2.2139676E-2,-1.4607765E-3,-1.8381512E-2,5.733312E-3,-7.6427343E-3,1.9231511E-2,6.645622E-3,9.609353E-3,-2.0988978E-2,5.136224E-3,2.5498297E-2,-5.8669627E-2,-4.354669E-2,3.2510927E-3,1.7793E-2,3.5889674E-4,-4.516089E-2,7.2718565E-3,4.3056734E-2,-2.5689067E-2,3.045576E-4],"split_indices":[12,1,3,3,3,3,10,1,1,3,4,10,1,1,0,0,3,4,1,10,10,3,10,1,0,0,1,0,0,0,0,0,0,0,0,0,0,0,0,0,0,0,0,0,0,0,0,0,0,0,0],"split_type":[0,0,0,0,0,0,0,0,0,0,0,0,0,0,0,0,0,0,0,0,0,0,0,0,0,0,0,0,0,0,0,0,0,0,0,0,0,0,0,0,0,0,0,0,0,0,0,0,0,0,0],"sum_hessian":[4.8792783E3,4.4318647E3,4.4741376E2,3.8490854E3,5.827792E2,3.4999832E2,9.7415436E1,1.0675997E3,2.7814856E3,2.404613E2,3.4231787E2,8.779386E1,2.6220444E2,7.5246196E0,8.9890816E1,2.1426007E2,8.5333966E2,1.3496658E3,1.4318198E3,1.05894424E2,1.3456686E2,2.4720609E2,9.511179E1,4.0029205E1,4.7764656E1,5.1938988E1,2.1026546E2,3.4032705E0,4.1213493E0,2.9326675E1,1.849334E2,4.5858484E2,3.9475485E2,1.0811394E3,2.685264E2,9.813121E2,4.5050778E2,5.961648E1,4.6277943E1,1.0171778E1,1.24395096E2,1.5985136E2,8.735472E1,4.5811893E1,4.9299896E1,8.383354E0,3.1645851E1,4.656688E1,5.3721066E0,1.4080032E2,6.946514E1],"tree_param":{"num_deleted":"0","num_feature":"13","num_nodes":"51","size_leaf_vector":"1"}},{"base_weights":[-1.2723807E-2,5.8884785E-2,-7.387791E-1,1.2293145E-1,-3.586071E-1,-5.167712E-1,-1.5535977E0,-1.24629125E-1,2.173398E-1,3.1988236E-1,-8.504658E-1,-1.1512108E0,-2.836183E-1,-8.3988225E-1,-6.401582E-2,3.8535553E-1,-2.5002575E-1,7.447459E-2,3.5091794E-1,1.2399842E-2,5.6784177E-1,-1.2475317E0,1.9398522E-1,-6.0645398E-2,-7.895186E-1,4.071029E-1,-4.598853E-1,-2.8205633E-3,-4.9232658E-2,-4.170546E-3,1.8286347E-2,-1.9777777E-2,-1.7138853E-3,5.142398E-3,-5.4728393E-3,1.8273504E-2,4.790288E-3,9.429082E-3,-9.139906E-3,-4.610725E-3,2.4662461E-2,-5.5070117E-2,-3.803927E-2,-2.6734067E-2,1.01942085E-2,-4.013764E-2,2.783002E-3,2.2639064E-2,-2.2931654E-2,-2.546192E-2,-2.6031458E-3],"categories":[],"categories_nodes":[],"categories_segments":[],"categories_sizes":[],"default_left":[0,0,0,0,0,0,0,0,0,0,0,0,0,0,0,0,0,0,0,0,0,0,0,0,0,0,0,0,0,0,0,0,0,0,0,0,0,0,0,0,0,0,0,0,0,0,0,0,0,0,0],"id":5,"left_children":[1,3,5,7,9,11,13,15,17,19,21,23,25,27,-1,29,31,33,35,37,39,41,43,-1,45,47,49,-1,-1,-1,-1,-1,-1,-1,-1,-1,-1,-1,-1,-1,-1,-1,-1,-1,-1,-1,-1,-1,-1,-1,-1],"loss_changes":[2.5520618E2,1.195111E2,7.84059E1,9.060016E1,1.9882425E2,5.1003998E1,9.866791E-1,6.859419E1,5.3480225E1,1.9088818E1,1.4353043E2,1.0381882E1,3.1569574E1,2.5055132E0,0E0,7.534319E0,4.3499844E1,1.5542299E1,3.5375183E1,6.194002E0,4.7498283E0,7.5102844E0,5.29064E0,0E0,9.335333E0,8.738736E0,1.4234886E1,0E0,0E0,0E0,0E0,0E0,0E0,0E0,0E0,0E0,0E0,0E0,0E0,0E0,0E0,0E0,0E0,0E0,0E0,0E0,0E0,0E0,0E0,0E0,0E0],"parents":[2147483647,0,0,1,1,2,2,3,3,4,4,5,5,6,6,7,7,8,8,9,9,10,10,11,11,12,12,13,13,15,15,16,16,17,17,18,18,19,19,20,20,21,21,22,22,24,24,25,25,26,26],"right_children":[2,4,6,8,10,12,14,16,18,20,22,24,26,28,-1,30,32,34,36,38,40,42,44,-1,46,48,50,-1,-1,-1,-1,-1,-1,-1,-1,-1,-1,-1,-1,-1,-1,-1,-1,-1,-1,-1,-1,-1,-1,-1,-1],"split_conditions":[1E0,6E0,1E0,1E0,1E0,0E0,-8.660254E-1,1E0,3E0,0E0,3E0,2E0,1E0,3E0,-6.401582E-2,3E0,7E0,3E0,5E0,6.123234E-17,-8.660254E-1,2E0,-8.660254E-1,-6.0645398E-2,6E0,3E0,5E0,-2.8205633E-3,-4.9232658E-2,-4.170546E-3,1.8286347E-2,-1.9777777E-2,-1.7138853E-3,5.142398E-3,-5.4728393E-3,1.8273504E-2,4.790288E-3,9.429082E-3,-9.139906E-3,-4.610725E-3,2.4662461E-2,-5.5070117E-2,-3.803927E-2,-2.6734067E-2,1.01942085E-2,-4.013764E-2,2.783002E-3,2.2639064E-2,-2.2931654E-2,-2.546192E-2,-2.6031458E-3],"split_indices":[12,1,3,3,3,3,10,1,1,3,4,4,1,1,0,0,0,4,1,10,10,4,10,0,1,4,1,0,0,0,0,0,0,0,0,0,0,0,0,0,0,0,0,0,0,0,0,0,0,0,0],"split_type":[0,0,0,0,0,0,0,0,0,0,0,0,0,0,0,0,0,0,0,0,0,0,0,0,0,0,0,0,0,0,0,0,0,0,0,0,0,0,0,0,0,0,0,0,0,0,0,0,0,0,0],"sum_hessian":[4.9051763E3,4.4660166E3,4.391599E2,3.8730388E3,5.9297766E2,3.4710052E2,9.205938E1,1.0689623E3,2.8040767E3,2.4938663E2,3.4359106E2,9.163336E1,2.5546716E2,7.4794345E0,8.457995E1,2.1027425E2,8.58688E2,1.3562468E3,1.4478297E3,1.1212386E2,1.3726277E2,2.4877226E2,9.48188E1,4.316088E1,4.8472477E1,5.148187E1,2.0398529E2,3.159641E0,4.319793E0,2.6717258E1,1.8355699E2,3.928741E2,4.658139E2,1.0804961E3,2.757508E2,9.917303E2,4.5609946E2,5.830821E1,5.381565E1,8.933208E0,1.2832956E2,1.6934702E2,7.942525E1,5.2105284E0,8.960827E1,3.865354E1,9.818933E0,4.489212E1,6.589749E0,1.4020374E2,6.3781555E1],"tree_param":{"num_deleted":"0","num_feature":"13","num_nodes":"51","size_leaf_vector":"1"}},{"base_weights":[9.04181E-3,7.201991E-2,-6.306611E-1,1.3831587E-1,-3.637903E-1,-4.6169585E-1,-1.4754336E0,8.474612E-2,1.8948816E-1,-5.7077074E-1,3.0614933E-1,6.521347E-2,-5.7880086E-1,-2.7185544E-2,-6.127996E-2,1.1724116E-1,-2.0460619E-1,1.5072094E-1,2.8328937E-1,-3.870123E-1,-1.3056464E0,7.2282866E-2,3.871627E-1,2.777083E-2,-1.6073154E-2,-5.200652E-1,-1.3614811E0,5.592722E-3,4.442275E-4,-3.900589E-2,-6.045258E-3,7.442311E-3,-4.0626957E-4,1.3423231E-2,6.413948E-3,-1.1923951E-2,-3.7424803E-2,-5.8870114E-2,-3.9490595E-2,1.22779915E-2,-3.1122006E-3,1.9062927E-2,7.4960296E-3,5.0646435E-3,-2.002888E-2,-2.522549E-2,-2.573786E-3,-2.1839801E-2,-5.8187835E-2],"categories":[],"categories_nodes":[],"categories_segments":[],"categories_sizes":[],"default_left":[0,0,0,0,0,0,0,0,0,0,0,0,0,0,0,0,0,0,0,0,0,0,0,0,0,0,0,0,0,0,0,0,0,0,0,0,0,0,0,0,0,0,0,0,0,0,0,0,0],"id":6,"left_children":[1,3,5,7,9,11,13,15,17,19,21,23,25,-1,-1,27,29,31,33,35,37,39,41,-1,43,45,47,-1,-1,-1,-1,-1,-1,-1,-1,-1,-1,-1,-1,-1,-1,-1,-1,-1,-1,-1,-1,-1,-1],"loss_changes":[1.9632213E2,1.2825471E2,6.1220795E1,1.0522133E1,8.155096E1,2.267704E1,1.5714569E0,1.7757195E1,7.072487E0,5.9704742E1,2.5736017E0,3.5203624E0,1.2627182E1,0E0,0E0,4.054018E0,7.581483E0,7.950157E0,3.5817947E0,1.7122448E1,2.4044495E0,1.3798053E0,1.6712666E0,0E0,4.3658314E0,1.4083267E1,2.2455978E-1,0E0,0E0,0E0,0E0,0E0,0E0,0E0,0E0,0E0,0E0,0E0,0E0,0E0,0E0,0E0,0E0,0E0,0E0,0E0,0E0,0E0,0E0],"parents":[2147483647,0,0,1,1,2,2,3,3,4,4,5,5,6,6,7,7,8,8,9,9,10,10,11,11,12,12,15,15,16,16,17,17,18,18,19,19,20,20,21,21,22,22,24,24,25,25,26,26],"right_children":[2,4,6,8,10,12,14,16,18,20,22,24,26,-1,-1,28,30,32,34,36,38,40,42,-1,44,46,48,-1,-1,-1,-1,-1,-1,-1,-1,-1,-1,-1,-1,-1,-1,-1,-1,-1,-1,-1,-1,-1,-1],"split_conditions":[1E0,6E0,2E0,3E0,3E0,1E0,-8.660254E-1,1E0,1E0,1E0,-5E-1,-8.660254E-1,1E0,-2.7185544E-2,-6.127996E-2,3E0,-8.660254E-1,3E0,5E0,1E0,2E0,-8.660254E-1,8.660254E-1,2.777083E-2,3E0,6E0,-8.660254E-1,5.592722E-3,4.442275E-4,-3.900589E-2,-6.045258E-3,7.442311E-3,-4.0626957E-4,1.3423231E-2,6.413948E-3,-1.1923951E-2,-3.7424803E-2,-5.8870114E-2,-3.9490595E-2,1.22779915E-2,-3.1122006E-3,1.9062927E-2,7.4960296E-3,5.0646435E-3,-2.002888E-2,-2.522549E-2,-2.573786E-3,-2.1839801E-2,-5.8187835E-2],"split_indices":[12,1,12,1,4,1,10,8,7,7,9,10,7,0,0,4,10,4,1,8,4,9,9,0,4,1,10,0,0,0,0,0,0,0,0,0,0,0,0,0,0,0,0,0,0,0,0,0,0],"split_type":[0,0,0,0,0,0,0,0,0,0,0,0,0,0,0,0,0,0,0,0,0,0,0,0,0,0,0,0,0,0,0,0,0,0,0,0,0,0,0,0,0,0,0,0,0,0,0,0,0],"sum_hessian":[4.870558E3,4.4353154E3,4.35243E2,3.8506833E3,5.8463184E2,3.6468115E2,7.056187E1,1.8836959E3,1.9669875E3,4.468672E2,1.3776465E2,6.63554E1,2.9832574E2,6.0369573E0,6.45249E1,1.6944677E3,1.8922823E2,1.3949219E3,5.7206573E2,3.593647E2,8.750249E1,3.6333603E1,1.0143104E2,6.3692107E0,5.9986187E1,2.7988275E2,1.8443007E1,1.3964673E3,2.980004E2,1.0541572E1,1.7868666E2,1.1437687E3,2.5115318E2,3.992487E2,1.7281703E2,3.1131558E2,4.80491E1,5.382821E1,3.367428E1,1.3691682E1,2.2641922E1,6.846034E1,3.2970703E1,4.7118587E1,1.2867599E1,2.2468231E2,5.520043E1,3.002063E0,1.5440943E1],"tree_param":{"num_deleted":"0","num_feature":"13","num_nodes":"49","size_leaf_vector":"1"}},{"base_weights":[-1.2432477E-3,7.121217E-2,-7.564576E-1,1.3092491E-1,-3.2862505E-1,-6.1245483E-1,-5.7661813E-2,7.211428E-2,1.8713257E-1,-5.14045E-1,2.5433698E-1,-4.6406634E-2,-7.4781775E-1,9.894752E-2,-1.6767906E-1,1.263914E-1,3.3064985E-1,-3.2244554E-1,-1.2726748E0,3.051103E-1,-3.1422876E-2,-4.5512944E-1,6.0631495E-2,-6.954021E-1,-5.4032166E-2,3.1129876E-3,1.2602453E-2,5.6119477E-3,-1.0484731E-2,5.97579E-3,6.8394776E-4,7.270084E-3,1.6367435E-2,-9.206645E-3,-3.6875755E-2,-5.761381E-2,-3.726691E-2,1.4190232E-2,5.1436597E-3,-1.2546102E-2,2.4934566E-2,-2.6571004E-2,-4.1091843E-3,9.977515E-3,-6.1974884E-3,-3.137398E-2,-1.2363966E-2],"categories":[],"categories_nodes":[],"categories_segments":[],"categories_sizes":[],"default_left":[0,0,0,0,0,0,0,0,0,0,0,0,0,0,0,0,0,0,0,0,0,0,0,0,0,0,0,0,0,0,0,0,0,0,0,0,0,0,0,0,0,0,0,0,0,0,0],"id":7,"left_children":[1,3,5,7,9,11,-1,13,15,17,19,21,23,25,27,29,31,33,35,37,39,41,43,45,-1,-1,-1,-1,-1,-1,-1,-1,-1,-1,-1,-1,-1,-1,-1,-1,-1,-1,-1,-1,-1,-1,-1],"loss_changes":[2.6770862E2,1.06622314E2,4.0825943E1,1.2808105E1,6.2934685E1,2.7229431E1,0E0,1.2255035E1,1.7217926E1,6.3379723E1,2.0734005E0,3.1447196E0,7.578171E0,7.7544384E0,5.6372433E0,3.5008907E0,6.7476807E0,1.9206211E1,2.9185028E0,9.5892715E-1,4.43207E0,9.5754695E-1,2.386013E0,8.781921E0,0E0,0E0,0E0,0E0,0E0,0E0,0E0,0E0,0E0,0E0,0E0,0E0,0E0,0E0,0E0,0E0,0E0,0E0,0E0,0E0,0E0,0E0,0E0],"parents":[2147483647,0,0,1,1,2,2,3,3,4,4,5,5,7,7,8,8,9,9,10,10,11,11,12,12,13,13,14,14,15,15,16,16,17,17,18,18,19,19,20,20,21,21,22,22,23,23],"right_children":[2,4,6,8,10,12,-1,14,16,18,20,22,24,26,28,30,32,34,36,38,40,42,44,46,-1,-1,-1,-1,-1,-1,-1,-1,-1,-1,-1,-1,-1,-1,-1,-1,-1,-1,-1,-1,-1,-1,-1],"split_conditions":[1E0,6E0,2E0,3E0,3E0,1E0,-5.7661813E-2,1E0,1E0,1E0,1E0,-5E-1,1E0,1E0,1E0,3E0,4E0,1E0,2E0,1E1,1E1,1E1,2E0,6E0,-5.4032166E-2,3.1129876E-3,1.2602453E-2,5.6119477E-3,-1.0484731E-2,5.97579E-3,6.8394776E-4,7.270084E-3,1.6367435E-2,-9.206645E-3,-3.6875755E-2,-5.761381E-2,-3.726691E-2,1.4190232E-2,5.1436597E-3,-1.2546102E-2,2.4934566E-2,-2.6571004E-2,-4.1091843E-3,9.977515E-3,-6.1974884E-3,-3.137398E-2,-1.2363966E-2],"split_indices":[12,1,12,1,4,1,0,8,7,7,8,9,7,9,4,4,1,8,4,0,0,0,4,1,0,0,0,0,0,0,0,0,0,0,0,0,0,0,0,0,0,0,0,0,0,0,0],"split_type":[0,0,0,0,0,0,0,0,0,0,0,0,0,0,0,0,0,0,0,0,0,0,0,0,0,0,0,0,0,0,0,0,0,0,0,0,0,0,0,0,0,0,0,0,0,0,0],"sum_hessian":[4.8887886E3,4.461996E3,4.2679245E2,3.8832024E3,5.7879376E2,3.5507172E2,7.172075E1,1.8997689E3,1.9834335E3,4.3932336E2,1.394704E2,6.898406E1,2.8608765E2,1.7095565E3,1.9021242E2,1.3958386E3,5.8759485E2,3.5249957E2,8.68238E1,1.184906E2,2.0979807E1,1.3401147E1,5.5582916E1,2.662557E2,1.9831928E1,1.5594121E3,1.5014444E2,4.4343864E1,1.4586856E2,1.1523005E3,2.4353807E2,2.048412E2,3.8275363E2,3.0734595E2,4.515364E1,5.486453E1,3.195927E1,9.107742E1,2.7413177E1,1.5260141E1,5.7196655E0,7.4878154E0,5.9133315E0,2.9628763E1,2.5954151E1,2.1506197E2,5.119375E1],"tree_param":{"num_deleted":"0","num_feature":"13","num_nodes":"47","size_leaf_vector":"1"}},{"base_weights":[-1.2401225E-3,4.6277657E-2,-3.124677E-1,8.181918E-2,-1.0371009E-1,-5.009378E-1,2.2045678E-1,4.3926667E-2,1.8910196E-1,-3.259272E-1,-3.3875596E-2,-3.0274588E-1,-1.2902336E0,4.1644603E-1,1.4912167E-1,1.3674113E-3,1.6723871E-1,2.2001874E-1,1.1971863E-1,-4.1570607E-1,4.1821804E-2,-1.2804201E-1,1.5769581E-1,-1.5116861E-1,-3.5479012E-1,-1.4120113E0,-1.0508546E0,5.718137E-1,-1.3583971E-2,-7.857626E-2,1.7910343E-1,-2.6186588E-3,2.6117323E-3,8.190538E-4,1.3391674E-2,6.392531E-3,9.962407E-3,1.1078379E-2,3.361085E-3,-1.996042E-2,-1.15155E-2,2.5236562E-3,-2.670704E-4,-6.5778345E-3,5.964522E-3,-6.668686E-4,1.3653092E-2,-1.1514419E-2,4.7421046E-3,-1.0582466E-2,-1.6847469E-2,-2.3266165E-2,-5.794606E-2,-4.5939036E-2,-2.4423232E-2,2.9057017E-2,1.7628158E-2,-6.0117636E-3,4.11147E-3,1.5933227E-2,5.3971102E-3],"categories":[],"categories_nodes":[],"categories_segments":[],"categories_sizes":[],"default_left":[0,0,0,0,0,0,0,0,0,0,0,0,0,0,0,0,0,0,0,0,0,0,0,0,0,0,0,0,0,0,0,0,0,0,0,0,0,0,0,0,0,0,0,0,0,0,0,0,0,0,0,0,0,0,0,0,0,0,0,0,0],"id":8,"left_children":[1,3,5,7,9,11,13,15,17,19,21,23,25,27,29,31,33,35,37,39,41,43,45,47,49,51,53,55,-1,57,59,-1,-1,-1,-1,-1,-1,-1,-1,-1,-1,-1,-1,-1,-1,-1,-1,-1,-1,-1,-1,-1,-1,-1,-1,-1,-1,-1,-1,-1,-1],"loss_changes":[7.22137E1,2.258925E1,6.514423E1,1.3899555E1,1.25624485E1,7.416278E1,2.254672E0,1.3286621E1,1.8594894E0,6.441866E0,1.1204121E1,2.9262772E0,4.34906E-1,5.5098825E0,8.939934E-1,8.0606985E0,1.5948473E1,9.961662E-1,1.5134392E0,1.4060516E0,4.3965228E-2,4.2381682E0,6.5776224E0,3.786941E0,1.5044861E0,4.232788E-1,5.021477E-1,2.1927452E-1,0E0,2.2897589E-1,9.869263E-1,0E0,0E0,0E0,0E0,0E0,0E0,0E0,0E0,0E0,0E0,0E0,0E0,0E0,0E0,0E0,0E0,0E0,0E0,0E0,0E0,0E0,0E0,0E0,0E0,0E0,0E0,0E0,0E0,0E0,0E0],"parents":[2147483647,0,0,1,1,2,2,3,3,4,4,5,5,6,6,7,7,8,8,9,9,10,10,11,11,12,12,13,13,14,14,15,15,16,16,17,17,18,18,19,19,20,20,21,21,22,22,23,23,24,24,25,25,26,26,27,27,29,29,30,30],"right_children":[2,4,6,8,10,12,14,16,18,20,22,24,26,28,30,32,34,36,38,40,42,44,46,48,50,52,54,56,-1,58,60,-1,-1,-1,-1,-1,-1,-1,-1,-1,-1,-1,-1,-1,-1,-1,-1,-1,-1,-1,-1,-1,-1,-1,-1,-1,-1,-1,-1,-1,-1],"split_conditions":[6E0,3E0,3E0,1E1,-5E-1,1E0,-5E-1,1E0,2E0,5E0,1E0,-5E-1,2E0,1E0,2E0,3E0,-1.8369701E-16,2E0,1E0,3E0,1E1,1.2E1,3E0,2E0,-2.4492937E-16,-8.660254E-1,8.660254E-1,6E0,-1.3583971E-2,1E0,3E0,-2.6186588E-3,2.6117323E-3,8.190538E-4,1.3391674E-2,6.392531E-3,9.962407E-3,1.1078379E-2,3.361085E-3,-1.996042E-2,-1.15155E-2,2.5236562E-3,-2.670704E-4,-6.5778345E-3,5.964522E-3,-6.668686E-4,1.3653092E-2,-1.1514419E-2,4.7421046E-3,-1.0582466E-2,-1.6847469E-2,-2.3266165E-2,-5.794606E-2,-4.5939036E-2,-2.4423232E-2,2.9057017E-2,1.7628158E-2,-6.0117636E-3,4.11147E-3,1.5933227E-2,5.3971102E-3],"split_indices":[1,4,4,0,9,7,10,7,4,1,7,10,4,7,0,1,10,1,1,1,0,0,1,4,9,10,10,0,0,7,0,0,0,0,0,0,0,0,0,0,0,0,0,0,0,0,0,0,0,0,0,0,0,0,0,0,0,0,0,0,0],"split_type":[0,0,0,0,0,0,0,0,0,0,0,0,0,0,0,0,0,0,0,0,0,0,0,0,0,0,0,0,0,0,0,0,0,0,0,0,0,0,0,0,0,0,0,0,0,0,0,0,0,0,0,0,0,0,0,0,0,0,0,0,0],"sum_hessian":[4.8791187E3,4.233821E3,6.452975E2,3.423576E3,8.10245E2,4.7684415E2,1.6845331E2,2.5318882E3,8.916879E2,1.9225682E2,6.179882E2,3.8284946E2,9.399469E1,4.2828007E1,1.25625305E2,1.8836852E3,6.4820294E2,6.140803E2,2.7760757E2,1.5448308E2,3.7773735E1,4.1483542E2,2.0315279E2,9.959621E1,2.8325323E2,5.7292046E1,3.6702644E1,3.5885223E1,6.9427814E0,1.4139943E1,1.1148537E2,9.204968E2,9.6318835E2,3.4659595E2,3.0160696E2,2.0355943E2,4.1052087E2,4.9221035E1,2.2838655E2,9.065341E1,6.382967E1,2.6660906E1,1.1112827E1,3.673721E2,4.7463303E1,1.04764786E2,9.838801E1,6.615437E1,3.3441833E1,1.2356573E2,1.5968752E2,3.5486114E0,5.3743435E1,2.7973679E1,8.728965E0,1.3166426E1,2.27188E1,1.0514688E1,3.625255E0,1.6490738E1,9.499463E1],"tree_param":{"num_deleted":"0","num_feature":"13","num_nodes":"61","size_leaf_vector":"1"}},{"base_weights":[1.0585722E-2,7.322299E-2,-6.431621E-1,1.322999E-1,-3.228293E-1,-4.890777E-1,-1.4021901E0,7.253069E-2,1.8897429E-1,-4.6963477E-1,1.4877847E-1,-2.6292035E-1,-7.8901106E-1,-2.3649797E-2,-5.833976E-2,1.0225213E-1,-1.988936E-1,2.3189285E-1,1.02246374E-1,-2.8166062E-1,-1.2638943E0,1.9351801E-1,-1.00857034E-1,1.3899972E-1,-7.0672774E-1,-6.267047E-2,-4.853561E-1,5.6358944E-3,-3.1841774E-3,5.635223E-3,-1.7283987E-2,6.2875343E-3,1.2111273E-2,-1.2195623E-3,7.634399E-3,-8.4140105E-3,-2.8254798E-2,-5.6678746E-2,-3.9238844E-2,-1.1268405E-3,8.682066E-3,-1.4683276E-2,1.8058296E-2,-4.092362E-3,2.7861213E-2,-1.7534511E-2,-3.7917186E-2,-1.455856E-2,-5.3581282E-2],"categories":[],"categories_nodes":[],"categories_segments":[],"categories_sizes":[],"default_left":[0,0,0,0,0,0,0,0,0,0,0,0,0,0,0,0,0,0,0,0,0,0,0,0,0,0,0,0,0,0,0,0,0,0,0,0,0,0,0,0,0,0,0,0,0,0,0,0,0],"id":9,"left_children":[1,3,5,7,9,11,13,15,17,19,21,23,25,-1,-1,27,29,31,33,35,37,39,41,43,45,-1,47,-1,-1,-1,-1,-1,-1,-1,-1,-1,-1,-1,-1,-1,-1,-1,-1,-1,-1,-1,-1,-1,-1],"loss_changes":[2.0002202E2,1.0436197E2,4.882625E1,1.3111298E1,4.0207146E1,2.3877693E1,1.8554535E0,1.528524E1,7.3567886E0,6.537744E1,1.5808206E0,3.6937046E1,3.4839478E1,0E0,0E0,1.2009766E1,1.4925753E1,6.9488144E0,7.8033524E0,1.0615618E1,1.4374847E0,6.3496447E-1,3.459611E0,1.4847277E1,5.6669235E0,0E0,1.0807444E1,0E0,0E0,0E0,0E0,0E0,0E0,0E0,0E0,0E0,0E0,0E0,0E0,0E0,0E0,0E0,0E0,0E0,0E0,0E0,0E0,0E0,0E0],"parents":[2147483647,0,0,1,1,2,2,3,3,4,4,5,5,6,6,7,7,8,8,9,9,10,10,11,11,12,12,15,15,16,16,17,17,18,18,19,19,20,20,21,21,22,22,23,23,24,24,26,26],"right_children":[2,4,6,8,10,12,14,16,18,20,22,24,26,-1,-1,28,30,32,34,36,38,40,42,44,46,-1,48,-1,-1,-1,-1,-1,-1,-1,-1,-1,-1,-1,-1,-1,-1,-1,-1,-1,-1,-1,-1,-1,-1],"split_conditions":[1E0,6E0,2E0,3E0,4E0,4E0,-8.660254E-1,1E0,5E0,1E0,1E0,3E0,5E0,-2.3649797E-2,-5.833976E-2,4E0,-1.8369701E-16,6.123234E-17,6E0,1E0,3E0,-8.660254E-1,8.660254E-1,3E0,-1.8369701E-16,-6.267047E-2,1E0,5.6358944E-3,-3.1841774E-3,5.635223E-3,-1.7283987E-2,6.2875343E-3,1.2111273E-2,-1.2195623E-3,7.634399E-3,-8.4140105E-3,-2.8254798E-2,-5.6678746E-2,-3.9238844E-2,-1.1268405E-3,8.682066E-3,-1.4683276E-2,1.8058296E-2,-4.092362E-3,2.7861213E-2,-1.7534511E-2,-3.7917186E-2,-1.455856E-2,-5.3581282E-2],"split_indices":[12,1,12,1,5,1,10,8,1,7,8,5,1,0,0,5,10,10,0,8,5,10,10,1,10,0,7,0,0,0,0,0,0,0,0,0,0,0,0,0,0,0,0,0,0,0,0,0,0],"split_type":[0,0,0,0,0,0,0,0,0,0,0,0,0,0,0,0,0,0,0,0,0,0,0,0,0,0,0,0,0,0,0,0,0,0,0,0,0,0,0,0,0,0,0,0,0,0,0,0,0],"sum_hessian":[4.8821353E3,4.4565503E3,4.2558514E2,3.879058E3,5.774922E2,3.5587427E2,6.971087E1,1.8900746E3,1.9889835E3,4.4048663E2,1.3700557E2,2.0458992E2,1.5128436E2,5.703464E0,6.400741E1,1.7045431E3,1.855314E2,1.3284792E3,6.6050433E2,3.5788284E2,8.26038E1,1.1663906E2,2.03665E1,1.0784293E2,9.674699E1,4.068186E1,1.1060251E2,1.4063097E3,2.982335E2,7.5666725E1,1.0986468E2,6.4952527E2,6.78954E2,2.645905E2,3.9591382E2,3.08453E2,4.9429825E1,4.958619E1,3.3017605E1,1.0961404E1,1.0567766E2,1.4142951E1,6.2235503E0,7.6058556E1,3.1784378E1,4.7893436E1,4.8853546E1,9.876421E1,1.183829E1],"tree_param":{"num_deleted":"0","num_feature":"13","num_nodes":"49","size_leaf_vector":"1"}},{"base_weights":[-3.2131555E-3,5.9695225E-2,-6.3628244E-1,1.1394247E-1,-3.0851266E-1,-4.2517468E-1,-5.96373E-2,-1.02071494E-1,1.9716206E-1,3.4934014E-1,-7.967415E-1,-1.1231471E0,-1.7217736E-1,4.1254225E-1,-2.3180442E-1,7.978452E-2,4.1458648E-1,-1.97076E-2,6.019347E-1,-1.1750351E0,1.5632057E-1,-5.5050287E-2,-8.5758793E-1,-1.0342576E-1,-5.6415517E-2,2.0956943E-2,9.383367E-3,-3.0543678E-3,-1.6341673E-2,-3.7233692E-4,6.5545985E-3,2.6162956E-2,5.356066E-3,1.2900395E-2,-6.0610543E-3,2.5384908E-3,2.5752502E-2,-5.3225983E-2,-3.3594187E-2,-7.237721E-3,1.4814582E-2,-4.148039E-2,-3.4796617E-3,1.5986344E-2,-9.078218E-3],"categories":[],"categories_nodes":[],"categories_segments":[],"categories_sizes":[],"default_left":[0,0,0,0,0,0,0,0,0,0,0,0,0,0,0,0,0,0,0,0,0,0,0,0,0,0,0,0,0,0,0,0,0,0,0,0,0,0,0,0,0,0,0,0,0],"id":10,"left_children":[1,3,5,7,9,11,-1,13,15,17,19,21,23,25,27,29,31,33,35,37,39,-1,41,43,-1,-1,-1,-1,-1,-1,-1,-1,-1,-1,-1,-1,-1,-1,-1,-1,-1,-1,-1,-1,-1],"loss_changes":[1.9319104E2,8.816593E1,7.806468E1,6.9182236E1,1.824882E2,6.2115215E1,0E0,7.160839E1,7.080813E1,2.2648666E1,1.1780707E2,4.4222565E0,2.1964575E1,4.059326E0,2.3447536E1,1.3536566E1,6.525035E1,4.570899E0,3.152073E0,1.0392975E1,6.88665E0,0E0,6.700447E0,1.5625167E1,0E0,0E0,0E0,0E0,0E0,0E0,0E0,0E0,0E0,0E0,0E0,0E0,0E0,0E0,0E0,0E0,0E0,0E0,0E0,0E0,0E0],"parents":[2147483647,0,0,1,1,2,2,3,3,4,4,5,5,7,7,8,8,9,9,10,10,11,11,12,12,13,13,14,14,15,15,16,16,17,17,18,18,19,19,20,20,22,22,23,23],"right_children":[2,4,6,8,10,12,-1,14,16,18,20,22,24,26,28,30,32,34,36,38,40,-1,42,44,-1,-1,-1,-1,-1,-1,-1,-1,-1,-1,-1,-1,-1,-1,-1,-1,-1,-1,-1,-1,-1],"split_conditions":[1E0,6E0,1E0,1E0,1E0,0E0,-5.96373E-2,1E0,4E0,0E0,4E0,3E0,2E0,5E-1,0E0,2E0,5E0,-5E-1,-8.660254E-1,3E0,-1.8369701E-16,-5.5050287E-2,6E0,1E0,-5.6415517E-2,2.0956943E-2,9.383367E-3,-3.0543678E-3,-1.6341673E-2,-3.7233692E-4,6.5545985E-3,2.6162956E-2,5.356066E-3,1.2900395E-2,-6.0610543E-3,2.5384908E-3,2.5752502E-2,-5.3225983E-2,-3.3594187E-2,-7.237721E-3,1.4814582E-2,-4.148039E-2,-3.4796617E-3,1.5986344E-2,-9.078218E-3],"split_indices":[12,1,3,3,3,3,0,1,1,3,5,5,12,9,3,1,1,10,10,5,10,0,1,1,0,0,0,0,0,0,0,0,0,0,0,0,0,0,0,0,0,0,0,0,0],"split_type":[0,0,0,0,0,0,0,0,0,0,0,0,0,0,0,0,0,0,0,0,0,0,0,0,0,0,0,0,0,0,0,0,0,0,0,0,0,0,0,0,0,0,0,0,0],"sum_hessian":[4.847301E3,4.410324E3,4.3697635E2,3.845018E3,5.653062E2,3.5226727E2,8.4709076E1,1.0690732E3,2.7759448E3,2.4095764E2,3.243486E2,9.229257E1,2.599747E2,2.1451152E2,8.545617E2,1.8042128E3,9.7173193E2,9.839085E1,1.425668E2,2.319751E2,9.2373505E1,4.3945343E1,4.834723E1,2.47877E2,1.2097689E1,1.2996884E2,8.454267E1,4.5596207E2,3.9859964E2,8.7635394E2,9.278588E2,5.231735E2,4.4855844E2,2.6651388E1,7.173946E1,1.0645999E1,1.3192079E2,1.5527936E2,7.669574E1,3.586318E1,5.6510323E1,3.874303E1,9.6042E0,4.8125275E1,1.9975172E2],"tree_param":{"num_deleted":"0","num_feature":"13","num_nodes":"45","size_leaf_vector":"1"}},{"base_weights":[-5.7788226E-3,5.22462E-2,-6.2765217E-1,1.0412621E-1,-3.0038413E-1,-4.2855474E-1,-1.398554E0,-1.14922434E-1,1.8723567E-1,2.960626E-1,-7.389629E-1,-1.0342066E0,-2.0991512E-1,-6.399433E-1,-5.7953913E-2,3.7520823E-1,-2.3651464E-1,9.909552E-2,3.502554E-1,-5.4878708E-2,5.4754144E-1,-1.0989505E0,1.6804795E-1,-5.734599E-2,-6.978475E-1,-1.4839551E-1,-5.422081E-2,6.4018316E-4,-4.2506438E-2,2.1347696E-2,4.5849145E-3,-1.9807876E-3,-1.8227005E-2,-1.3843495E-3,5.681767E-3,2.1837775E-2,5.250039E-3,1.0487332E-2,-1.2292521E-2,-8.238696E-3,2.4227314E-2,-5.1261704E-2,-3.0764839E-2,-1.718108E-2,8.61306E-3,1.0326213E-2,-3.38197E-2,1.1032344E-2,-9.83224E-3],"categories":[],"categories_nodes":[],"categories_segments":[],"categories_sizes":[],"default_left":[0,0,0,0,0,0,0,0,0,0,0,0,0,0,0,0,0,0,0,0,0,0,0,0,0,0,0,0,0,0,0,0,0,0,0,0,0,0,0,0,0,0,0,0,0,0,0,0,0],"id":11,"left_children":[1,3,5,7,9,11,13,15,17,19,21,23,25,27,-1,29,31,33,35,37,39,41,43,-1,45,47,-1,-1,-1,-1,-1,-1,-1,-1,-1,-1,-1,-1,-1,-1,-1,-1,-1,-1,-1,-1,-1,-1,-1],"loss_changes":[1.744455E2,8.0919655E1,6.233577E1,7.0222725E1,1.4874753E2,4.3326195E1,1.7086029E0,6.3368996E1,4.009523E1,2.1374756E1,1.0721942E2,1.0097801E1,1.6854622E1,2.2876294E0,0E0,8.607649E0,3.482715E1,1.0445957E1,4.18711E1,8.291277E0,6.377804E0,1.2547943E1,2.7916877E0,0E0,7.4544525E0,9.759751E0,0E0,0E0,0E0,0E0,0E0,0E0,0E0,0E0,0E0,0E0,0E0,0E0,0E0,0E0,0E0,0E0,0E0,0E0,0E0,0E0,0E0,0E0,0E0],"parents":[2147483647,0,0,1,1,2,2,3,3,4,4,5,5,6,6,7,7,8,8,9,9,10,10,11,11,12,12,13,13,15,15,16,16,17,17,18,18,19,19,20,20,21,21,22,22,24,24,25,25],"right_children":[2,4,6,8,10,12,14,16,18,20,22,24,26,28,-1,30,32,34,36,38,40,42,44,-1,46,48,-1,-1,-1,-1,-1,-1,-1,-1,-1,-1,-1,-1,-1,-1,-1,-1,-1,-1,-1,-1,-1,-1,-1],"split_conditions":[1E0,6E0,1E0,1E0,1E0,0E0,-8.660254E-1,1E0,4E0,0E0,4E0,3E0,2E0,3E0,-5.7953913E-2,5E-1,0E0,1E0,5E0,-1.8369701E-16,-8.660254E-1,3E0,-8.660254E-1,-5.734599E-2,-8.660254E-1,1E0,-5.422081E-2,6.4018316E-4,-4.2506438E-2,2.1347696E-2,4.5849145E-3,-1.9807876E-3,-1.8227005E-2,-1.3843495E-3,5.681767E-3,2.1837775E-2,5.250039E-3,1.0487332E-2,-1.2292521E-2,-8.238696E-3,2.4227314E-2,-5.1261704E-2,-3.0764839E-2,-1.718108E-2,8.61306E-3,1.0326213E-2,-3.38197E-2,1.1032344E-2,-9.83224E-3],"split_indices":[12,1,3,3,3,3,10,1,1,3,5,5,12,1,0,9,3,1,1,10,10,3,10,0,10,1,0,0,0,0,0,0,0,0,0,0,0,0,0,0,0,0,0,0,0,0,0,0,0],"split_type":[0,0,0,0,0,0,0,0,0,0,0,0,0,0,0,0,0,0,0,0,0,0,0,0,0,0,0,0,0,0,0,0,0,0,0,0,0,0,0,0,0,0,0,0,0,0,0,0,0],"sum_hessian":[4.830739E3,4.419649E3,4.110898E2,3.853857E3,5.657919E2,3.2861786E2,8.247196E1,1.0596912E3,2.794166E3,2.3990526E2,3.258866E2,8.561964E1,2.4299823E2,6.469488E0,7.600247E1,2.0993127E2,8.497599E2,1.815367E3,9.7879895E2,1.005544E2,1.3935086E2,2.3310587E2,9.278074E1,3.6834637E1,4.8785E1,2.3226349E2,1.0734728E1,3.0545485E0,3.4149396E0,1.2944237E2,8.04889E1,4.5964377E2,3.901161E2,4.411481E2,1.3742189E3,5.15612E2,4.6318695E2,4.4458153E1,5.609624E1,9.647407E0,1.2970345E2,1.471593E2,8.594656E1,5.8356915E0,8.6945045E1,6.3309116E0,4.2454086E1,4.276587E1,1.8949762E2],"tree_param":{"num_deleted":"0","num_feature":"13","num_nodes":"49","size_leaf_vector":"1"}},{"base_weights":[-6.751449E-4,5.5916954E-2,-5.953977E-1,9.968436E-2,-2.4410567E-1,-4.466412E-1,-1.3202351E0,4.3693155E-2,1.5234266E-1,-4.2899913E-1,2.9564926E-1,-3.9178777E-1,-5.013968E-2,-1.9459115E-2,-5.5032697E-2,7.39015E-2,-2.2937652E-1,1.3751501E-1,3.1639275E-1,-2.4929391E-1,-1.1590334E0,3.7986645E-1,-2.0670769E-1,-4.587223E-1,3.1314933E-1,4.361496E-3,-3.7140183E-3,-4.486632E-3,-1.3388672E-2,6.6943727E-3,-1.7512543E-4,9.814296E-3,1.8987024E-2,-6.5868287E-3,-3.218666E-2,-5.167968E-2,-3.633551E-2,1.9739183E-2,8.021974E-3,-2.2488454E-2,8.58176E-3,-1.0878394E-2,-2.4786383E-2,2.2840282E-2,-6.1260615E-3],"categories":[],"categories_nodes":[],"categories_segments":[],"categories_sizes":[],"default_left":[0,0,0,0,0,0,0,0,0,0,0,0,0,0,0,0,0,0,0,0,0,0,0,0,0,0,0,0,0,0,0,0,0,0,0,0,0,0,0,0,0,0,0,0,0],"id":12,"left_children":[1,3,5,7,9,11,13,15,17,19,21,23,-1,-1,-1,25,27,29,31,33,35,37,39,41,43,-1,-1,-1,-1,-1,-1,-1,-1,-1,-1,-1,-1,-1,-1,-1,-1,-1,-1,-1,-1],"loss_changes":[1.637943E2,5.8371033E1,4.462216E1,1.1415775E1,5.6674038E1,1.4812416E1,2.2016373E0,1.5545179E1,4.771427E0,5.4885834E1,6.269972E0,1.5932396E1,0E0,0E0,0E0,9.953773E0,2.2388096E0,7.780121E0,1.6350918E0,1.5768173E1,8.9336395E-1,2.3629913E0,3.4532769E0,8.862259E0,3.7229674E0,0E0,0E0,0E0,0E0,0E0,0E0,0E0,0E0,0E0,0E0,0E0,0E0,0E0,0E0,0E0,0E0,0E0,0E0,0E0,0E0],"parents":[2147483647,0,0,1,1,2,2,3,3,4,4,5,5,6,6,7,7,8,8,9,9,10,10,11,11,15,15,16,16,17,17,18,18,19,19,20,20,21,21,22,22,23,23,24,24],"right_children":[2,4,6,8,10,12,14,16,18,20,22,24,-1,-1,-1,26,28,30,32,34,36,38,40,42,44,-1,-1,-1,-1,-1,-1,-1,-1,-1,-1,-1,-1,-1,-1,-1,-1,-1,-1,-1,-1],"split_conditions":[1E0,6E0,2E0,3E0,3E0,1E0,-8.660254E-1,1E0,1E0,1E0,1E0,1E0,-5.013968E-2,-1.9459115E-2,-5.5032697E-2,3E0,6.123234E-17,8.660254E-1,1E0,1E0,2E0,5E-1,6.123234E-17,2E0,4E0,4.361496E-3,-3.7140183E-3,-4.486632E-3,-1.3388672E-2,6.6943727E-3,-1.7512543E-4,9.814296E-3,1.8987024E-2,-6.5868287E-3,-3.218666E-2,-5.167968E-2,-3.633551E-2,1.9739183E-2,8.021974E-3,-2.2488454E-2,8.58176E-3,-1.0878394E-2,-2.4786383E-2,2.2840282E-2,-6.1260615E-3],"split_indices":[12,1,12,1,4,7,10,8,9,7,8,10,0,0,0,4,10,9,7,8,4,10,10,4,1,0,0,0,0,0,0,0,0,0,0,0,0,0,0,0,0,0,0,0,0],"split_type":[0,0,0,0,0,0,0,0,0,0,0,0,0,0,0,0,0,0,0,0,0,0,0,0,0,0,0,0,0,0,0,0,0,0,0,0,0,0,0,0,0,0,0,0,0],"sum_hessian":[4.862847E3,4.4414834E3,4.2136395E2,3.877064E3,5.644192E2,3.5168234E2,6.968158E1,1.8808566E3,1.9962075E3,4.2070636E2,1.4371283E2,3.3143988E2,2.024248E1,5.325464E0,6.435612E1,1.6946616E3,1.8619484E2,1.8335448E3,1.6266266E2,3.392719E2,8.143444E1,1.2347779E2,2.0235044E1,3.032416E2,2.8198273E1,1.4004048E3,2.9425687E2,8.982245E1,9.637239E1,1.5149824E3,3.1856238E2,1.1513334E2,4.752932E1,2.9617755E2,4.3094345E1,4.900669E1,3.2427753E1,7.380745E1,4.967034E1,1.0766075E1,9.468968E0,1.4237065E2,1.6087096E2,1.8009619E1,1.0188655E1],"tree_param":{"num_deleted":"0","num_feature":"13","num_nodes":"45","size_leaf_vector":"1"}},{"base_weights":[-1.6421702E-2,3.566336E-2,-5.473982E-1,8.642607E-2,-3.1764516E-1,-4.1416144E-1,-1.2816775E0,2.79363E-2,1.14038736E-1,-2.2375987E-1,-6.5331864E-1,-1.8750538E-1,-7.1387386E-1,-2.0547466E-2,-5.353933E-2,-3.4491E-2,1.7311424E-1,6.998984E-2,1.560521E-1,-1.4925233E-1,-6.597699E-1,-3.2636594E-2,-3.6527285E-1,-3.2207957E-1,1.972031E-1,-5.7705503E-2,-4.197273E-1,-3.6346419E-3,4.946126E-3,-7.6212203E-3,9.473776E-3,6.1368374E-3,9.2078745E-4,5.0513116E-3,9.149904E-3,-2.9326796E-3,-1.0470106E-2,7.937892E-3,-2.9899172E-2,-1.8998334E-2,-1.2313654E-2,2.1956824E-3,-2.416324E-2,-3.0190587E-2,1.4197475E-2,-1.20696975E-2,-5.0320055E-2],"categories":[],"categories_nodes":[],"categories_segments":[],"categories_sizes":[],"default_left":[0,0,0,0,0,0,0,0,0,0,0,0,0,0,0,0,0,0,0,0,0,0,0,0,0,0,0,0,0,0,0,0,0,0,0,0,0,0,0,0,0,0,0,0,0,0,0],"id":13,"left_children":[1,3,5,7,9,11,13,15,17,19,21,23,25,-1,-1,27,29,31,33,35,37,-1,39,41,43,-1,45,-1,-1,-1,-1,-1,-1,-1,-1,-1,-1,-1,-1,-1,-1,-1,-1,-1,-1,-1,-1],"loss_changes":[1.3455008E2,7.948215E1,4.1637665E1,6.2461777E0,1.7282295E1,2.4897694E1,1.7542725E0,1.13012495E1,4.8415565E0,1.4022942E1,5.1508217E0,1.1122711E1,3.3028778E1,0E0,0E0,7.787453E0,8.758948E0,5.032247E0,2.8493538E0,3.1635017E0,5.0153522E0,0E0,3.3876896E-2,1.6913748E1,8.791094E0,0E0,1.0752695E1,0E0,0E0,0E0,0E0,0E0,0E0,0E0,0E0,0E0,0E0,0E0,0E0,0E0,0E0,0E0,0E0,0E0,0E0,0E0,0E0],"parents":[2147483647,0,0,1,1,2,2,3,3,4,4,5,5,6,6,7,7,8,8,9,9,10,10,11,11,12,12,15,15,16,16,17,17,18,18,19,19,20,20,22,22,23,23,24,24,26,26],"right_children":[2,4,6,8,10,12,14,16,18,20,22,24,26,-1,-1,28,30,32,34,36,38,-1,40,42,44,-1,46,-1,-1,-1,-1,-1,-1,-1,-1,-1,-1,-1,-1,-1,-1,-1,-1,-1,-1,-1,-1],"split_conditions":[1E0,6E0,2E0,5E0,1E0,4E0,-8.660254E-1,1E0,3E0,1E0,9E0,3E0,5E0,-2.0547466E-2,-5.353933E-2,1E0,1E0,1E0,1E0,5E-1,-8.660254E-1,-3.2636594E-2,1E1,1E0,3E0,-5.7705503E-2,1E0,-3.6346419E-3,4.946126E-3,-7.6212203E-3,9.473776E-3,6.1368374E-3,9.2078745E-4,5.0513116E-3,9.149904E-3,-2.9326796E-3,-1.0470106E-2,7.937892E-3,-2.9899172E-2,-1.8998334E-2,-1.2313654E-2,2.1956824E-3,-2.416324E-2,-3.0190587E-2,1.4197475E-2,-1.20696975E-2,-5.0320055E-2],"split_indices":[12,1,12,0,7,1,10,7,1,8,0,1,1,0,0,9,1,1,7,10,10,0,0,1,0,0,7,0,0,0,0,0,0,0,0,0,0,0,0,0,0,0,0,0,0,0,0],"split_type":[0,0,0,0,0,0,0,0,0,0,0,0,0,0,0,0,0,0,0,0,0,0,0,0,0,0,0,0,0,0,0,0,0,0,0,0,0,0,0,0,0,0,0,0,0,0,0],"sum_hessian":[4.861657E3,4.4285522E3,4.3310474E2,3.873316E3,5.5523627E2,3.6863007E2,6.4474686E1,1.2437034E3,2.6296125E3,4.3595258E2,1.19283714E2,2.1138013E2,1.5724992E2,5.538661E0,5.8936028E1,8.7027826E2,3.734251E2,1.2862418E3,1.3433708E3,3.7414496E2,6.1807594E1,7.437692E1,4.4906788E1,1.5687732E2,5.450282E1,4.3485523E1,1.13764404E2,6.42275E2,2.280032E2,5.5123142E1,3.1830197E2,4.6169263E2,8.245492E2,9.5647943E2,3.8689136E2,2.251175E2,1.4902748E2,5.5025444E0,5.630505E1,1.1385875E1,3.3520912E1,6.757529E1,8.9302025E1,6.8949986E0,4.760782E1,1.015685E2,1.2195913E1],"tree_param":{"num_deleted":"0","num_feature":"13","num_nodes":"47","size_leaf_vector":"1"}},{"base_weights":[-2.439675E-3,5.1867057E-2,-5.8614403E-1,9.990061E-2,-2.7604434E-1,-4.068895E-1,-1.3303105E0,-1.20659605E-1,1.8340497E-1,2.727516E-1,-6.834258E-1,-9.5905995E-1,-2.114985E-1,-1.9462945E-2,-5.5350166E-2,3.1777367E-1,-2.2753929E-1,9.5926136E-2,3.4723458E-1,-5.782026E-2,5.2165306E-1,-1.0431489E0,1.3689208E-1,-5.3014226E-2,-6.2880266E-1,3.2663915E-1,-3.5197783E-1,1.0433476E-3,1.9536808E-2,-1.6283023E-3,-1.7773898E-2,1.1612546E-3,6.3973116E-3,2.1584654E-2,4.984227E-3,2.8085988E-3,-1.0421438E-2,2.314772E-2,5.1562297E-3,-4.5893643E-2,-2.9431224E-2,-2.5704731E-3,1.3177695E-2,1.6725058E-2,-3.1433538E-2,8.30155E-3,4.368514E-2,-1.844147E-2,8.233728E-3],"categories":[],"categories_nodes":[],"categories_segments":[],"categories_sizes":[],"default_left":[0,0,0,0,0,0,0,0,0,0,0,0,0,0,0,0,0,0,0,0,0,0,0,0,0,0,0,0,0,0,0,0,0,0,0,0,0,0,0,0,0,0,0,0,0,0,0,0,0],"id":14,"left_children":[1,3,5,7,9,11,13,15,17,19,21,23,25,-1,-1,27,29,31,33,35,37,39,41,-1,43,45,47,-1,-1,-1,-1,-1,-1,-1,-1,-1,-1,-1,-1,-1,-1,-1,-1,-1,-1,-1,-1,-1,-1],"loss_changes":[1.5385147E2,6.99594E1,5.4210785E1,7.137905E1,1.2717589E2,3.5796085E1,2.4805756E0,4.9987507E1,4.0207703E1,2.0046362E1,9.651581E1,9.18969E0,1.9038364E1,0E0,0E0,1.0367252E1,3.4656857E1,7.8383465E0,4.173474E1,2.7766383E0,2.9610176E0,5.9085236E0,3.946168E0,0E0,8.523167E0,4.3688297E0,1.2241886E1,0E0,0E0,0E0,0E0,0E0,0E0,0E0,0E0,0E0,0E0,0E0,0E0,0E0,0E0,0E0,0E0,0E0,0E0,0E0,0E0,0E0,0E0],"parents":[2147483647,0,0,1,1,2,2,3,3,4,4,5,5,6,6,7,7,8,8,9,9,10,10,11,11,12,12,15,15,16,16,17,17,18,18,19,19,20,20,21,21,22,22,24,24,25,25,26,26],"right_children":[2,4,6,8,10,12,14,16,18,20,22,24,26,-1,-1,28,30,32,34,36,38,40,42,-1,44,46,48,-1,-1,-1,-1,-1,-1,-1,-1,-1,-1,-1,-1,-1,-1,-1,-1,-1,-1,-1,-1,-1,-1],"split_conditions":[1E0,6E0,1E0,1E0,1E0,0E0,-8.660254E-1,1E0,4E0,0E0,3E0,2E0,1E0,-1.9462945E-2,-5.5350166E-2,6E0,0E0,2E0,5E0,5E-1,1.1E1,1E1,6.123234E-17,-5.3014226E-2,-8.660254E-1,1.2E1,6E0,1.0433476E-3,1.9536808E-2,-1.6283023E-3,-1.7773898E-2,1.1612546E-3,6.3973116E-3,2.1584654E-2,4.984227E-3,2.8085988E-3,-1.0421438E-2,2.314772E-2,5.1562297E-3,-4.5893643E-2,-2.9431224E-2,-2.5704731E-3,1.3177695E-2,1.6725058E-2,-3.1433538E-2,8.30155E-3,4.368514E-2,-1.844147E-2,8.233728E-3],"split_indices":[12,1,3,3,3,3,10,1,1,3,4,4,1,0,0,0,3,1,1,10,0,0,10,0,10,0,1,0,0,0,0,0,0,0,0,0,0,0,0,0,0,0,0,0,0,0,0,0,0],"split_type":[0,0,0,0,0,0,0,0,0,0,0,0,0,0,0,0,0,0,0,0,0,0,0,0,0,0,0,0,0,0,0,0,0,0,0,0,0,0,0,0,0,0,0,0,0,0,0,0,0],"sum_hessian":[4.8497188E3,4.4380884E3,4.1163016E2,3.8720876E3,5.660008E2,3.3364838E2,7.798176E1,1.0630322E3,2.8090554E3,2.4130476E2,3.24696E2,8.560685E1,2.4804153E2,5.603844E0,7.2377914E1,2.0767928E2,8.5535297E2,1.8329908E3,9.7606445E2,1.0405608E2,1.3724869E2,2.2547496E2,9.9221054E1,3.837417E1,4.723268E1,5.086149E1,1.9718005E2,7.740001E1,1.3027927E2,4.6051886E2,3.9483408E2,8.977227E2,9.352682E2,5.223352E2,4.5372928E2,6.422523E1,3.983086E1,1.19112144E2,1.8136541E1,1.6520999E2,6.0264973E1,4.8888165E1,5.033289E1,5.793844E0,4.143884E1,4.572003E1,5.1414576E0,1.6522667E2,3.195338E1],"tree_param":{"num_deleted":"0","num_feature":"13","num_nodes":"49","size_leaf_vector":"1"}},{"base_weights":[-1.0296121E-2,4.042909E-2,-5.557434E-1,8.610028E-2,-2.7919087E-1,-3.783661E-1,-1.2794967E0,-1.1836891E-1,1.639928E-1,3.123651E-1,-7.2584045E-1,-9.778214E-1,-1.7256302E-1,-6.003185E-1,-5.305439E-2,3.8024563E-1,-2.4380115E-1,8.848611E-2,3.038301E-1,4.8380043E-2,5.03083E-1,-1.0804527E0,1.01702385E-1,-4.9428314E-2,-7.2657925E-1,-1.1280515E-1,-5.1480044E-2,-0E0,-4.0146615E-2,-1.9816568E-3,1.8003345E-2,-1.7465143E-2,-3.2486673E-3,4.925155E-3,-5.0055003E-3,2.0833578E-2,1.7868107E-3,7.7318326E-3,-7.4736075E-3,2.8503627E-2,1.3400976E-2,-4.9205635E-2,-3.0602302E-2,-5.6268317E-3,7.5843106E-3,8.3512375E-3,-3.4139946E-2,4.7004553E-3,-1.501247E-2],"categories":[],"categories_nodes":[],"categories_segments":[],"categories_sizes":[],"default_left":[0,0,0,0,0,0,0,0,0,0,0,0,0,0,0,0,0,0,0,0,0,0,0,0,0,0,0,0,0,0,0,0,0,0,0,0,0,0,0,0,0,0,0,0,0,0,0,0,0],"id":15,"left_children":[1,3,5,7,9,11,13,15,17,19,21,23,25,27,-1,29,31,33,35,37,39,41,43,-1,45,47,-1,-1,-1,-1,-1,-1,-1,-1,-1,-1,-1,-1,-1,-1,-1,-1,-1,-1,-1,-1,-1,-1,-1],"loss_changes":[1.3388367E2,6.4643005E1,5.204692E1,6.1737785E1,1.4664711E2,4.075496E1,1.2669525E0,6.70209E1,2.9572105E1,1.1978394E1,9.293622E1,4.0422516E0,1.6339876E1,1.923995E0,0E0,6.520973E0,2.6742157E1,1.3527081E1,5.523076E1,3.5346017E0,4.469448E0,8.939026E0,2.090152E0,0E0,5.8358917E0,1.4508184E1,0E0,0E0,0E0,0E0,0E0,0E0,0E0,0E0,0E0,0E0,0E0,0E0,0E0,0E0,0E0,0E0,0E0,0E0,0E0,0E0,0E0,0E0,0E0],"parents":[2147483647,0,0,1,1,2,2,3,3,4,4,5,5,6,6,7,7,8,8,9,9,10,10,11,11,12,12,13,13,15,15,16,16,17,17,18,18,19,19,20,20,21,21,22,22,24,24,25,25],"right_children":[2,4,6,8,10,12,14,16,18,20,22,24,26,28,-1,30,32,34,36,38,40,42,44,-1,46,48,-1,-1,-1,-1,-1,-1,-1,-1,-1,-1,-1,-1,-1,-1,-1,-1,-1,-1,-1,-1,-1,-1,-1],"split_conditions":[1E0,6E0,1E0,1E0,1E0,0E0,-8.660254E-1,1E0,4E0,0E0,3E0,2E0,2E0,3E0,-5.305439E-2,3E0,7E0,1E0,5E0,5E-1,6E0,2E0,2E0,-4.9428314E-2,-8.660254E-1,2E0,-5.1480044E-2,-0E0,-4.0146615E-2,-1.9816568E-3,1.8003345E-2,-1.7465143E-2,-3.2486673E-3,4.925155E-3,-5.0055003E-3,2.0833578E-2,1.7868107E-3,7.7318326E-3,-7.4736075E-3,2.8503627E-2,1.3400976E-2,-4.9205635E-2,-3.0602302E-2,-5.6268317E-3,7.5843106E-3,8.3512375E-3,-3.4139946E-2,4.7004553E-3,-1.501247E-2],"split_indices":[12,1,3,3,3,3,10,1,1,3,4,4,12,1,0,0,0,8,1,10,0,4,3,0,10,4,0,0,0,0,0,0,0,0,0,0,0,0,0,0,0,0,0,0,0,0,0,0,0],"split_type":[0,0,0,0,0,0,0,0,0,0,0,0,0,0,0,0,0,0,0,0,0,0,0,0,0,0,0,0,0,0,0,0,0,0,0,0,0,0,0,0,0,0,0,0,0,0,0,0,0],"sum_hessian":[4.8352993E3,4.4250757E3,4.1022363E2,3.8729182E3,5.5215735E2,3.3136584E2,7.885779E1,1.0679941E3,2.804924E3,2.3769115E2,3.1446622E2,8.3188324E1,2.4817752E2,6.495904E0,7.2361885E1,2.139722E2,8.540219E2,1.8232478E3,9.8167615E2,1.0059445E2,1.370967E2,2.1985686E2,9.460936E1,3.8052685E1,4.5135635E1,2.3715749E2,1.1020048E1,3.2253633E0,3.2705405E0,2.9870071E1,1.8410213E2,3.893782E2,4.646437E2,1.5695824E3,2.5366542E2,5.3335767E2,4.483185E2,6.254271E1,3.805174E1,5.8727383E1,7.836931E1,1.4603757E2,7.381928E1,2.4789753E1,6.981961E1,5.230069E0,3.9905567E1,1.26663895E2,1.1049358E2],"tree_param":{"num_deleted":"0","num_feature":"13","num_nodes":"49","size_leaf_vector":"1"}},{"base_weights":[1.19930785E-2,5.138838E-2,-2.551918E-1,-1.5420008E-1,1.4734271E-1,2.1306069E-1,-6.59815E-1,2.7566674E-1,-2.6469257E-1,6.764645E-2,2.9820836E-1,-1.0310337E-1,4.4114512E-1,-1.0050204E0,1.0084534E-1,8.146944E-2,4.3064594E-1,-4.6216932E-1,-8.866412E-2,1.1581292E-1,-1.1062353E-1,5.042822E-1,6.355068E-2,1.3126232E-1,-4.9175042E-1,5.6764323E-2,4.7347942E-1,-1.1425587E0,-7.358262E-1,-1.9310687E-1,2.297018E-1,-2.1897728E-2,7.711056E-3,2.5885003E-2,1.8969619E-3,-1.2901272E-2,-2.6706688E-2,-7.427849E-3,9.175095E-3,5.667983E-3,-2.01203E-3,-9.771625E-3,9.534845E-3,2.5420863E-2,-2.1176925E-3,-1.4316811E-2,1.010421E-2,-3.4475946E-3,1.5831813E-2,-1.36023825E-2,-4.4431634E-2,-7.3558786E-3,1.1145528E-2,1.22030135E-2,2.3895452E-2,-5.255853E-2,-3.3641506E-2,-4.36404E-2,-1.5378476E-2,9.9131465E-3,-1.0313601E-2,-5.2145176E-4,2.0266721E-2],"categories":[],"categories_nodes":[],"categories_segments":[],"categories_sizes":[],"default_left":[0,0,0,0,0,0,0,0,0,0,0,0,0,0,0,0,0,0,0,0,0,0,0,0,0,0,0,0,0,0,0,0,0,0,0,0,0,0,0,0,0,0,0,0,0,0,0,0,0,0,0,0,0,0,0,0,0,0,0,0,0,0,0],"id":16,"left_children":[1,3,5,7,9,11,13,15,17,19,21,23,25,27,29,31,33,35,37,39,41,43,45,47,49,51,53,55,57,59,61,-1,-1,-1,-1,-1,-1,-1,-1,-1,-1,-1,-1,-1,-1,-1,-1,-1,-1,-1,-1,-1,-1,-1,-1,-1,-1,-1,-1,-1,-1,-1,-1],"loss_changes":[5.0814278E1,8.3042755E1,1.17761246E2,6.3733955E1,3.4456383E1,2.0898384E1,8.768732E1,8.18491E0,3.698427E1,1.6162218E1,4.7860794E1,1.123464E1,2.0217247E0,7.1370697E0,4.057856E0,8.810501E0,1.2545889E1,1.4036499E1,1.752438E1,6.383909E0,1.8768164E1,3.8654007E1,3.720954E1,4.5108995E0,3.7105036E0,8.752467E-1,2.9091148E0,5.9335175E0,9.5176735E0,1.0324533E0,5.011623E0,0E0,0E0,0E0,0E0,0E0,0E0,0E0,0E0,0E0,0E0,0E0,0E0,0E0,0E0,0E0,0E0,0E0,0E0,0E0,0E0,0E0,0E0,0E0,0E0,0E0,0E0,0E0,0E0,0E0,0E0,0E0,0E0],"parents":[2147483647,0,0,1,1,2,2,3,3,4,4,5,5,6,6,7,7,8,8,9,9,10,10,11,11,12,12,13,13,14,14,15,15,16,16,17,17,18,18,19,19,20,20,21,21,22,22,23,23,24,24,25,25,26,26,27,27,28,28,29,29,30,30],"right_children":[2,4,6,8,10,12,14,16,18,20,22,24,26,28,30,32,34,36,38,40,42,44,46,48,50,52,54,56,58,60,62,-1,-1,-1,-1,-1,-1,-1,-1,-1,-1,-1,-1,-1,-1,-1,-1,-1,-1,-1,-1,-1,-1,-1,-1,-1,-1,-1,-1,-1,-1,-1,-1],"split_conditions":[6E0,1E0,1E0,1E0,4E0,0E0,4E0,0E0,7E0,4E0,5E0,5E-1,-8.660254E-1,3E0,2E0,3E0,3E0,4E0,5E0,1E0,3E0,4E0,2E0,3E0,4E0,3E0,-2.4492937E-16,3E0,6.123234E-17,-8.660254E-1,5E-1,-2.1897728E-2,7.711056E-3,2.5885003E-2,1.8969619E-3,-1.2901272E-2,-2.6706688E-2,-7.427849E-3,9.175095E-3,5.667983E-3,-2.01203E-3,-9.771625E-3,9.534845E-3,2.5420863E-2,-2.1176925E-3,-1.4316811E-2,1.010421E-2,-3.4475946E-3,1.5831813E-2,-1.36023825E-2,-4.4431634E-2,-7.3558786E-3,1.1145528E-2,1.22030135E-2,2.3895452E-2,-5.255853E-2,-3.3641506E-2,-4.36404E-2,-1.5378476E-2,9.9131465E-3,-1.0313601E-2,-5.2145176E-4,2.0266721E-2],"split_indices":[1,3,3,1,1,3,5,3,0,5,1,10,10,5,3,0,5,1,1,8,1,5,3,5,5,5,9,3,10,9,10,0,0,0,0,0,0,0,0,0,0,0,0,0,0,0,0,0,0,0,0,0,0,0,0,0,0,0,0,0,0,0,0],"split_type":[0,0,0,0,0,0,0,0,0,0,0,0,0,0,0,0,0,0,0,0,0,0,0,0,0,0,0,0,0,0,0,0,0,0,0,0,0,0,0,0,0,0,0,0,0,0,0,0,0,0,0,0,0,0,0,0,0,0,0,0,0,0,0],"sum_hessian":[4.8251787E3,4.206366E3,6.1881256E2,1.3380579E3,2.8683083E3,2.8712366E2,3.316889E2,2.7305453E2,1.0650033E3,1.8784844E3,9.89824E2,1.2058077E2,1.6654288E2,2.2786317E2,1.0382574E2,1.2235201E2,1.5070255E2,5.0064005E2,5.643633E2,1.4795367E3,3.989476E2,5.2597864E2,4.638453E2,7.575999E1,4.482078E1,1.33633175E1,1.5317957E2,1.4746642E2,8.039675E1,3.1296053E1,7.2529686E1,1.744675E1,1.0490526E2,9.555872E1,5.514382E1,3.00527E2,2.0011304E2,4.3303033E2,1.3133293E2,1.2805077E3,1.990291E2,2.888931E2,1.1005452E2,4.2561523E2,1.0036343E2,1.4313698E2,3.2070834E2,4.203144E1,3.3728546E1,3.7930893E1,6.889889E0,6.42532E0,6.9379973E0,6.730324E1,8.587632E1,9.0702576E1,5.676384E1,3.8340027E1,4.2056725E1,3.364355E0,2.7931698E1,3.9318832E1,3.3210854E1],"tree_param":{"num_deleted":"0","num_feature":"13","num_nodes":"63","size_leaf_vector":"1"}},{"base_weights":[-6.5912833E-3,4.059474E-2,-5.167738E-1,7.51021E-2,-2.0118967E-1,-3.3443356E-1,-5.1332798E-2,-1.2251699E-1,1.5024917E-1,3.8002732E-1,-6.426435E-1,-8.85426E-1,-1.2706602E-1,1.1104677E-2,-3.880567E-1,-9.865215E-3,2.241214E-1,1.6504489E-1,5.43406E-1,-1.0186352E0,1.8221487E-1,-1.1049299E0,-2.9157555E-1,4.296988E-1,-2.7224842E-1,-6.0187313E-3,5.816205E-3,-3.699132E-2,2.4944797E-4,4.8241843E-3,-2.364957E-3,6.1653093E-3,1.1583598E-2,2.3625461E-2,-1.2421662E-4,2.4684453E-2,7.1946657E-3,-4.4683293E-2,-2.3754548E-2,3.6161016E-3,2.2132102E-2,-1.3202112E-2,-4.845007E-2,3.9784154E-3,-3.301359E-2,2.8042165E-3,3.1708952E-2,-1.5092522E-2,9.28876E-3],"categories":[],"categories_nodes":[],"categories_segments":[],"categories_sizes":[],"default_left":[0,0,0,0,0,0,0,0,0,0,0,0,0,0,0,0,0,0,0,0,0,0,0,0,0,0,0,0,0,0,0,0,0,0,0,0,0,0,0,0,0,0,0,0,0,0,0,0,0],"id":17,"left_children":[1,3,5,7,9,11,-1,13,15,17,19,21,23,25,27,29,31,33,35,37,39,41,43,45,47,-1,-1,-1,-1,-1,-1,-1,-1,-1,-1,-1,-1,-1,-1,-1,-1,-1,-1,-1,-1,-1,-1,-1,-1],"loss_changes":[1.1563352E2,3.669293E1,5.6113686E1,5.717604E1,1.4130685E2,3.7552944E1,0E0,3.766482E1,3.3000534E1,8.189037E0,9.732088E1,1.1189018E1,1.9729773E1,1.537465E1,7.524147E1,5.6740694E0,8.656418E0,7.549944E0,3.3958626E0,7.9145203E0,3.2711616E0,4.692398E0,5.671623E0,6.474292E0,1.0365045E1,0E0,0E0,0E0,0E0,0E0,0E0,0E0,0E0,0E0,0E0,0E0,0E0,0E0,0E0,0E0,0E0,0E0,0E0,0E0,0E0,0E0,0E0,0E0,0E0],"parents":[2147483647,0,0,1,1,2,2,3,3,4,4,5,5,7,7,8,8,9,9,10,10,11,11,12,12,13,13,14,14,15,15,16,16,17,17,18,18,19,19,20,20,21,21,22,22,23,23,24,24],"right_children":[2,4,6,8,10,12,-1,14,16,18,20,22,24,26,28,30,32,34,36,38,40,42,44,46,48,-1,-1,-1,-1,-1,-1,-1,-1,-1,-1,-1,-1,-1,-1,-1,-1,-1,-1,-1,-1,-1,-1,-1,-1],"split_conditions":[1E0,6E0,1E0,1E0,1E0,0E0,-5.1332798E-2,4E0,2E0,0E0,4E0,4E0,1E0,7E0,5E0,2E0,6.123234E-17,-5E-1,4E0,1E0,1.1E1,-8.660254E-1,6.123234E-17,7E0,6E0,-6.0187313E-3,5.816205E-3,-3.699132E-2,2.4944797E-4,4.8241843E-3,-2.364957E-3,6.1653093E-3,1.1583598E-2,2.3625461E-2,-1.2421662E-4,2.4684453E-2,7.1946657E-3,-4.4683293E-2,-2.3754548E-2,3.6161016E-3,2.2132102E-2,-1.3202112E-2,-4.845007E-2,3.9784154E-3,-3.301359E-2,2.8042165E-3,3.1708952E-2,-1.5092522E-2,9.28876E-3],"split_indices":[12,1,3,3,3,3,0,1,1,3,5,5,1,0,1,5,10,10,5,8,0,10,10,0,1,0,0,0,0,0,0,0,0,0,0,0,0,0,0,0,0,0,0,0,0,0,0,0,0],"split_type":[0,0,0,0,0,0,0,0,0,0,0,0,0,0,0,0,0,0,0,0,0,0,0,0,0,0,0,0,0,0,0,0,0,0,0,0,0,0,0,0,0,0,0,0,0,0,0,0,0],"sum_hessian":[4.799559E3,4.3944097E3,4.0514975E2,3.8466572E3,5.477522E2,3.2908832E2,7.606143E1,1.0593102E3,2.7873472E3,2.3648808E2,3.1126413E2,8.85795E1,2.4050883E2,7.0553064E2,3.537796E2,8.801938E2,1.9071533E3,1.0355118E2,1.3293689E2,2.1360548E2,9.765863E1,6.36701E1,2.49094E1,4.9064766E1,1.9144406E2,3.1999774E2,3.8553287E2,1.4902704E2,2.0475255E2,2.4036357E2,6.398302E2,9.245574E2,9.825959E2,2.8343008E1,7.5208176E1,1.0954378E2,2.339312E1,1.7133382E2,4.2271675E1,7.989231E1,1.7766321E1,8.481728E0,5.518837E1,1.5027249E1,9.882153E0,2.5617163E1,2.3447605E1,1.5883992E2,3.2604137E1],"tree_param":{"num_deleted":"0","num_feature":"13","num_nodes":"49","size_leaf_vector":"1"}},{"base_weights":[3.9339866E-3,4.973868E-2,-4.891689E-1,9.146987E-2,-2.400949E-1,-3.118531E-1,-1.2343271E0,-4.9844228E-2,1.4523834E-1,2.717784E-1,-6.5053654E-1,-8.733694E-1,-1.1530752E-1,-2.0237483E-2,-5.1346477E-2,3.640569E-1,-1.5697782E-1,4.01522E-2,2.4337612E-1,5.9149783E-2,4.3196872E-1,-9.8861104E-1,9.585835E-2,-5.0186213E-2,-5.370344E-1,8.895293E-2,-4.5416173E-1,6.6527263E-3,1.9294668E-2,8.081611E-4,-1.4636861E-2,9.715086E-3,8.412996E-4,1.2447919E-2,3.824967E-3,-1.1008894E-2,7.6521807E-3,-5.513883E-3,1.8884787E-2,-4.336162E-2,-2.7949788E-2,9.100208E-3,-5.948639E-3,2.229474E-2,-2.8953675E-2,1.5334644E-2,-1.19570885E-2,-5.3978138E-2,-1.968688E-3],"categories":[],"categories_nodes":[],"categories_segments":[],"categories_sizes":[],"default_left":[0,0,0,0,0,0,0,0,0,0,0,0,0,0,0,0,0,0,0,0,0,0,0,0,0,0,0,0,0,0,0,0,0,0,0,0,0,0,0,0,0,0,0,0,0,0,0,0,0],"id":18,"left_children":[1,3,5,7,9,11,13,15,17,19,21,23,25,-1,-1,27,29,31,33,35,37,39,41,-1,43,45,47,-1,-1,-1,-1,-1,-1,-1,-1,-1,-1,-1,-1,-1,-1,-1,-1,-1,-1,-1,-1,-1,-1],"loss_changes":[1.09773636E2,5.3823715E1,5.3925186E1,2.9567844E1,1.1795491E2,3.685318E1,1.7694778E0,4.764795E1,2.9033066E1,8.460859E0,7.874864E1,1.0025169E1,1.7416193E1,0E0,0E0,5.016222E0,3.162172E1,5.2616925E0,1.4531708E1,4.908929E0,3.3711452E0,4.70697E0,3.222212E0,0E0,1.0587601E1,1.8155685E1,3.4106606E1,0E0,0E0,0E0,0E0,0E0,0E0,0E0,0E0,0E0,0E0,0E0,0E0,0E0,0E0,0E0,0E0,0E0,0E0,0E0,0E0,0E0,0E0],"parents":[2147483647,0,0,1,1,2,2,3,3,4,4,5,5,6,6,7,7,8,8,9,9,10,10,11,11,12,12,15,15,16,16,17,17,18,18,19,19,20,20,21,21,22,22,24,24,25,25,26,26],"right_children":[2,4,6,8,10,12,14,16,18,20,22,24,26,-1,-1,28,30,32,34,36,38,40,42,-1,44,46,48,-1,-1,-1,-1,-1,-1,-1,-1,-1,-1,-1,-1,-1,-1,-1,-1,-1,-1,-1,-1,-1,-1],"split_conditions":[1E0,6E0,1E0,1E0,1E0,0E0,-8.660254E-1,1E0,3E0,0E0,3E0,2E0,4E0,-2.0237483E-2,-5.1346477E-2,6E0,0E0,2E0,5E0,5E0,-8.660254E-1,1E1,3E0,-5.0186213E-2,-8.660254E-1,2E0,5E0,6.6527263E-3,1.9294668E-2,8.081611E-4,-1.4636861E-2,9.715086E-3,8.412996E-4,1.2447919E-2,3.824967E-3,-1.1008894E-2,7.6521807E-3,-5.513883E-3,1.8884787E-2,-4.336162E-2,-2.7949788E-2,9.100208E-3,-5.948639E-3,2.229474E-2,-2.8953675E-2,1.5334644E-2,-1.19570885E-2,-5.3978138E-2,-1.968688E-3],"split_indices":[12,1,3,3,3,3,10,1,1,3,4,4,1,0,0,0,3,0,1,0,10,0,3,0,10,4,1,0,0,0,0,0,0,0,0,0,0,0,0,0,0,0,0,0,0,0,0,0,0],"split_type":[0,0,0,0,0,0,0,0,0,0,0,0,0,0,0,0,0,0,0,0,0,0,0,0,0,0,0,0,0,0,0,0,0,0,0,0,0,0,0,0,0,0,0,0,0,0,0,0,0],"sum_hessian":[4.858016E3,4.4464336E3,4.115824E2,3.887848E3,5.5858594E2,3.3424197E2,7.7340454E1,1.0713389E3,2.816509E3,2.4874902E2,3.0983694E2,8.525498E1,2.4898698E2,6.041326E0,7.1299126E1,2.1944984E2,8.51889E2,1.3613721E3,1.455137E3,1.07897415E2,1.4085161E2,2.1295888E2,9.687806E1,3.7968166E1,4.728681E1,1.5594339E2,9.3043594E1,8.365808E1,1.3579176E2,4.615855E2,3.9030347E2,1.15591705E2,1.2457804E3,9.959659E2,4.5917108E2,2.9997313E1,7.79001E1,8.949308E0,1.319023E2,1.5699199E2,5.5966885E1,6.317956E1,3.3698498E1,6.42181E0,4.0865E1,8.87362E1,6.720719E1,2.7849348E1,6.5194244E1],"tree_param":{"num_deleted":"0","num_feature":"13","num_nodes":"49","size_leaf_vector":"1"}},{"base_weights":[-2.4052566E-2,2.1594767E-2,-5.313184E-1,6.0718153E-2,-2.579079E-1,-3.6667386E-1,-1.2412858E0,-1.20630786E-1,1.2956151E-1,2.5531098E-1,-6.578452E-1,-8.663101E-1,-1.9241494E-1,-5.58983E-1,-5.1744666E-2,3.25029E-1,-2.3553607E-1,6.254172E-2,2.5463623E-1,9.69021E-3,4.2401177E-1,-9.971886E-1,7.435899E-2,-4.753647E-1,-4.8110645E-2,3.71678E-1,-3.3029988E-1,1.4896326E-3,-3.8841043E-2,1.5322308E-2,-8.2717143E-4,-2.8900388E-3,-1.6942872E-2,-2.6787173E-3,4.16853E-3,1.6940428E-2,2.5591478E-3,5.5073802E-3,-7.303516E-3,1.2066215E-3,1.8223505E-2,-4.611317E-2,-2.9032048E-2,-5.1297704E-3,1.2936759E-2,-3.1661738E-2,8.893112E-3,1.8357512E-2,-6.243376E-3,-3.119564E-3,-2.4153981E-2],"categories":[],"categories_nodes":[],"categories_segments":[],"categories_sizes":[],"default_left":[0,0,0,0,0,0,0,0,0,0,0,0,0,0,0,0,0,0,0,0,0,0,0,0,0,0,0,0,0,0,0,0,0,0,0,0,0,0,0,0,0,0,0,0,0,0,0,0,0,0,0],"id":19,"left_children":[1,3,5,7,9,11,13,15,17,19,21,23,25,27,-1,29,31,33,35,37,39,41,43,45,-1,47,49,-1,-1,-1,-1,-1,-1,-1,-1,-1,-1,-1,-1,-1,-1,-1,-1,-1,-1,-1,-1,-1,-1,-1,-1],"loss_changes":[1.11190254E2,4.818435E1,4.5576927E1,4.8284924E1,1.11320885E2,2.7905712E1,1.4628448E0,5.460911E1,2.3455296E1,9.833237E0,7.582761E1,1.0012352E1,1.9021526E1,2.0605433E0,0E0,4.417185E0,2.5936855E1,9.87364E0,3.1396313E1,2.4609613E0,1.7076569E0,7.4473267E0,5.0067277E0,9.35191E0,0E0,2.3428373E0,1.3388834E1,0E0,0E0,0E0,0E0,0E0,0E0,0E0,0E0,0E0,0E0,0E0,0E0,0E0,0E0,0E0,0E0,0E0,0E0,0E0,0E0,0E0,0E0,0E0,0E0],"parents":[2147483647,0,0,1,1,2,2,3,3,4,4,5,5,6,6,7,7,8,8,9,9,10,10,11,11,12,12,13,13,15,15,16,16,17,17,18,18,19,19,20,20,21,21,22,22,23,23,25,25,26,26],"right_children":[2,4,6,8,10,12,14,16,18,20,22,24,26,28,-1,30,32,34,36,38,40,42,44,46,-1,48,50,-1,-1,-1,-1,-1,-1,-1,-1,-1,-1,-1,-1,-1,-1,-1,-1,-1,-1,-1,-1,-1,-1,-1,-1],"split_conditions":[1E0,6E0,1E0,1E0,1E0,0E0,-8.660254E-1,1E0,4E0,0E0,3E0,-1.8369701E-16,1E0,3E0,-5.1744666E-2,3E0,0E0,1E0,5E0,5E-1,-8.660254E-1,3E0,5E-1,3E0,-4.8110645E-2,3E0,2E0,1.4896326E-3,-3.8841043E-2,1.5322308E-2,-8.2717143E-4,-2.8900388E-3,-1.6942872E-2,-2.6787173E-3,4.16853E-3,1.6940428E-2,2.5591478E-3,5.5073802E-3,-7.303516E-3,1.2066215E-3,1.8223505E-2,-4.611317E-2,-2.9032048E-2,-5.1297704E-3,1.2936759E-2,-3.1661738E-2,8.893112E-3,1.8357512E-2,-6.243376E-3,-3.119564E-3,-2.4153981E-2],"split_indices":[12,1,3,3,3,3,10,1,1,3,4,10,1,1,0,4,3,1,1,10,10,3,10,4,0,4,4,0,0,0,0,0,0,0,0,0,0,0,0,0,0,0,0,0,0,0,0,0,0,0,0],"split_type":[0,0,0,0,0,0,0,0,0,0,0,0,0,0,0,0,0,0,0,0,0,0,0,0,0,0,0,0,0,0,0,0,0,0,0,0,0,0,0,0,0,0,0,0,0,0,0,0,0,0,0],"sum_hessian":[4.7985845E3,4.4036504E3,3.9493372E2,3.864123E3,5.395276E2,3.224916E2,7.2442116E1,1.0627488E3,2.8013743E3,2.364811E2,3.030465E2,8.177675E1,2.4071484E2,6.4766035E0,6.5965515E1,2.1719202E2,8.455567E2,1.8257289E3,9.756454E2,9.705537E1,1.3942572E2,2.0675186E2,9.6294655E1,3.9568268E1,4.220848E1,4.6711246E1,1.940036E2,3.154763E0,3.3218408E0,1.859603E2,3.1231718E1,4.5381686E2,3.9173987E2,4.4393298E2,1.3817959E3,5.16268E2,4.593774E2,5.8679775E1,3.837559E1,1.068375E1,1.2874197E2,1.2818286E2,7.856899E1,5.3390152E1,4.2904503E1,2.7139256E1,1.2429014E1,4.0332977E1,6.37827E0,1.0201742E2,9.1986176E1],"tree_param":{"num_deleted":"0","num_feature":"13","num_nodes":"51","size_leaf_vector":"1"}},{"base_weights":[8.687417E-3,5.0795376E-2,-4.619836E-1,-1.8775128E-2,7.9522185E-2,-2.9084966E-1,-4.8797473E-2,-4.0858594E-1,1.1447396E-2,1.3206328E-2,1.4301312E-1,-8.707787E-1,-9.184845E-2,-7.2160876E-1,-1.0835145E-1,-1.1641777E-2,2.063272E-1,1.1860507E-1,-9.8320745E-2,1.9297297E-1,3.509345E-2,-1.0580839E0,-3.398924E-1,-3.3211E-2,-4.967578E-2,-3.074845E-2,-1.2272012E-2,1.501056E-3,-1.3982354E-2,2.9012198E-3,-3.9172163E-3,1.3372368E-2,1.3527473E-3,1.2443068E-3,1.1124347E-2,-5.8600083E-3,-2.9858958E-3,6.7435727E-3,1.2255198E-2,1.0465027E-2,-5.6407886E-4,-4.5996636E-2,-3.0332467E-2,-1.777469E-4,-2.9719435E-2,5.6568384E-3,-1.3311449E-2],"categories":[],"categories_nodes":[],"categories_segments":[],"categories_sizes":[],"default_left":[0,0,0,0,0,0,0,0,0,0,0,0,0,0,0,0,0,0,0,0,0,0,0,0,0,0,0,0,0,0,0,0,0,0,0,0,0,0,0,0,0,0,0,0,0,0,0],"id":20,"left_children":[1,3,5,7,9,11,-1,13,15,17,19,21,23,25,27,29,31,33,35,37,39,41,43,45,-1,-1,-1,-1,-1,-1,-1,-1,-1,-1,-1,-1,-1,-1,-1,-1,-1,-1,-1,-1,-1,-1,-1],"loss_changes":[9.528987E1,8.826742E0,5.06037E1,1.5232201E1,1.3146187E1,3.723648E1,0E0,8.583848E0,5.4089665E0,1.8008497E1,8.582779E0,7.600525E0,1.6264532E1,4.7553825E-1,1.77103E0,7.8074183E0,2.7758694E0,1.0965472E1,8.2133865E-1,2.913517E0,5.669766E0,2.5523376E-1,3.1774714E0,1.2261274E1,0E0,0E0,0E0,0E0,0E0,0E0,0E0,0E0,0E0,0E0,0E0,0E0,0E0,0E0,0E0,0E0,0E0,0E0,0E0,0E0,0E0,0E0,0E0],"parents":[2147483647,0,0,1,1,2,2,3,3,4,4,5,5,7,7,8,8,9,9,10,10,11,11,12,12,13,13,14,14,15,15,16,16,17,17,18,18,19,19,20,20,21,21,22,22,23,23],"right_children":[2,4,6,8,10,12,-1,14,16,18,20,22,24,26,28,30,32,34,36,38,40,42,44,46,-1,-1,-1,-1,-1,-1,-1,-1,-1,-1,-1,-1,-1,-1,-1,-1,-1,-1,-1,-1,-1,-1,-1],"split_conditions":[1E0,1E0,1E0,2E0,6.123234E-17,0E0,-4.8797473E-2,0E0,1.2E1,-5E-1,3E0,3E0,2E0,3E0,2E0,-1.8369701E-16,1E0,3E0,2E0,1E0,-5E-1,8.660254E-1,6.123234E-17,1E0,-4.967578E-2,-3.074845E-2,-1.2272012E-2,1.501056E-3,-1.3982354E-2,2.9012198E-3,-3.9172163E-3,1.3372368E-2,1.3527473E-3,1.2443068E-3,1.1124347E-2,-5.8600083E-3,-2.9858958E-3,6.7435727E-3,1.2255198E-2,1.0465027E-2,-5.6407886E-4,-4.5996636E-2,-3.0332467E-2,-1.777469E-4,-2.9719435E-2,5.6568384E-3,-1.3311449E-2],"split_indices":[12,3,3,0,10,3,0,3,0,10,3,4,12,4,4,10,2,3,3,9,9,9,10,2,0,0,0,0,0,0,0,0,0,0,0,0,0,0,0,0,0,0,0,0,0,0,0],"split_type":[0,0,0,0,0,0,0,0,0,0,0,0,0,0,0,0,0,0,0,0,0,0,0,0,0,0,0,0,0,0,0,0,0,0,0,0,0,0,0,0,0,0,0,0,0,0,0],"sum_hessian":[4.805768E3,4.412458E3,3.9331033E2,1.289158E3,3.1233E3,3.2261133E2,7.0699005E1,9.1526215E1,1.1976317E3,1.528936E3,1.5943639E3,8.106295E1,2.4154839E2,4.369661E1,4.7829605E1,1.0717998E3,1.2583199E2,7.8624646E2,7.4268964E2,1.088714E3,5.056499E2,5.8750923E1,2.2312025E1,2.3133984E2,1.020854E1,3.7983227E1,5.7133827E0,3.0464546E1,1.7365059E1,5.423811E2,5.2941864E2,7.126476E1,5.4567226E1,5.0908725E2,2.7715918E2,2.4143396E2,5.0125568E2,8.9948615E2,1.8922783E2,8.924391E1,4.1640598E2,4.1589626E1,1.7161295E1,1.3073238E1,9.238788E0,1.4654126E2,8.479859E1],"tree_param":{"num_deleted":"0","num_feature":"13","num_nodes":"47","size_leaf_vector":"1"}},{"base_weights":[-4.450384E-3,9.727667E-3,-1.1481764E0,3.355565E-2,-3.018334E-1,-1.7422091E-2,-4.8314217E-2,5.2956227E-2,-1.3302357E-1,-1.760724E-1,-1.1295403E0,-9.757436E-3,1.414952E-1,1.0136438E-1,-2.0967613E-1,-7.495512E-1,-2.8240876E-2,-4.6930704E-2,-1.7820833E-2,1.8718047E-3,-3.416764E-3,8.663527E-3,1.0401563E-3,-7.1504395E-3,8.545937E-3,-4.1581485E-3,-1.2415789E-2,-1.3271836E-2,-4.4271402E-2,-4.033531E-3,2.5972724E-2],"categories":[],"categories_nodes":[],"categories_segments":[],"categories_sizes":[],"default_left":[0,0,0,0,0,0,0,0,0,0,0,0,0,0,0,0,0,0,0,0,0,0,0,0,0,0,0,0,0,0,0],"id":21,"left_children":[1,3,5,7,9,-1,-1,11,13,15,17,19,21,23,25,27,29,-1,-1,-1,-1,-1,-1,-1,-1,-1,-1,-1,-1,-1,-1],"loss_changes":[7.768534E1,3.5109367E1,1.6234665E0,1.4208529E1,3.4609383E1,0E0,0E0,2.1871803E1,8.276279E0,2.4811098E1,4.506073E-1,9.874761E0,1.4141842E1,3.64039E0,3.6174526E0,8.334808E0,1.1628701E1,0E0,0E0,0E0,0E0,0E0,0E0,0E0,0E0,0E0,0E0,0E0,0E0,0E0,0E0],"parents":[2147483647,0,0,1,1,2,2,3,3,4,4,7,7,8,8,9,9,10,10,11,11,12,12,13,13,14,14,15,15,16,16],"right_children":[2,4,6,8,10,-1,-1,12,14,16,18,20,22,24,26,28,30,-1,-1,-1,-1,-1,-1,-1,-1,-1,-1,-1,-1,-1,-1],"split_conditions":[2E0,1E0,-8.660254E-1,1E0,1E0,-1.7422091E-2,-4.8314217E-2,2E0,-5E-1,0E0,1E0,1E0,1E0,-8.660254E-1,2E0,-1.8369701E-16,1E0,-4.6930704E-2,-1.7820833E-2,1.8718047E-3,-3.416764E-3,8.663527E-3,1.0401563E-3,-7.1504395E-3,8.545937E-3,-4.1581485E-3,-1.2415789E-2,-1.3271836E-2,-4.4271402E-2,-4.033531E-3,2.5972724E-2],"split_indices":[12,12,10,8,3,0,0,3,10,3,10,2,7,10,4,10,10,0,0,0,0,0,0,0,0,0,0,0,0,0,0],"split_type":[0,0,0,0,0,0,0,0,0,0,0,0,0,0,0,0,0,0,0,0,0,0,0,0,0,0,0,0,0,0,0],"sum_hessian":[4.784674E3,4.727513E3,5.7160477E1,4.3930356E3,3.3447754E2,5.4436245E0,5.171685E1,3.9359592E3,4.5707645E2,2.9199203E2,4.2485497E1,2.3044487E3,1.6315105E3,1.1236159E2,3.4471487E2,5.8522736E1,2.3346931E2,3.8855595E1,3.6299005E0,1.3187064E3,9.8574243E2,9.876136E2,6.438969E2,3.1769619E1,8.059197E1,1.699091E2,1.7480576E2,2.8374393E1,3.014834E1,2.1209485E2,2.1374454E1],"tree_param":{"num_deleted":"0","num_feature":"13","num_nodes":"31","size_leaf_vector":"1"}},{"base_weights":[7.2320376E-4,4.3355968E-2,-4.7595495E-1,7.927064E-2,-2.1472567E-1,-3.236583E-1,-1.1544554E0,-8.9825414E-2,1.4359857E-1,2.6303667E-1,-5.9933555E-1,-8.9110535E-1,-1.3549355E-1,-1.7413657E-2,-4.8289638E-2,2.700823E-1,-1.762677E-1,7.128464E-2,2.7960092E-1,2.2325688E-3,4.543867E-1,-9.0576935E-1,8.447342E-2,-1.0618303E0,-3.9571172E-1,-8.2418784E-2,-4.7970843E-2,1.2860738E-2,7.3080957E-3,-2.110535E-4,-1.4917006E-2,-1.2269297E-3,5.6079607E-3,1.6234523E-2,5.6430367E-3,-1.6080592E-2,1.577153E-3,-1.489797E-3,1.9708976E-2,-4.230906E-2,-2.3105877E-2,6.5555666E-3,-8.4256185E-3,-4.7064785E-2,-3.2661214E-2,1.4382237E-2,-2.5419401E-2,4.9577756E-3,-1.3125939E-2],"categories":[],"categories_nodes":[],"categories_segments":[],"categories_sizes":[],"default_left":[0,0,0,0,0,0,0,0,0,0,0,0,0,0,0,0,0,0,0,0,0,0,0,0,0,0,0,0,0,0,0,0,0,0,0,0,0,0,0,0,0,0,0,0,0,0,0,0,0],"id":22,"left_children":[1,3,5,7,9,11,13,15,17,19,21,23,25,-1,-1,27,29,31,33,35,37,39,41,43,45,47,-1,-1,-1,-1,-1,-1,-1,-1,-1,-1,-1,-1,-1,-1,-1,-1,-1,-1,-1,-1,-1,-1,-1],"loss_changes":[9.7118935E1,4.0687992E1,3.990547E1,4.1933037E1,9.878799E1,3.420711E1,1.8349762E0,3.3123165E1,2.74109E1,1.1959864E1,6.2514725E1,6.0618134E0,1.3567272E1,0E0,0E0,8.1368065E-1,2.8822144E1,1.2835127E1,1.682502E1,1.558088E0,2.6587982E0,9.257187E0,2.2387495E0,1.0701752E-1,4.5156226E0,1.19432535E1,0E0,0E0,0E0,0E0,0E0,0E0,0E0,0E0,0E0,0E0,0E0,0E0,0E0,0E0,0E0,0E0,0E0,0E0,0E0,0E0,0E0,0E0,0E0],"parents":[2147483647,0,0,1,1,2,2,3,3,4,4,5,5,6,6,7,7,8,8,9,9,10,10,11,11,12,12,15,15,16,16,17,17,18,18,19,19,20,20,21,21,22,22,23,23,24,24,25,25],"right_children":[2,4,6,8,10,12,14,16,18,20,22,24,26,-1,-1,28,30,32,34,36,38,40,42,44,46,48,-1,-1,-1,-1,-1,-1,-1,-1,-1,-1,-1,-1,-1,-1,-1,-1,-1,-1,-1,-1,-1,-1,-1],"split_conditions":[1E0,6E0,1E0,1E0,1E0,0E0,-8.660254E-1,1E0,4E0,0E0,3E0,3E0,2E0,-1.7413657E-2,-4.8289638E-2,2E0,0E0,-1.8369701E-16,5E0,-8.660254E-1,-8.660254E-1,2E0,1E0,2E0,1E0,2E0,-4.7970843E-2,1.2860738E-2,7.3080957E-3,-2.110535E-4,-1.4917006E-2,-1.2269297E-3,5.6079607E-3,1.6234523E-2,5.6430367E-3,-1.6080592E-2,1.577153E-3,-1.489797E-3,1.9708976E-2,-4.230906E-2,-2.3105877E-2,6.5555666E-3,-8.4256185E-3,-4.7064785E-2,-3.2661214E-2,1.4382237E-2,-2.5419401E-2,4.9577756E-3,-1.3125939E-2],"split_indices":[12,1,3,3,3,3,10,1,1,3,4,4,12,0,0,4,3,10,1,10,10,4,8,4,1,4,0,0,0,0,0,0,0,0,0,0,0,0,0,0,0,0,0,0,0,0,0,0,0],"split_type":[0,0,0,0,0,0,0,0,0,0,0,0,0,0,0,0,0,0,0,0,0,0,0,0,0,0,0,0,0,0,0,0,0,0,0,0,0,0,0,0,0,0,0,0,0,0,0,0,0],"sum_hessian":[4.7770215E3,4.3862E3,3.9082108E2,3.8514631E3,5.3473706E2,3.210477E2,6.977335E1,1.0610239E3,2.7904392E3,2.3864117E2,2.960959E2,7.848667E1,2.4256104E2,5.7847085E0,6.3988644E1,2.0475383E2,8.562701E2,1.8235118E3,9.669274E2,1.01744896E2,1.3689629E2,2.0418234E2,9.191355E1,5.7020092E1,2.146658E1,2.326183E2,9.942741E0,1.2599525E2,7.875858E1,4.5898367E2,3.972864E2,7.354825E2,1.0880293E3,5.041506E2,4.6277682E2,7.220177E0,9.452472E1,9.811756E0,1.2708453E2,1.3716975E2,6.701258E1,7.3083145E1,1.883041E1,3.482481E1,2.2195282E1,4.941946E0,1.6524633E1,1.2673038E2,1.0588792E2],"tree_param":{"num_deleted":"0","num_feature":"13","num_nodes":"49","size_leaf_vector":"1"}},{"base_weights":[-5.4811477E-3,7.913994E-3,-4.4711802E-2,2.7357392E-2,-2.5193298E-1,-1.1598266E-2,6.441012E-2,-1.23610914E-1,-1.1488421E0,-1.80368E-1,5.2915692E-2,8.648127E-2,-1.22850254E-1,-5.897848E-1,-3.9221733E-3,-4.801298E-2,-1.5330132E-2,-1.7216763E-2,-5.426249E-3,9.545965E-4,7.7479556E-3,2.3177308E-3,1.0236792E-2,-2.434801E-3,-9.876395E-3,-3.317098E-2,1.9241819E-3,6.589805E-3,-1.1996458E-2],"categories":[],"categories_nodes":[],"categories_segments":[],"categories_sizes":[],"default_left":[0,0,0,0,0,0,0,0,0,0,0,0,0,0,0,0,0,0,0,0,0,0,0,0,0,0,0,0,0],"id":23,"left_children":[1,3,-1,5,7,9,11,13,15,17,19,21,23,25,27,-1,-1,-1,-1,-1,-1,-1,-1,-1,-1,-1,-1,-1,-1],"loss_changes":[7.153186E1,2.3950495E1,0E0,6.372362E0,3.77042E1,2.3445929E1,9.363943E0,1.6171387E1,8.4970856E-1,6.54237E0,6.351878E0,9.752893E0,1.7990253E0,9.148436E0,1.1697564E1,0E0,0E0,0E0,0E0,0E0,0E0,0E0,0E0,0E0,0E0,0E0,0E0,0E0,0E0],"parents":[2147483647,0,0,1,1,3,3,4,4,5,5,6,6,7,7,8,8,9,9,10,10,11,11,12,12,13,13,14,14],"right_children":[2,4,-1,6,8,10,12,14,16,18,20,22,24,26,28,-1,-1,-1,-1,-1,-1,-1,-1,-1,-1,-1,-1,-1,-1],"split_conditions":[2E0,1E0,-4.4711802E-2,7E0,1E0,1E0,1E0,0E0,1E0,2E0,1E0,3E0,1.1E1,4E0,1E0,-4.801298E-2,-1.5330132E-2,-1.7216763E-2,-5.426249E-3,9.545965E-4,7.7479556E-3,2.3177308E-3,1.0236792E-2,-2.434801E-3,-9.876395E-3,-3.317098E-2,1.9241819E-3,6.589805E-3,-1.1996458E-2],"split_indices":[12,12,0,0,3,3,8,3,9,0,9,3,0,5,2,0,0,0,0,0,0,0,0,0,0,0,0,0,0],"split_type":[0,0,0,0,0,0,0,0,0,0,0,0,0,0,0,0,0,0,0,0,0,0,0,0,0,0,0,0,0],"sum_hessian":[4.794809E3,4.7391816E3,5.5627644E1,4.4106807E3,3.2850058E2,2.1499727E3,2.2607083E3,2.88926E2,3.9574585E1,5.940383E2,1.5559342E3,2.0233085E3,2.3739983E2,5.7737164E1,2.3118884E2,3.6221756E1,3.3528275E0,8.797564E1,5.0606268E2,1.291534E3,2.6440015E2,1.7336272E3,2.896813E2,1.6006854E2,7.733129E1,4.1706993E1,1.603017E1,1.4758488E2,8.360396E1],"tree_param":{"num_deleted":"0","num_feature":"13","num_nodes":"29","size_leaf_vector":"1"}},{"base_weights":[3.9780457E-3,3.6424264E-2,-2.2668658E-1,-1.1051489E-1,1.0511562E-1,2.593961E-1,-6.774846E-1,3.162625E-1,-2.2297214E-1,-4.824719E-2,1.7678681E-1,-8.958003E-3,4.4099846E-1,-7.832028E-1,-4.8373917E-1,1.7229679E-1,4.0939543E-1,-9.926174E-2,-4.0923467E-1,-1.6287932E-2,-2.3092797E-1,2.0738834E-1,3.4743336E-3,1.5324546E-1,-1.3415755E-1,3.4927934E-1,5.2319556E-1,-3.710408E-2,-6.4543504E-1,6.5931864E-2,-6.908922E-1,1.291726E-3,1.1054603E-2,5.2224705E-3,1.8078953E-2,-5.9024403E-3,1.3818577E-2,-3.8652614E-2,2.683605E-4,-5.7521663E-3,2.4355329E-3,-2.1320129E-2,-4.908277E-3,3.893368E-3,1.1316254E-2,1.1109796E-2,-3.3064985E-3,-5.5299583E-3,1.4000877E-2,-1.410657E-2,-1.5392846E-3,1.7659599E-2,9.456577E-3,2.6860878E-2,1.3803593E-2,-3.316295E-2,-1.915726E-2,-2.0083808E-4,5.4885736E-3,-3.7007138E-2,-9.552581E-3],"categories":[],"categories_nodes":[],"categories_segments":[],"categories_sizes":[],"default_left":[0,0,0,0,0,0,0,0,0,0,0,0,0,0,0,0,0,0,0,0,0,0,0,0,0,0,0,0,0,0,0,0,0,0,0,0,0,0,0,0,0,0,0,0,0,0,0,0,0,0,0,0,0,0,0,0,0,0,0,0,0],"id":24,"left_children":[1,3,5,7,9,11,13,15,17,19,21,23,25,27,29,31,33,35,37,39,41,43,45,47,49,51,53,-1,55,57,59,-1,-1,-1,-1,-1,-1,-1,-1,-1,-1,-1,-1,-1,-1,-1,-1,-1,-1,-1,-1,-1,-1,-1,-1,-1,-1,-1,-1,-1,-1],"loss_changes":[3.584639E1,4.2410797E1,1.297029E2,6.434088E1,3.148981E1,1.39272E1,5.654358E0,3.6149006E0,2.4346195E1,5.3114347E0,1.0339947E1,2.395182E0,9.657402E-1,2.92173E0,1.2901836E1,1.6125665E0,1.8829975E0,1.3798439E1,9.7964615E1,7.681259E0,4.3010626E0,1.3724525E1,7.005885E0,3.0236578E0,1.3546656E0,6.968889E-1,1.8862476E0,0E0,2.5615654E0,1.6988172E-1,8.280102E0,0E0,0E0,0E0,0E0,0E0,0E0,0E0,0E0,0E0,0E0,0E0,0E0,0E0,0E0,0E0,0E0,0E0,0E0,0E0,0E0,0E0,0E0,0E0,0E0,0E0,0E0,0E0,0E0,0E0,0E0],"parents":[2147483647,0,0,1,1,2,2,3,3,4,4,5,5,6,6,7,7,8,8,9,9,10,10,11,11,12,12,13,13,14,14,15,15,16,16,17,17,18,18,19,19,20,20,21,21,22,22,23,23,24,24,25,25,26,26,28,28,29,29,30,30],"right_children":[2,4,6,8,10,12,14,16,18,20,22,24,26,28,30,32,34,36,38,40,42,44,46,48,50,52,54,-1,56,58,60,-1,-1,-1,-1,-1,-1,-1,-1,-1,-1,-1,-1,-1,-1,-1,-1,-1,-1,-1,-1,-1,-1,-1,-1,-1,-1,-1,-1,-1,-1],"split_conditions":[6E0,1E0,1E0,1E0,2E0,0E0,3E0,6E0,4E0,1E0,1E0,-1.8369701E-16,6.123234E-17,6.123234E-17,-5E-1,0E0,-8.660254E-1,1.2E1,5E0,2E0,4E0,-1.8369701E-16,-5E-1,6E0,-5E-1,7E0,8.660254E-1,-3.710408E-2,1E0,1E0,1E1,1.291726E-3,1.1054603E-2,5.2224705E-3,1.8078953E-2,-5.9024403E-3,1.3818577E-2,-3.8652614E-2,2.683605E-4,-5.7521663E-3,2.4355329E-3,-2.1320129E-2,-4.908277E-3,3.893368E-3,1.1316254E-2,1.1109796E-2,-3.3064985E-3,-5.5299583E-3,1.4000877E-2,-1.410657E-2,-1.5392846E-3,1.7659599E-2,9.456577E-3,2.6860878E-2,1.3803593E-2,-3.316295E-2,-1.915726E-2,-2.0083808E-4,5.4885736E-3,-3.7007138E-2,-9.552581E-3],"split_indices":[1,3,3,1,1,3,3,0,1,8,8,10,10,10,10,3,9,0,1,3,0,10,10,0,9,0,10,0,7,8,0,0,0,0,0,0,0,0,0,0,0,0,0,0,0,0,0,0,0,0,0,0,0,0,0,0,0,0,0,0,0],"split_type":[0,0,0,0,0,0,0,0,0,0,0,0,0,0,0,0,0,0,0,0,0,0,0,0,0,0,0,0,0,0,0,0,0,0,0,0,0,0,0,0,0,0,0,0,0,0,0,0,0,0,0,0,0,0,0,0,0,0,0,0,0],"sum_hessian":[4.7877285E3,4.1986143E3,5.891142E2,1.3369899E3,2.8616248E3,2.8371658E2,3.0539758E2,2.7816925E2,1.0588206E3,9.113341E2,1.9502905E3,1.14972374E2,1.687442E2,1.9446497E2,1.1093263E2,1.1115566E2,1.6701357E2,6.377876E2,4.21033E2,7.7726263E2,1.3407147E2,1.657113E3,2.931775E2,4.976434E1,6.520804E1,8.376159E1,8.498262E1,9.057137E1,1.0389359E2,3.05776E1,8.035503E1,4.8437862E1,6.2717804E1,2.3088358E1,1.4392522E2,5.763122E2,6.14754E1,1.7918405E2,2.4184894E2,2.928113E2,4.8445132E2,3.3688293E1,1.0038318E2,6.7602356E2,9.810895E2,6.9410225E1,2.2376726E2,2.0132763E1,2.9631575E1,1.847121E1,4.6736828E1,4.3451336E1,4.0310257E1,4.3947166E1,4.103545E1,4.6423386E1,5.7470207E1,1.5671494E1,1.4906107E1,5.1819542E1,2.8535486E1],"tree_param":{"num_deleted":"0","num_feature":"13","num_nodes":"61","size_leaf_vector":"1"}},{"base_weights":[-1.7322693E-3,3.580759E-2,-4.3240783E-1,3.3975581E-3,7.136905E-2,-2.8234124E-1,-4.595615E-2,-1.8159434E-2,2.2808582E-1,9.837599E-2,-1.2378282E-2,-7.6673335E-1,-1.3251373E-1,-9.408336E-2,3.9399132E-2,1.1394363E-1,3.4481385E-1,-7.14889E-2,1.1973261E-1,-8.552356E-2,2.3886241E-2,-1.0721655E0,-4.8216718E-1,-8.042518E-2,-4.712895E-2,-8.277009E-3,1.7165745E-3,4.7047297E-3,-2.8469744E-3,1.3725789E-3,2.2239083E-2,1.5491096E-2,6.734667E-3,2.530181E-3,-8.850526E-3,3.5211337E-3,6.0015437E-3,-7.837727E-3,2.4484529E-3,2.3640802E-3,-5.6310603E-4,-4.6769038E-2,-2.7419848E-2,-6.444618E-3,-3.1617835E-2,-6.1953506E-3,2.3239706E-2],"categories":[],"categories_nodes":[],"categories_segments":[],"categories_sizes":[],"default_left":[0,0,0,0,0,0,0,0,0,0,0,0,0,0,0,0,0,0,0,0,0,0,0,0,0,0,0,0,0,0,0,0,0,0,0,0,0,0,0,0,0,0,0,0,0,0,0],"id":25,"left_children":[1,3,5,7,9,11,-1,13,15,17,19,21,23,25,27,29,31,33,35,37,39,41,43,45,-1,-1,-1,-1,-1,-1,-1,-1,-1,-1,-1,-1,-1,-1,-1,-1,-1,-1,-1,-1,-1,-1,-1],"loss_changes":[7.7241974E1,5.0594854E0,4.0629242E1,1.1161115E1,4.7423267E0,2.2937445E1,0E0,9.188129E0,2.6059847E0,5.761709E0,1.3629451E0,5.6580124E0,1.3159365E1,1.4036974E1,1.0354689E1,3.6185508E0,6.1453915E-1,3.6128721E0,1.3210793E0,2.7843993E0,4.616338E-1,1.1875153E-2,3.8779087E0,1.1705232E1,0E0,0E0,0E0,0E0,0E0,0E0,0E0,0E0,0E0,0E0,0E0,0E0,0E0,0E0,0E0,0E0,0E0,0E0,0E0,0E0,0E0,0E0,0E0],"parents":[2147483647,0,0,1,1,2,2,3,3,4,4,5,5,7,7,8,8,9,9,10,10,11,11,12,12,13,13,14,14,15,15,16,16,17,17,18,18,19,19,20,20,21,21,22,22,23,23],"right_children":[2,4,6,8,10,12,-1,14,16,18,20,22,24,26,28,30,32,34,36,38,40,42,44,46,-1,-1,-1,-1,-1,-1,-1,-1,-1,-1,-1,-1,-1,-1,-1,-1,-1,-1,-1,-1,-1,-1,-1],"split_conditions":[1E0,2E0,1E0,1E0,8.660254E-1,0E0,-4.595615E-2,7E0,1E0,-8.660254E-1,3E0,2E0,2E0,1E0,1E0,3E0,3E0,2E0,-2.4492937E-16,1E0,3E0,8.660254E-1,-1.8369701E-16,1.2E1,-4.712895E-2,-8.277009E-3,1.7165745E-3,4.7047297E-3,-2.8469744E-3,1.3725789E-3,2.2239083E-2,1.5491096E-2,6.734667E-3,2.530181E-3,-8.850526E-3,3.5211337E-3,6.0015437E-3,-7.837727E-3,2.4484529E-3,2.3640802E-3,-5.6310603E-4,-4.6769038E-2,-2.7419848E-2,-6.444618E-3,-3.1617835E-2,-6.1953506E-3,2.3239706E-2],"split_indices":[12,3,3,9,9,3,0,0,3,9,0,4,12,3,3,4,4,4,9,2,3,9,10,0,0,0,0,0,0,0,0,0,0,0,0,0,0,0,0,0,0,0,0,0,0,0,0],"split_type":[0,0,0,0,0,0,0,0,0,0,0,0,0,0,0,0,0,0,0,0,0,0,0,0,0,0,0,0,0,0,0,0,0,0,0,0,0,0,0,0,0,0,0,0,0,0,0],"sum_hessian":[4.7734443E3,4.391885E3,3.815597E2,2.2993503E3,2.0925344E3,3.1726993E2,6.428978E1,2.0991138E3,2.002365E2,1.5825326E3,5.1000192E2,7.34137E1,2.4385623E2,9.051164E2,1.1939974E3,1.0295491E2,9.7281586E1,1.7609084E2,1.4064418E3,1.688248E2,3.4117712E2,3.332154E1,4.0092155E1,2.3386995E2,9.986272E0,4.960943E2,4.0902213E2,6.9951843E2,4.9447906E2,8.870491E1,1.4249998E1,7.67382E1,2.054339E1,9.297718E1,8.3113655E1,6.910326E2,7.154091E2,9.624049E1,7.2584305E1,1.7724466E2,1.6393246E2,2.4105576E1,9.215965E0,2.0837463E1,1.9254694E1,2.1130663E2,2.2563337E1],"tree_param":{"num_deleted":"0","num_feature":"13","num_nodes":"47","size_leaf_vector":"1"}},{"base_weights":[6.813785E-4,1.3367198E-2,-1.1237702E0,3.5085242E-2,-2.8017262E-1,-1.5921507E-2,-4.771252E-2,6.785086E-2,-1.9922915E-1,-1.5929757E-1,-1.1172372E0,-6.4864695E-2,1.17777176E-1,2.2427626E-1,-5.5614597E-1,-6.2797433E-1,-4.1913263E-2,-1.1683469E0,-1.5820878E-2,2.9774357E-3,-1.4010622E-2,1.7355813E-3,1.0324912E-2,2.0015868E-3,1.4002181E-2,-3.621723E-2,7.1957754E-3,-3.5027E-2,6.763017E-3,7.1029747E-3,-1.2174343E-2,-1.9362366E-2,-4.8866346E-2],"categories":[],"categories_nodes":[],"categories_segments":[],"categories_sizes":[],"default_left":[0,0,0,0,0,0,0,0,0,0,0,0,0,0,0,0,0,0,0,0,0,0,0,0,0,0,0,0,0,0,0,0,0],"id":26,"left_children":[1,3,5,7,9,-1,-1,11,13,15,17,19,21,23,25,27,29,31,-1,-1,-1,-1,-1,-1,-1,-1,-1,-1,-1,-1,-1,-1,-1],"loss_changes":[6.810787E1,3.0125898E1,1.8771973E0,3.380323E1,3.260575E1,0E0,0E0,2.5607067E1,8.1847565E1,1.5675142E1,7.326546E-1,4.2057014E1,2.9278072E1,5.389265E0,7.576223E1,1.153883E1,1.3371257E1,3.863907E-1,0E0,0E0,0E0,0E0,0E0,0E0,0E0,0E0,0E0,0E0,0E0,0E0,0E0,0E0,0E0],"parents":[2147483647,0,0,1,1,2,2,3,3,4,4,7,7,8,8,9,9,10,10,11,11,12,12,13,13,14,14,15,15,16,16,17,17],"right_children":[2,4,6,8,10,-1,-1,12,14,16,18,20,22,24,26,28,30,32,-1,-1,-1,-1,-1,-1,-1,-1,-1,-1,-1,-1,-1,-1,-1],"split_conditions":[2E0,1E0,-8.660254E-1,6E0,1E0,-1.5921507E-2,-4.771252E-2,1E0,1E0,0E0,1.2E1,4E0,4E0,0E0,3E0,3E0,2E0,-8.660254E-1,-1.5820878E-2,2.9774357E-3,-1.4010622E-2,1.7355813E-3,1.0324912E-2,2.0015868E-3,1.4002181E-2,-3.621723E-2,7.1957754E-3,-3.5027E-2,6.763017E-3,7.1029747E-3,-1.2174343E-2,-1.9362366E-2,-4.8866346E-2],"split_indices":[12,12,10,1,3,0,0,3,3,3,0,1,1,3,4,4,4,10,0,0,0,0,0,0,0,0,0,0,0,0,0,0,0],"split_type":[0,0,0,0,0,0,0,0,0,0,0,0,0,0,0,0,0,0,0,0,0,0,0,0,0,0,0,0,0,0,0,0,0],"sum_hessian":[4.775424E3,4.723659E3,5.1764668E1,4.3996357E3,3.2402347E2,5.441283E0,4.6323383E1,3.8610066E3,5.3862915E2,2.847498E2,3.9273674E1,1.0550343E3,2.8059722E3,2.4652649E2,2.9210263E2,5.5641422E1,2.2910837E2,3.574478E1,3.5288916E0,7.096141E2,3.4542017E2,1.835447E3,9.705252E2,1.0439951E2,1.4212698E2,1.9790865E2,9.4193985E1,4.2384327E1,1.3257097E1,1.2492552E2,1.04182846E2,3.7441354E0,3.200065E1],"tree_param":{"num_deleted":"0","num_feature":"13","num_nodes":"33","size_leaf_vector":"1"}},{"base_weights":[2.0331068E-2,4.4438668E-2,-1.4895213E-1,6.925216E-2,-5.9740584E-2,-3.2583687E-2,-6.6019887E-1,8.455346E-2,-8.9325E-2,3.2246962E-2,-1.9177386E-1,-1.8941675E-1,1.2688659E-1,-1.0340362E0,9.133825E-2,6.728457E-2,2.603516E-1,2.752714E-2,-5.8437866E-1,9.9632345E-2,-9.7804286E-2,-2.4888979E-1,4.3383166E-2,-1.4321885E-1,-5.850401E-1,3.4716725E-1,4.647945E-2,-1.1766148E0,-7.648114E-1,-5.1072425E-1,4.704651E-1,5.899843E-3,1.996039E-3,1.4637904E-2,1.0054823E-3,-1.2862097E-2,9.315367E-3,-9.428364E-3,-2.8738732E-2,-4.8483247E-3,5.4289578E-3,-1.1365515E-2,2.3167063E-3,-2.0186108E-4,-1.2633677E-2,3.8386586E-3,-9.301762E-3,-7.578441E-3,-3.039974E-3,2.9799715E-3,-3.3414934E-2,6.879071E-3,1.9624403E-2,3.950768E-3,-9.1757625E-3,-1.54203605E-2,-4.9098715E-2,-4.000218E-2,-4.0674484E-3,-2.820865E-2,-7.0391586E-3,2.4914114E-2,1.2961344E-3],"categories":[],"categories_nodes":[],"categories_segments":[],"categories_sizes":[],"default_left":[0,0,0,0,0,0,0,0,0,0,0,0,0,0,0,0,0,0,0,0,0,0,0,0,0,0,0,0,0,0,0,0,0,0,0,0,0,0,0,0,0,0,0,0,0,0,0,0,0,0,0,0,0,0,0,0,0,0,0,0,0,0,0],"id":27,"left_children":[1,3,5,7,9,11,13,15,17,19,21,23,25,27,29,31,33,35,37,39,41,43,45,47,49,51,53,55,57,59,61,-1,-1,-1,-1,-1,-1,-1,-1,-1,-1,-1,-1,-1,-1,-1,-1,-1,-1,-1,-1,-1,-1,-1,-1,-1,-1,-1,-1,-1,-1,-1,-1],"loss_changes":[1.964194E1,1.0898632E1,3.5624107E1,8.270695E0,9.866323E0,1.2302783E1,3.1395832E1,9.385174E0,1.7406065E1,4.2125006E0,4.5047503E0,4.3701515E0,4.2755375E0,1.4068298E0,9.085166E0,3.9251719E0,6.846472E0,1.760334E1,2.3836346E0,2.5481942E0,4.7943377E0,4.367651E0,9.880775E-1,6.618595E-1,4.313422E0,1.4690928E0,2.6319997E0,1.0479317E0,4.4952183E0,7.750716E-1,1.5585198E0,0E0,0E0,0E0,0E0,0E0,0E0,0E0,0E0,0E0,0E0,0E0,0E0,0E0,0E0,0E0,0E0,0E0,0E0,0E0,0E0,0E0,0E0,0E0,0E0,0E0,0E0,0E0,0E0,0E0,0E0,0E0,0E0],"parents":[2147483647,0,0,1,1,2,2,3,3,4,4,5,5,6,6,7,7,8,8,9,9,10,10,11,11,12,12,13,13,14,14,15,15,16,16,17,17,18,18,19,19,20,20,21,21,22,22,23,23,24,24,25,25,26,26,27,27,28,28,29,29,30,30],"right_children":[2,4,6,8,10,12,14,16,18,20,22,24,26,28,30,32,34,36,38,40,42,44,46,48,50,52,54,56,58,60,62,-1,-1,-1,-1,-1,-1,-1,-1,-1,-1,-1,-1,-1,-1,-1,-1,-1,-1,-1,-1,-1,-1,-1,-1,-1,-1,-1,-1,-1,-1,-1,-1],"split_conditions":[6E0,4E0,1E0,1E0,8E0,3E0,4E0,1.2E1,5E0,4E0,5E0,1E0,-5E-1,3E0,-1.8369701E-16,1E0,4E0,2E0,-5E-1,2E0,5E0,1E0,1E0,8E0,-5E-1,4E0,1E0,-8.660254E-1,1E1,-5E-1,8.660254E-1,5.899843E-3,1.996039E-3,1.4637904E-2,1.0054823E-3,-1.2862097E-2,9.315367E-3,-9.428364E-3,-2.8738732E-2,-4.8483247E-3,5.4289578E-3,-1.1365515E-2,2.3167063E-3,-2.0186108E-4,-1.2633677E-2,3.8386586E-3,-9.301762E-3,-7.578441E-3,-3.039974E-3,2.9799715E-3,-3.3414934E-2,6.879071E-3,1.9624403E-2,3.950768E-3,-9.1757625E-3,-1.54203605E-2,-4.9098715E-2,-4.000218E-2,-4.0674484E-3,-2.820865E-2,-7.0391586E-3,2.4914114E-2,1.2961344E-3],"split_indices":[1,5,7,8,0,5,5,0,1,1,1,8,10,5,10,1,1,1,9,0,1,1,8,0,10,5,8,10,0,10,9,0,0,0,0,0,0,0,0,0,0,0,0,0,0,0,0,0,0,0,0,0,0,0,0,0,0,0,0,0,0,0,0],"split_type":[0,0,0,0,0,0,0,0,0,0,0,0,0,0,0,0,0,0,0,0,0,0,0,0,0,0,0,0,0,0,0,0,0,0,0,0,0,0,0,0,0,0,0,0,0,0,0,0,0,0,0,0,0,0,0,0,0,0,0,0,0,0,0],"sum_hessian":[4.8103555E3,4.211936E3,5.984197E2,3.4025068E3,8.09429E2,4.888439E2,1.0957577E2,3.1040127E3,2.9849426E2,4.775058E2,3.319232E2,2.464759E2,2.4236798E2,7.2843765E1,3.6732006E1,2.8285217E3,2.7549094E2,2.4255688E2,5.5937374E1,3.1501678E2,1.6248901E2,2.6715942E2,6.476377E1,2.2264635E2,2.3829557E1,6.331476E1,1.7905322E2,4.419649E1,2.8647274E1,1.3940931E1,2.2791073E1,5.0130295E2,2.3272188E3,1.8941132E2,8.607963E1,8.943578E1,1.531211E2,1.6789574E1,3.91478E1,4.3559322E1,2.714575E2,7.355672E1,8.89323E1,5.8060356E1,2.0909906E2,5.537122E1,9.39255E0,1.2984837E2,9.279798E1,6.79115E0,1.7038408E1,3.014492E1,3.3169838E1,1.5148465E2,2.7568573E1,3.5061986E0,4.0690292E1,2.052759E1,8.119683E0,7.673219E0,6.2677126E0,1.6354845E1,6.4362288E0],"tree_param":{"num_deleted":"0","num_feature":"13","num_nodes":"63","size_leaf_vector":"1"}},{"base_weights":[2.1640204E-3,3.854469E-2,-4.2453474E-1,6.702781E-2,-1.7042388E-1,-2.9016486E-1,-1.111437E0,-8.654086E-2,1.2476548E-1,2.620879E-1,-5.2692753E-1,-7.4304414E-1,-1.5003885E-1,-4.5741513E-2,-2.2616573E-2,2.6061875E-1,-1.7466587E-1,4.5733724E-2,2.7009967E-1,5.2288268E-2,4.1702342E-1,-8.6867493E-1,1.356038E-1,-1.0389016E0,-4.696314E-1,2.7646082E-2,-4.389212E-1,4.24635E-3,1.6430058E-2,-2.8983394E-2,-5.2413307E-3,-1.0339575E-3,4.4888495E-3,1.8058758E-2,2.3943265E-3,1.1205218E-2,-5.037472E-3,2.0213673E-2,-3.052182E-3,-4.129627E-2,-2.366784E-2,-1.3613991E-2,7.1438574E-3,-4.5470078E-2,-2.6356801E-2,1.9229475E-2,-2.7342843E-2,1.1203512E-2,-1.2635741E-2,-5.130114E-2,-1.636644E-3],"categories":[],"categories_nodes":[],"categories_segments":[],"categories_sizes":[],"default_left":[0,0,0,0,0,0,0,0,0,0,0,0,0,0,0,0,0,0,0,0,0,0,0,0,0,0,0,0,0,0,0,0,0,0,0,0,0,0,0,0,0,0,0,0,0,0,0,0,0,0,0],"id":28,"left_children":[1,3,5,7,9,11,13,15,17,19,21,23,25,-1,-1,27,29,31,33,35,37,39,41,43,45,47,49,-1,-1,-1,-1,-1,-1,-1,-1,-1,-1,-1,-1,-1,-1,-1,-1,-1,-1,-1,-1,-1,-1,-1,-1],"loss_changes":[7.3935844E1,2.6140392E1,3.398152E1,3.428361E1,8.1446304E1,1.9780653E1,7.3623657E-3,3.238888E1,3.223474E1,7.7112255E0,6.5722275E1,5.1770287E0,1.2489434E1,0E0,0E0,4.8805475E0,2.0058798E1,8.679478E0,3.7648674E1,4.257726E0,6.0526714E0,7.669998E0,2.1232662E0,5.8502197E-2,8.894862E0,1.3268651E1,3.0936985E1,0E0,0E0,0E0,0E0,0E0,0E0,0E0,0E0,0E0,0E0,0E0,0E0,0E0,0E0,0E0,0E0,0E0,0E0,0E0,0E0,0E0,0E0,0E0,0E0],"parents":[2147483647,0,0,1,1,2,2,3,3,4,4,5,5,6,6,7,7,8,8,9,9,10,10,11,11,12,12,15,15,16,16,17,17,18,18,19,19,20,20,21,21,22,22,23,23,24,24,25,25,26,26],"right_children":[2,4,6,8,10,12,14,16,18,20,22,24,26,-1,-1,28,30,32,34,36,38,40,42,44,46,48,50,-1,-1,-1,-1,-1,-1,-1,-1,-1,-1,-1,-1,-1,-1,-1,-1,-1,-1,-1,-1,-1,-1,-1,-1],"split_conditions":[1E0,6E0,1E0,1E0,1E0,0E0,1E0,1E0,4E0,0E0,3E0,2E0,4E0,-4.5741513E-2,-2.2616573E-2,0E0,2E0,2E0,5E0,-1.8369701E-16,3E0,3E0,-8.660254E-1,8.660254E-1,-8.660254E-1,2E0,5E0,4.24635E-3,1.6430058E-2,-2.8983394E-2,-5.2413307E-3,-1.0339575E-3,4.4888495E-3,1.8058758E-2,2.3943265E-3,1.1205218E-2,-5.037472E-3,2.0213673E-2,-3.052182E-3,-4.129627E-2,-2.366784E-2,-1.3613991E-2,7.1438574E-3,-4.5470078E-2,-2.6356801E-2,1.9229475E-2,-2.7342843E-2,1.1203512E-2,-1.2635741E-2,-5.130114E-2,-1.636644E-3],"split_indices":[12,1,3,3,3,3,9,1,1,3,4,4,1,0,0,3,0,1,1,10,4,3,10,9,10,4,1,0,0,0,0,0,0,0,0,0,0,0,0,0,0,0,0,0,0,0,0,0,0,0,0],"split_type":[0,0,0,0,0,0,0,0,0,0,0,0,0,0,0,0,0,0,0,0,0,0,0,0,0,0,0,0,0,0,0,0,0,0,0,0,0,0,0,0,0,0,0,0,0,0,0,0,0,0,0],"sum_hessian":[4.760969E3,4.3883013E3,3.7266827E2,3.863017E3,5.2528406E2,3.1354074E2,5.9127533E1,1.0550956E3,2.8079214E3,2.3745709E2,2.8782697E2,7.2479675E1,2.4106107E2,5.420761E1,4.9199224E0,2.1289879E2,8.4219684E2,1.8203458E3,9.8757556E2,1.018585E2,1.355986E2,1.8962383E2,9.820315E1,3.2706142E1,3.977353E1,1.4998938E2,9.107168E1,1.0636337E2,1.06535416E2,6.0105656E1,7.820912E2,8.7666455E2,9.436813E2,5.291416E2,4.58434E2,4.445293E1,5.7405567E1,1.15064E2,2.0534595E1,1.164906E2,7.3133224E1,7.17989E0,9.1023254E1,2.35283E1,9.177843E0,6.9216566E0,3.2851875E1,8.670149E1,6.328789E1,2.8084616E1,6.2987064E1],"tree_param":{"num_deleted":"0","num_feature":"13","num_nodes":"51","size_leaf_vector":"1"}},{"base_weights":[1.246668E-3,1.3538511E-2,-4.736392E-2,3.426791E-2,-2.6676935E-1,6.6972084E-2,-2.0149626E-1,-3.2210788E-1,2.8685236E-1,8.6297184E-2,-1.7922528E-2,-3.202651E-1,1.2047251E-1,-2.3038626E-2,-3.9191774E-1,4.711347E-1,-2.5382556E-2,2.464007E-3,6.2391073E-3,2.0697617E-3,-4.689971E-3,-7.713597E-3,-3.778875E-2,3.5149383E-3,1.6810205E-2,5.415953E-3,-1.1174587E-2,-2.1434085E-2,-5.8516953E-3,1.1241214E-2,4.424577E-2],"categories":[],"categories_nodes":[],"categories_segments":[],"categories_sizes":[],"default_left":[0,0,0,0,0,0,0,0,0,0,0,0,0,0,0,0,0,0,0,0,0,0,0,0,0,0,0,0,0,0,0],"id":29,"left_children":[1,3,-1,5,7,9,11,13,15,17,19,21,23,25,27,29,-1,-1,-1,-1,-1,-1,-1,-1,-1,-1,-1,-1,-1,-1,-1],"loss_changes":[6.9504456E1,2.7458775E1,0E0,3.3950226E1,1.0109083E1,6.349148E0,2.0577948E1,6.1582375E0,5.5819054E0,5.3960705E0,4.9788127E0,3.0888924E1,1.3412316E0,2.4137855E0,8.341885E0,2.6198893E0,0E0,0E0,0E0,0E0,0E0,0E0,0E0,0E0,0E0,0E0,0E0,0E0,0E0,0E0,0E0],"parents":[2147483647,0,0,1,1,3,3,4,4,5,5,6,6,7,7,8,8,9,9,10,10,11,11,12,12,13,13,14,14,15,15],"right_children":[2,4,-1,6,8,10,12,14,16,18,20,22,24,26,28,30,-1,-1,-1,-1,-1,-1,-1,-1,-1,-1,-1,-1,-1,-1,-1],"split_conditions":[2E0,1E0,-4.736392E-2,6E0,1.2E1,3E0,3E0,1E0,3E0,1E1,8E0,1E0,1.2E1,7E0,5E0,6E0,-2.5382556E-2,2.464007E-3,6.2391073E-3,2.0697617E-3,-4.689971E-3,-7.713597E-3,-3.778875E-2,3.5149383E-3,1.6810205E-2,5.415953E-3,-1.1174587E-2,-2.1434085E-2,-5.8516953E-3,1.1241214E-2,4.424577E-2],"split_indices":[12,12,0,1,0,4,4,1,4,0,0,7,0,0,1,1,0,0,0,0,0,0,0,0,0,0,0,0,0,0,0],"split_type":[0,0,0,0,0,0,0,0,0,0,0,0,0,0,0,0,0,0,0,0,0,0,0,0,0,0,0,0,0,0,0],"sum_hessian":[4.7712246E3,4.723765E3,4.745967E1,4.3998794E3,3.23886E2,3.8650256E3,5.3485345E2,2.9510562E2,2.8780367E1,3.148807E3,7.162188E2,3.9084177E2,1.4401172E2,5.6361446E1,2.3874417E2,2.4639736E1,4.140631E0,2.3274333E3,8.213736E2,4.2108798E2,2.951308E2,3.2630057E2,6.454118E1,1.3178732E2,1.2224385E1,3.514846E1,2.1212988E1,1.492872E2,8.945697E1,2.0688692E1,3.951044E0],"tree_param":{"num_deleted":"0","num_feature":"13","num_nodes":"31","size_leaf_vector":"1"}},{"base_weights":[1.1376192E-2,2.3172177E-2,-1.0422622E0,4.0836547E-2,-2.0721173E-1,-1.3617892E-2,-4.43043E-2,6.737675E-2,-1.4999583E-1,-3.533378E-2,-4.6402836E-1,9.117064E-2,-3.7730195E-2,-2.7792457E-1,1.9569969E-1,2.619228E-1,-3.9168212E-1,-5.033132E-2,-1.7101395E-1,2.1449039E-3,6.51633E-3,-8.305907E-3,6.392993E-4,-6.046855E-3,-3.696728E-2,6.246119E-3,2.2066964E-2,-1.5438541E-3,3.63472E-2,1.7023335E-3,-2.5888845E-2,-3.197639E-3,-4.0767916E-2],"categories":[],"categories_nodes":[],"categories_segments":[],"categories_sizes":[],"default_left":[0,0,0,0,0,0,0,0,0,0,0,0,0,0,0,0,0,0,0,0,0,0,0,0,0,0,0,0,0,0,0,0,0],"id":30,"left_children":[1,3,5,7,9,-1,-1,11,13,15,17,19,21,23,25,27,29,-1,31,-1,-1,-1,-1,-1,-1,-1,-1,-1,-1,-1,-1,-1,-1],"loss_changes":[5.9406437E1,1.925166E1,1.7888184E0,2.226642E1,1.4819478E1,0E0,0E0,9.658682E0,2.382294E1,2.1720444E1,3.0981012E1,8.454056E0,6.5219016E0,3.188779E1,1.8872423E0,2.1824303E1,1.0418568E1,0E0,7.5679584E0,0E0,0E0,0E0,0E0,0E0,0E0,0E0,0E0,0E0,0E0,0E0,0E0,0E0,0E0],"parents":[2147483647,0,0,1,1,2,2,3,3,4,4,7,7,8,8,9,9,10,10,11,11,12,12,13,13,14,14,15,15,16,16,18,18],"right_children":[2,4,6,8,10,-1,-1,12,14,16,18,20,22,24,26,28,30,-1,32,-1,-1,-1,-1,-1,-1,-1,-1,-1,-1,-1,-1,-1,-1],"split_conditions":[2E0,1E0,-8.660254E-1,6E0,4E0,-1.3617892E-2,-4.43043E-2,3E0,3E0,2E0,5E0,4E0,-5E-1,1E0,1E0,3E0,1E0,-5.033132E-2,1E0,2.1449039E-3,6.51633E-3,-8.305907E-3,6.392993E-4,-6.046855E-3,-3.696728E-2,6.246119E-3,2.2066964E-2,-1.5438541E-3,3.63472E-2,1.7023335E-3,-2.5888845E-2,-3.197639E-3,-4.0767916E-2],"split_indices":[12,12,10,1,1,0,0,4,4,4,1,1,9,7,10,1,1,0,7,0,0,0,0,0,0,0,0,0,0,0,0,0,0],"split_type":[0,0,0,0,0,0,0,0,0,0,0,0,0,0,0,0,0,0,0,0,0,0,0,0,0,0,0,0,0,0,0,0,0],"sum_hessian":[4.779462E3,4.7280435E3,5.1418243E1,4.3926914E3,3.353524E2,5.2383137E0,4.6179928E1,3.8574458E3,5.352456E2,2.020373E2,1.333151E2,3.145947E3,7.114986E2,3.909928E2,1.442528E2,1.1029184E2,9.174545E1,3.4550175E1,9.8764915E1,2.06725E3,1.0786971E3,1.7008257E2,5.41416E2,3.2849246E2,6.250035E1,1.3189813E2,1.23546715E1,7.621249E1,3.4079357E1,3.4379128E1,5.7366325E1,9.072385E1,8.041066E0],"tree_param":{"num_deleted":"0","num_feature":"13","num_nodes":"33","size_leaf_vector":"1"}},{"base_weights":[1.2595305E-2,4.372839E-2,-3.5993713E-1,6.796872E-2,-1.3228738E-1,-2.2348666E-1,-1.0477607E0,-2.5083038E-3,1.4103702E-1,2.7491972E-1,-4.7701368E-1,-6.803521E-1,-8.0371365E-2,-1.3532138E-2,-4.4394247E-2,4.1783493E-2,-9.080881E-2,6.752479E-2,2.778181E-1,6.772535E-2,4.295076E-1,-5.787766E-1,-3.3627647E-1,6.384218E-2,-7.9442453E-1,-2.8343368E-1,1.6046496E-1,1.7156846E-4,6.033768E-3,-1.0346469E-2,4.0167365E-3,4.3522883E-3,-3.470281E-3,1.40989E-2,5.761383E-4,7.905317E-3,-4.958167E-3,2.5379637E-2,1.0186881E-2,-2.7832888E-2,-1.5307976E-2,-4.0699122E-3,-1.9982465E-2,-1.7403934E-2,1.34689E-2,-2.2666961E-2,-4.2088103E-2,-4.8555015E-3,-2.4577621E-2,1.5973349E-3,2.830085E-2],"categories":[],"categories_nodes":[],"categories_segments":[],"categories_sizes":[],"default_left":[0,0,0,0,0,0,0,0,0,0,0,0,0,0,0,0,0,0,0,0,0,0,0,0,0,0,0,0,0,0,0,0,0,0,0,0,0,0,0,0,0,0,0,0,0,0,0,0,0,0,0],"id":31,"left_children":[1,3,5,7,9,11,13,15,17,19,21,23,25,-1,-1,27,29,31,33,35,37,39,41,43,45,47,49,-1,-1,-1,-1,-1,-1,-1,-1,-1,-1,-1,-1,-1,-1,-1,-1,-1,-1,-1,-1,-1,-1,-1,-1],"loss_changes":[5.520438E1,1.875603E1,3.403796E1,1.9900204E1,7.489763E1,2.0037235E1,2.020897E0,7.702867E0,1.9028866E1,7.772997E0,3.7978973E0,6.331192E0,1.1642113E1,0E0,0E0,5.351711E0,2.1169668E1,7.887956E0,1.3000328E1,2.6930711E0,4.723013E0,3.3402443E0,4.6791277E0,1.7215201E0,2.7636566E0,6.769987E0,7.1106715E0,0E0,0E0,0E0,0E0,0E0,0E0,0E0,0E0,0E0,0E0,0E0,0E0,0E0,0E0,0E0,0E0,0E0,0E0,0E0,0E0,0E0,0E0,0E0,0E0],"parents":[2147483647,0,0,1,1,2,2,3,3,4,4,5,5,6,6,7,7,8,8,9,9,10,10,11,11,12,12,15,15,16,16,17,17,18,18,19,19,20,20,21,21,22,22,23,23,24,24,25,25,26,26],"right_children":[2,4,6,8,10,12,14,16,18,20,22,24,26,-1,-1,28,30,32,34,36,38,40,42,44,46,48,50,-1,-1,-1,-1,-1,-1,-1,-1,-1,-1,-1,-1,-1,-1,-1,-1,-1,-1,-1,-1,-1,-1,-1,-1],"split_conditions":[1E0,6E0,1E0,2E0,1E0,0E0,-8.660254E-1,4E0,4E0,0E0,5E-1,-8.660254E-1,5E-1,-1.3532138E-2,-4.4394247E-2,3E0,1E0,1E0,1E0,5E-1,6E0,3E0,8.660254E-1,2E0,5E-1,4E0,6E0,1.7156846E-4,6.033768E-3,-1.0346469E-2,4.0167365E-3,4.3522883E-3,-3.470281E-3,1.40989E-2,5.761383E-4,7.905317E-3,-4.958167E-3,2.5379637E-2,1.0186881E-2,-2.7832888E-2,-1.5307976E-2,-4.0699122E-3,-1.9982465E-2,-1.7403934E-2,1.34689E-2,-2.2666961E-2,-4.2088103E-2,-4.8555015E-3,-2.4577621E-2,1.5973349E-3,2.830085E-2],"split_indices":[12,1,3,3,3,3,10,1,1,3,10,10,10,0,0,1,3,8,8,10,0,3,10,1,10,1,1,0,0,0,0,0,0,0,0,0,0,0,0,0,0,0,0,0,0,0,0,0,0,0,0],"split_type":[0,0,0,0,0,0,0,0,0,0,0,0,0,0,0,0,0,0,0,0,0,0,0,0,0,0,0,0,0,0,0,0,0,0,0,0,0,0,0,0,0,0,0,0,0,0,0,0,0,0,0],"sum_hessian":[4.757612E3,4.392022E3,3.6558957E2,3.8614417E3,5.305806E2,3.0678885E2,5.8800728E1,1.965963E3,1.8954785E3,2.4331917E2,2.8726147E2,7.1752846E1,2.3503601E2,5.5755944E0,5.3225132E1,1.3093921E3,6.56571E2,1.2345712E3,6.6090735E2,1.0502911E2,1.3829005E2,1.6379916E2,1.2346231E2,9.566222E0,6.2186623E1,1.27487015E2,1.07548996E2,9.759016E2,3.3349045E2,3.495128E2,3.0705823E2,9.745651E2,2.6000598E2,